<?xml version="1.0"?>
<MethodSetup Method="BDT::BDTG">
  <GeneralInfo>
    <Info name="TMVA Release" value="4.1.0 [262400]"/>
    <Info name="ROOT Release" value="5.28/00 [334848]"/>
    <Info name="Creator" value="sixie"/>
    <Info name="Date" value="Fri Jul 20 14:10:42 2012"/>
    <Info name="Host" value="Linux x86-03.phx2.fedoraproject.org 2.6.32-220.17.1.el6.x86_64 #1 SMP Thu Apr 26 13:37:13 EDT 2012 x86_64 x86_64 x86_64 GNU/Linux"/>
    <Info name="Dir" value="/data/blue/sixie/LeptonSelection/Electrons/HWW/IDIsoMVA"/>
    <Info name="Training events" value="28777"/>
    <Info name="TrainingTime" value="184.382"/>
    <Info name="AnalysisType" value="Classification"/>
  </GeneralInfo>
  <Options>
    <Option name="V" modified="Yes">False</Option>
    <Option name="VerbosityLevel" modified="No">Default</Option>
    <Option name="VarTransform" modified="No">None</Option>
    <Option name="H" modified="Yes">False</Option>
    <Option name="CreateMVAPdfs" modified="No">False</Option>
    <Option name="IgnoreNegWeightsInTraining" modified="No">False</Option>
    <Option name="NTrees" modified="Yes">2000</Option>
    <Option name="RenormByClass" modified="No">False</Option>
    <Option name="BoostType" modified="Yes">Grad</Option>
    <Option name="AdaBoostR2Loss" modified="No">quadratic</Option>
    <Option name="UseBaggedGrad" modified="Yes">False</Option>
    <Option name="GradBaggingFraction" modified="No">6.000000e-01</Option>
    <Option name="Shrinkage" modified="Yes">1.000000e-01</Option>
    <Option name="AdaBoostBeta" modified="No">1.000000e+00</Option>
    <Option name="UseRandomisedTrees" modified="No">False</Option>
    <Option name="UseNvars" modified="Yes">4</Option>
    <Option name="UsePoissonNvars" modified="No">True</Option>
    <Option name="UseNTrainEvents" modified="No">28777</Option>
    <Option name="UseWeightedTrees" modified="No">True</Option>
    <Option name="UseYesNoLeaf" modified="No">True</Option>
    <Option name="NodePurityLimit" modified="No">5.000000e-01</Option>
    <Option name="SeparationType" modified="No">giniindex</Option>
    <Option name="nEventsMin" modified="Yes">100</Option>
    <Option name="nCuts" modified="Yes">2000</Option>
    <Option name="UseFisherCuts" modified="No">False</Option>
    <Option name="MinLinCorrForFisher" modified="No">8.000000e-01</Option>
    <Option name="UseExclusiveVars" modified="No">False</Option>
    <Option name="PruneStrength" modified="Yes">5.000000e+00</Option>
    <Option name="PruneMethod" modified="Yes">costcomplexity</Option>
    <Option name="PruneBeforeBoost" modified="No">False</Option>
    <Option name="PruningValFraction" modified="No">5.000000e-01</Option>
    <Option name="NNodesMax" modified="Yes">5</Option>
    <Option name="MaxDepth" modified="Yes">6</Option>
  </Options>
  <Variables NVar="35">
    <Variable VarIndex="0" Expression="fbrem" Label="fbrem" Title="fbrem" Unit="" Internal="fbrem" Type="F" Min="-1" Max="0.989532"/>
    <Variable VarIndex="1" Expression="kfchi2" Label="kfchi2" Title="kfchi2" Unit="" Internal="kfchi2" Type="F" Min="0" Max="10"/>
    <Variable VarIndex="2" Expression="kflayers" Label="kflayers" Title="kflayers" Unit="" Internal="kflayers" Type="F" Min="-1" Max="13"/>
    <Variable VarIndex="3" Expression="gsfchi2" Label="gsfchi2" Title="gsfchi2" Unit="" Internal="gsfchi2" Type="F" Min="0.0936279" Max="200"/>
    <Variable VarIndex="4" Expression="deta" Label="deta" Title="deta" Unit="" Internal="deta" Type="F" Min="1.78814e-07" Max="0.00699997"/>
    <Variable VarIndex="5" Expression="dphi" Label="dphi" Title="dphi" Unit="" Internal="dphi" Type="F" Min="-0.149757" Max="0.149414"/>
    <Variable VarIndex="6" Expression="detacalo" Label="detacalo" Title="detacalo" Unit="" Internal="detacalo" Type="F" Min="-0.0918427" Max="0.077713"/>
    <Variable VarIndex="7" Expression="see" Label="see" Title="see" Unit="" Internal="see" Type="F" Min="0" Max="0.00999975"/>
    <Variable VarIndex="8" Expression="spp" Label="spp" Title="spp" Unit="" Internal="spp" Type="F" Min="0" Max="0.0297543"/>
    <Variable VarIndex="9" Expression="etawidth" Label="etawidth" Title="etawidth" Unit="" Internal="etawidth" Type="F" Min="0.00465155" Max="0.0251913"/>
    <Variable VarIndex="10" Expression="phiwidth" Label="phiwidth" Title="phiwidth" Unit="" Internal="phiwidth" Type="F" Min="0.00419688" Max="0.145317"/>
    <Variable VarIndex="11" Expression="OneMinusSeedE1x5OverE5x5" Label="OneMinusSeedE1x5OverE5x5" Title="OneMinusSeedE1x5OverE5x5" Unit="" Internal="OneMinusSeedE1x5OverE5x5" Type="F" Min="-1" Max="0.886691"/>
    <Variable VarIndex="12" Expression="R9" Label="R9" Title="R9" Unit="" Internal="R9" Type="F" Min="0.0212695" Max="4.54403"/>
    <Variable VarIndex="13" Expression="HoE" Label="HoE" Title="HoE" Unit="" Internal="HoE" Type="F" Min="0" Max="0.1199"/>
    <Variable VarIndex="14" Expression="EoP" Label="EoP" Title="EoP" Unit="" Internal="EoP" Type="F" Min="0.106792" Max="9.5498"/>
    <Variable VarIndex="15" Expression="IoEmIoP" Label="IoEmIoP" Title="IoEmIoP" Unit="" Internal="IoEmIoP" Type="F" Min="-0.398249" Max="0.153"/>
    <Variable VarIndex="16" Expression="EEleoPout" Label="EEleoPout" Title="EEleoPout" Unit="" Internal="EEleoPout" Type="F" Min="0.0281326" Max="20"/>
    <Variable VarIndex="17" Expression="d0" Label="d0" Title="d0" Unit="" Internal="d0" Type="F" Min="-0.0199944" Max="0.0199575"/>
    <Variable VarIndex="18" Expression="ip3d" Label="ip3d" Title="ip3d" Unit="" Internal="ip3d" Type="F" Min="-0.0958595" Max="0.0942497"/>
    <Variable VarIndex="19" Expression="ChargedIso_DR0p0To0p1" Label="ChargedIso_DR0p0To0p1" Title="ChargedIso_DR0p0To0p1" Unit="" Internal="ChargedIso_DR0p0To0p1" Type="F" Min="0" Max="41.793"/>
    <Variable VarIndex="20" Expression="ChargedIso_DR0p1To0p2" Label="ChargedIso_DR0p1To0p2" Title="ChargedIso_DR0p1To0p2" Unit="" Internal="ChargedIso_DR0p1To0p2" Type="F" Min="0" Max="14.1518"/>
    <Variable VarIndex="21" Expression="ChargedIso_DR0p2To0p3" Label="ChargedIso_DR0p2To0p3" Title="ChargedIso_DR0p2To0p3" Unit="" Internal="ChargedIso_DR0p2To0p3" Type="F" Min="0" Max="11.6534"/>
    <Variable VarIndex="22" Expression="ChargedIso_DR0p3To0p4" Label="ChargedIso_DR0p3To0p4" Title="ChargedIso_DR0p3To0p4" Unit="" Internal="ChargedIso_DR0p3To0p4" Type="F" Min="0" Max="84.2423"/>
    <Variable VarIndex="23" Expression="ChargedIso_DR0p4To0p5" Label="ChargedIso_DR0p4To0p5" Title="ChargedIso_DR0p4To0p5" Unit="" Internal="ChargedIso_DR0p4To0p5" Type="F" Min="0" Max="69.5544"/>
    <Variable VarIndex="24" Expression="GammaIso_DR0p0To0p1" Label="GammaIso_DR0p0To0p1" Title="GammaIso_DR0p0To0p1" Unit="" Internal="GammaIso_DR0p0To0p1" Type="F" Min="0" Max="21.8242"/>
    <Variable VarIndex="25" Expression="GammaIso_DR0p1To0p2" Label="GammaIso_DR0p1To0p2" Title="GammaIso_DR0p1To0p2" Unit="" Internal="GammaIso_DR0p1To0p2" Type="F" Min="0" Max="19.8047"/>
    <Variable VarIndex="26" Expression="GammaIso_DR0p2To0p3" Label="GammaIso_DR0p2To0p3" Title="GammaIso_DR0p2To0p3" Unit="" Internal="GammaIso_DR0p2To0p3" Type="F" Min="0" Max="17.7871"/>
    <Variable VarIndex="27" Expression="GammaIso_DR0p3To0p4" Label="GammaIso_DR0p3To0p4" Title="GammaIso_DR0p3To0p4" Unit="" Internal="GammaIso_DR0p3To0p4" Type="F" Min="0" Max="49.7263"/>
    <Variable VarIndex="28" Expression="GammaIso_DR0p4To0p5" Label="GammaIso_DR0p4To0p5" Title="GammaIso_DR0p4To0p5" Unit="" Internal="GammaIso_DR0p4To0p5" Type="F" Min="0" Max="124.613"/>
    <Variable VarIndex="29" Expression="NeutralHadronIso_DR0p0To0p1" Label="NeutralHadronIso_DR0p0To0p1" Title="NeutralHadronIso_DR0p0To0p1" Unit="" Internal="NeutralHadronIso_DR0p0To0p1" Type="F" Min="0" Max="5.34326"/>
    <Variable VarIndex="30" Expression="NeutralHadronIso_DR0p1To0p2" Label="NeutralHadronIso_DR0p1To0p2" Title="NeutralHadronIso_DR0p1To0p2" Unit="" Internal="NeutralHadronIso_DR0p1To0p2" Type="F" Min="0" Max="6.05615"/>
    <Variable VarIndex="31" Expression="NeutralHadronIso_DR0p2To0p3" Label="NeutralHadronIso_DR0p2To0p3" Title="NeutralHadronIso_DR0p2To0p3" Unit="" Internal="NeutralHadronIso_DR0p2To0p3" Type="F" Min="0" Max="11.0024"/>
    <Variable VarIndex="32" Expression="NeutralHadronIso_DR0p3To0p4" Label="NeutralHadronIso_DR0p3To0p4" Title="NeutralHadronIso_DR0p3To0p4" Unit="" Internal="NeutralHadronIso_DR0p3To0p4" Type="F" Min="0" Max="35.8885"/>
    <Variable VarIndex="33" Expression="NeutralHadronIso_DR0p4To0p5" Label="NeutralHadronIso_DR0p4To0p5" Title="NeutralHadronIso_DR0p4To0p5" Unit="" Internal="NeutralHadronIso_DR0p4To0p5" Type="F" Min="0" Max="23.8845"/>
    <Variable VarIndex="34" Expression="rho" Label="rho" Title="rho" Unit="" Internal="rho" Type="F" Min="0.695945" Max="29.373"/>
  </Variables>
  <Spectators NSpec="2">
    <Spectator SpecIndex="0" Expression="eta" Label="eta" Title="eta" Unit="" Internal="eta" Type="F" Min="-0.799988" Max="0.799988"/>
    <Spectator SpecIndex="1" Expression="pt" Label="pt" Title="pt" Unit="" Internal="pt" Type="F" Min="10.0005" Max="20"/>
  </Spectators>
  <Transformations NTransformations="0"/>
  <MVAPdfs/>
  <Weights NTrees="2000" AnalysisType="1">
    <BinaryTree type="DecisionTree" boostWeight="1.0000000000000000e+00" itree="0">
      <Node pos="s" depth="0" NCoef="0" IVar="0" Cut="6.9833554327487946e-02" cType="0" res="-2.2792473435401917e-01" rms="4.4502845406532288e-01" purity="2.7207526564598083e-01" nType="0">
        <Node pos="l" depth="1" NCoef="0" IVar="-1" Cut="0.0000000000000000e+00" cType="1" res="-7.9382425174117088e-03" rms="4.9728947877883911e-01" purity="4.4800806045532227e-01" nType="-1"/>
        <Node pos="r" depth="1" NCoef="0" IVar="16" Cut="9.8243832588195801e-01" cType="0" res="-3.7961325049400330e-01" rms="3.2541322708129883e-01" purity="1.2038673460483551e-01" nType="0">
          <Node pos="l" depth="2" NCoef="0" IVar="-1" Cut="0.0000000000000000e+00" cType="1" res="-3.8975715637207031e-02" rms="4.3898108601570129e-01" purity="2.6063501834869385e-01" nType="-1"/>
          <Node pos="r" depth="2" NCoef="0" IVar="-1" Cut="0.0000000000000000e+00" cType="1" res="-7.7247627079486847e-02" rms="1.8566085398197174e-01" purity="3.5747863352298737e-02" nType="-1"/>
        </Node>
      </Node>
    </BinaryTree>
    <BinaryTree type="DecisionTree" boostWeight="1.0000000000000000e+00" itree="1">
      <Node pos="s" depth="0" NCoef="0" IVar="0" Cut="7.5799167156219482e-02" cType="0" res="-2.0924122631549835e-01" rms="4.3901908397674561e-01" purity="2.7207526564598083e-01" nType="0">
        <Node pos="l" depth="1" NCoef="0" IVar="-1" Cut="0.0000000000000000e+00" cType="1" res="-6.6109364852309227e-03" rms="4.9775159358978271e-01" purity="4.5263609290122986e-01" nType="-1"/>
        <Node pos="r" depth="1" NCoef="0" IVar="16" Cut="9.8572689294815063e-01" cType="0" res="-3.4486061334609985e-01" rms="3.2689747214317322e-01" purity="1.2442325055599213e-01" nType="0">
          <Node pos="l" depth="2" NCoef="0" IVar="-1" Cut="0.0000000000000000e+00" cType="1" res="-3.4638252109289169e-02" rms="4.4357740879058838e-01" purity="2.6956722140312195e-01" nType="-1"/>
          <Node pos="r" depth="2" NCoef="0" IVar="-1" Cut="0.0000000000000000e+00" cType="1" res="-7.0608824491500854e-02" rms="1.9425334036350250e-01" purity="3.9423961192369461e-02" nType="-1"/>
        </Node>
      </Node>
    </BinaryTree>
    <BinaryTree type="DecisionTree" boostWeight="1.0000000000000000e+00" itree="2">
      <Node pos="s" depth="0" NCoef="0" IVar="0" Cut="6.4862206578254700e-02" cType="0" res="-1.9215279817581177e-01" rms="4.3386903405189514e-01" purity="2.7207526564598083e-01" nType="0">
        <Node pos="l" depth="1" NCoef="0" IVar="-1" Cut="0.0000000000000000e+00" cType="1" res="-7.3717776685953140e-03" rms="4.9596861004829407e-01" purity="4.4263809919357300e-01" nType="-1"/>
        <Node pos="r" depth="1" NCoef="0" IVar="16" Cut="9.7369104623794556e-01" cType="0" res="-3.2387563586235046e-01" rms="3.1478118896484375e-01" purity="1.1597756296396255e-01" nType="0">
          <Node pos="l" depth="2" NCoef="0" IVar="-1" Cut="0.0000000000000000e+00" cType="1" res="-3.5466518253087997e-02" rms="4.2811429500579834e-01" purity="2.4324832856655121e-01" nType="-1"/>
          <Node pos="r" depth="2" NCoef="0" IVar="-1" Cut="0.0000000000000000e+00" cType="1" res="-6.7852668464183807e-02" rms="1.6730917990207672e-01" purity="2.8823133558034897e-02" nType="-1"/>
        </Node>
      </Node>
    </BinaryTree>
    <BinaryTree type="DecisionTree" boostWeight="1.0000000000000000e+00" itree="3">
      <Node pos="s" depth="0" NCoef="0" IVar="0" Cut="7.7787704765796661e-02" cType="0" res="-1.7649777233600616e-01" rms="4.2959398031234741e-01" purity="2.7207526564598083e-01" nType="0">
        <Node pos="l" depth="1" NCoef="0" IVar="-1" Cut="0.0000000000000000e+00" cType="1" res="-5.3373803384602070e-03" rms="4.9787801504135132e-01" purity="4.5398378372192383e-01" nType="-1"/>
        <Node pos="r" depth="1" NCoef="0" IVar="16" Cut="9.8572689294815063e-01" cType="0" res="-2.9011040925979614e-01" rms="3.2357749342918396e-01" purity="1.2595631182193756e-01" nType="0">
          <Node pos="l" depth="2" NCoef="0" IVar="-1" Cut="0.0000000000000000e+00" cType="1" res="-2.9197689145803452e-02" rms="4.4421774148941040e-01" purity="2.7159062027931213e-01" nType="-1"/>
          <Node pos="r" depth="2" NCoef="0" IVar="-1" Cut="0.0000000000000000e+00" cType="1" res="-6.1987757682800293e-02" rms="1.9422292709350586e-01" purity="3.9728265255689621e-02" nType="-1"/>
        </Node>
      </Node>
    </BinaryTree>
    <BinaryTree type="DecisionTree" boostWeight="1.0000000000000000e+00" itree="4">
      <Node pos="s" depth="0" NCoef="0" IVar="0" Cut="7.7787704765796661e-02" cType="0" res="-1.6215252876281738e-01" rms="4.2584425210952759e-01" purity="2.7207526564598083e-01" nType="0">
        <Node pos="l" depth="1" NCoef="0" IVar="-1" Cut="0.0000000000000000e+00" cType="1" res="-4.9326224252581596e-03" rms="4.9787801504135132e-01" purity="4.5398378372192383e-01" nType="-1"/>
        <Node pos="r" depth="1" NCoef="0" IVar="16" Cut="9.5071953535079956e-01" cType="0" res="-2.6638463139533997e-01" rms="3.2172295451164246e-01" purity="1.2595631182193756e-01" nType="0">
          <Node pos="l" depth="2" NCoef="0" IVar="-1" Cut="0.0000000000000000e+00" cType="1" res="-3.1028650701045990e-02" rms="4.1889411211013794e-01" purity="2.3302553594112396e-01" nType="-1"/>
          <Node pos="r" depth="2" NCoef="0" IVar="-1" Cut="0.0000000000000000e+00" cType="1" res="-6.2961190938949585e-02" rms="1.3442830741405487e-01" purity="1.8412442877888680e-02" nType="-1"/>
        </Node>
      </Node>
    </BinaryTree>
    <BinaryTree type="DecisionTree" boostWeight="1.0000000000000000e+00" itree="5">
      <Node pos="s" depth="0" NCoef="0" IVar="0" Cut="6.4862206578254700e-02" cType="0" res="-1.4895690977573395e-01" rms="4.2263084650039673e-01" purity="2.7207526564598083e-01" nType="0">
        <Node pos="l" depth="1" NCoef="0" IVar="-1" Cut="0.0000000000000000e+00" cType="1" res="-5.6893471628427505e-03" rms="4.9523630738258362e-01" purity="4.4263809919357300e-01" nType="-1"/>
        <Node pos="r" depth="1" NCoef="0" IVar="16" Cut="9.8243832588195801e-01" cType="0" res="-2.5129061937332153e-01" rms="3.0937296152114868e-01" purity="1.1597756296396255e-01" nType="0">
          <Node pos="l" depth="2" NCoef="0" IVar="-1" Cut="0.0000000000000000e+00" cType="1" res="-2.6850385591387749e-02" rms="4.3589261174201965e-01" purity="2.5546994805335999e-01" nType="-1"/>
          <Node pos="r" depth="2" NCoef="0" IVar="-1" Cut="0.0000000000000000e+00" cType="1" res="-5.6566148996353149e-02" rms="1.8118058145046234e-01" purity="3.4515965729951859e-02" nType="-1"/>
        </Node>
      </Node>
    </BinaryTree>
    <BinaryTree type="DecisionTree" boostWeight="1.0000000000000000e+00" itree="6">
      <Node pos="s" depth="0" NCoef="0" IVar="0" Cut="7.7787704765796661e-02" cType="0" res="-1.3690222799777985e-01" rms="4.2001169919967651e-01" purity="2.7207526564598083e-01" nType="0">
        <Node pos="l" depth="1" NCoef="0" IVar="-1" Cut="0.0000000000000000e+00" cType="1" res="-4.1275522671639919e-03" rms="4.9787801504135132e-01" purity="4.5398378372192383e-01" nType="-1"/>
        <Node pos="r" depth="1" NCoef="0" IVar="4" Cut="1.8367056036368012e-03" cType="1" res="-2.2511337697505951e-01" rms="3.1863889098167419e-01" purity="1.2595631182193756e-01" nType="0">
          <Node pos="l" depth="2" NCoef="0" IVar="-1" Cut="0.0000000000000000e+00" cType="1" res="-2.8026565909385681e-02" rms="3.8693755865097046e-01" purity="2.0176957547664642e-01" nType="-1"/>
          <Node pos="r" depth="2" NCoef="0" IVar="-1" Cut="0.0000000000000000e+00" cType="1" res="-5.8628894388675690e-02" rms="1.7613859474658966e-01" purity="3.3373370766639709e-02" nType="-1"/>
        </Node>
      </Node>
    </BinaryTree>
    <BinaryTree type="DecisionTree" boostWeight="1.0000000000000000e+00" itree="7">
      <Node pos="s" depth="0" NCoef="0" IVar="0" Cut="6.2873668968677521e-02" cType="0" res="-1.2572786211967468e-01" rms="4.1763591766357422e-01" purity="2.7207526564598083e-01" nType="0">
        <Node pos="l" depth="1" NCoef="0" IVar="-1" Cut="0.0000000000000000e+00" cType="1" res="-4.9592247232794762e-03" rms="4.9403670430183411e-01" purity="4.4002470374107361e-01" nType="-1"/>
        <Node pos="r" depth="1" NCoef="0" IVar="16" Cut="9.4744920730590820e-01" cType="0" res="-2.1346250176429749e-01" rms="3.0520510673522949e-01" purity="1.1445033550262451e-01" nType="0">
          <Node pos="l" depth="2" NCoef="0" IVar="-1" Cut="0.0000000000000000e+00" cType="1" res="-2.6249716058373451e-02" rms="4.0594795346260071e-01" purity="2.1584129333496094e-01" nType="-1"/>
          <Node pos="r" depth="2" NCoef="0" IVar="-1" Cut="0.0000000000000000e+00" cType="1" res="-5.6119550019502640e-02" rms="1.2546385824680328e-01" purity="1.6081506386399269e-02" nType="-1"/>
        </Node>
      </Node>
    </BinaryTree>
    <BinaryTree type="DecisionTree" boostWeight="1.0000000000000000e+00" itree="8">
      <Node pos="s" depth="0" NCoef="0" IVar="19" Cut="6.0569518804550171e-01" cType="1" res="-1.1555171012878418e-01" rms="4.1569867730140686e-01" purity="2.7207526564598083e-01" nType="0">
        <Node pos="l" depth="1" NCoef="0" IVar="-1" Cut="0.0000000000000000e+00" cType="1" res="-1.2711967341601849e-02" rms="4.3486908078193665e-01" purity="3.1748136878013611e-01" nType="-1"/>
        <Node pos="r" depth="1" NCoef="0" IVar="0" Cut="7.1436375379562378e-02" cType="0" res="-3.1186920404434204e-01" rms="2.1451121568679810e-01" purity="4.8084020614624023e-02" nType="0">
          <Node pos="l" depth="2" NCoef="0" IVar="-1" Cut="0.0000000000000000e+00" cType="1" res="-6.4537309110164642e-02" rms="3.0225047469139099e-01" purity="1.0205627232789993e-01" nType="-1"/>
          <Node pos="r" depth="2" NCoef="0" IVar="-1" Cut="0.0000000000000000e+00" cType="1" res="-6.1375033110380173e-02" rms="1.3750371336936951e-01" purity="1.9319375976920128e-02" nType="-1"/>
        </Node>
      </Node>
    </BinaryTree>
    <BinaryTree type="DecisionTree" boostWeight="1.0000000000000000e+00" itree="9">
      <Node pos="s" depth="0" NCoef="0" IVar="20" Cut="4.9506527185440063e-01" cType="1" res="-1.0607343912124634e-01" rms="4.1412329673767090e-01" purity="2.7207526564598083e-01" nType="0">
        <Node pos="l" depth="1" NCoef="0" IVar="-1" Cut="0.0000000000000000e+00" cType="1" res="-9.8302131518721581e-03" rms="4.3421784043312073e-01" purity="3.2461798191070557e-01" nType="-1"/>
        <Node pos="r" depth="1" NCoef="0" IVar="20" Cut="1.1299953460693359e+00" cType="1" res="-2.6463606953620911e-01" rms="2.8775984048843384e-01" purity="9.9839434027671814e-02" nType="0">
          <Node pos="l" depth="2" NCoef="0" IVar="-1" Cut="0.0000000000000000e+00" cType="1" res="-3.7341762334108353e-02" rms="3.4840273857116699e-01" purity="1.6382084786891937e-01" nType="-1"/>
          <Node pos="r" depth="2" NCoef="0" IVar="-1" Cut="0.0000000000000000e+00" cType="1" res="-5.8049120008945465e-02" rms="2.3321649432182312e-01" purity="5.9088595211505890e-02" nType="-1"/>
        </Node>
      </Node>
    </BinaryTree>
    <BinaryTree type="DecisionTree" boostWeight="1.0000000000000000e+00" itree="10">
      <Node pos="s" depth="0" NCoef="0" IVar="4" Cut="1.9346537301316857e-03" cType="1" res="-9.7489513456821442e-02" rms="4.1259115934371948e-01" purity="2.7207526564598083e-01" nType="0">
        <Node pos="l" depth="1" NCoef="0" IVar="-1" Cut="0.0000000000000000e+00" cType="1" res="-5.9353597462177277e-03" rms="4.5052537322044373e-01" purity="3.5364300012588501e-01" nType="-1"/>
        <Node pos="r" depth="1" NCoef="0" IVar="0" Cut="1.2126559764146805e-01" cType="0" res="-2.1161650121212006e-01" rms="3.0027937889099121e-01" purity="1.2279477715492249e-01" nType="0">
          <Node pos="l" depth="2" NCoef="0" IVar="-1" Cut="0.0000000000000000e+00" cType="1" res="-1.8593804910778999e-02" rms="4.6640470623970032e-01" purity="3.3183637261390686e-01" nType="-1"/>
          <Node pos="r" depth="2" NCoef="0" IVar="-1" Cut="0.0000000000000000e+00" cType="1" res="-5.2460737526416779e-02" rms="1.8777583539485931e-01" purity="3.9573043584823608e-02" nType="-1"/>
        </Node>
      </Node>
    </BinaryTree>
    <BinaryTree type="DecisionTree" boostWeight="1.0000000000000000e+00" itree="11">
      <Node pos="s" depth="0" NCoef="0" IVar="22" Cut="7.9990226030349731e-01" cType="1" res="-8.9595369994640350e-02" rms="4.1102835536003113e-01" purity="2.7207526564598083e-01" nType="0">
        <Node pos="l" depth="1" NCoef="0" IVar="-1" Cut="0.0000000000000000e+00" cType="1" res="-6.0826451517641544e-03" rms="4.3266734480857849e-01" purity="3.3129489421844482e-01" nType="-1"/>
        <Node pos="r" depth="1" NCoef="0" IVar="23" Cut="5.6310920715332031e+00" cType="0" res="-2.1254709362983704e-01" rms="3.2561722397804260e-01" purity="1.3881474733352661e-01" nType="0">
          <Node pos="l" depth="2" NCoef="0" IVar="-1" Cut="0.0000000000000000e+00" cType="1" res="1.3271796517074108e-02" rms="4.4990149140357971e-01" purity="4.4733804464340210e-01" nType="-1"/>
          <Node pos="r" depth="2" NCoef="0" IVar="-1" Cut="0.0000000000000000e+00" cType="1" res="-4.0998306125402451e-02" rms="3.1945845484733582e-01" purity="1.3206776976585388e-01" nType="-1"/>
        </Node>
      </Node>
    </BinaryTree>
    <BinaryTree type="DecisionTree" boostWeight="1.0000000000000000e+00" itree="12">
      <Node pos="s" depth="0" NCoef="0" IVar="0" Cut="7.8781977295875549e-02" cType="0" res="-8.2401968538761139e-02" rms="4.0974402427673340e-01" purity="2.7207526564598083e-01" nType="0">
        <Node pos="l" depth="1" NCoef="0" IVar="-1" Cut="0.0000000000000000e+00" cType="1" res="1.3872905401512980e-03" rms="4.9093583226203918e-01" purity="4.5439872145652771e-01" nType="-1"/>
        <Node pos="r" depth="1" NCoef="0" IVar="16" Cut="9.9739599227905273e-01" cType="0" res="-1.5523670613765717e-01" rms="3.1249871850013733e-01" purity="1.2678919732570648e-01" nType="0">
          <Node pos="l" depth="2" NCoef="0" IVar="-1" Cut="0.0000000000000000e+00" cType="1" res="-1.0878761298954487e-02" rms="4.4149091839790344e-01" purity="2.8508734703063965e-01" nType="-1"/>
          <Node pos="r" depth="2" NCoef="0" IVar="-1" Cut="0.0000000000000000e+00" cType="1" res="-4.4015496969223022e-02" rms="2.1471299231052399e-01" purity="5.2967488765716553e-02" nType="-1"/>
        </Node>
      </Node>
    </BinaryTree>
    <BinaryTree type="DecisionTree" boostWeight="1.0000000000000000e+00" itree="13">
      <Node pos="s" depth="0" NCoef="0" IVar="20" Cut="4.9506527185440063e-01" cType="1" res="-7.5721837580204010e-02" rms="4.0809547901153564e-01" purity="2.7207526564598083e-01" nType="0">
        <Node pos="l" depth="1" NCoef="0" IVar="-1" Cut="0.0000000000000000e+00" cType="1" res="-5.6830579414963722e-03" rms="4.2927780747413635e-01" purity="3.2461798191070557e-01" nType="-1"/>
        <Node pos="r" depth="1" NCoef="0" IVar="20" Cut="1.1299953460693359e+00" cType="1" res="-2.1842244267463684e-01" rms="2.8604629635810852e-01" purity="9.9839434027671814e-02" nType="0">
          <Node pos="l" depth="2" NCoef="0" IVar="-1" Cut="0.0000000000000000e+00" cType="1" res="-3.1866841018199921e-02" rms="3.4605067968368530e-01" purity="1.6382084786891937e-01" nType="-1"/>
          <Node pos="r" depth="2" NCoef="0" IVar="-1" Cut="0.0000000000000000e+00" cType="1" res="-5.2561026066541672e-02" rms="2.3352795839309692e-01" purity="5.9088595211505890e-02" nType="-1"/>
        </Node>
      </Node>
    </BinaryTree>
    <BinaryTree type="DecisionTree" boostWeight="1.0000000000000000e+00" itree="14">
      <Node pos="s" depth="0" NCoef="0" IVar="19" Cut="6.0569518804550171e-01" cType="1" res="-6.9568321108818054e-02" rms="4.0682217478752136e-01" purity="2.7207526564598083e-01" nType="0">
        <Node pos="l" depth="1" NCoef="0" IVar="-1" Cut="0.0000000000000000e+00" cType="1" res="-6.1091398820281029e-03" rms="4.2724478244781494e-01" purity="3.1748136878013611e-01" nType="-1"/>
        <Node pos="r" depth="1" NCoef="0" IVar="0" Cut="7.1436375379562378e-02" cType="0" res="-2.4234414100646973e-01" rms="2.1347737312316895e-01" purity="4.8084020614624023e-02" nType="0">
          <Node pos="l" depth="2" NCoef="0" IVar="-1" Cut="0.0000000000000000e+00" cType="1" res="-5.4880011826753616e-02" rms="2.9923859238624573e-01" purity="1.0205627232789993e-01" nType="-1"/>
          <Node pos="r" depth="2" NCoef="0" IVar="-1" Cut="0.0000000000000000e+00" cType="1" res="-5.4635178297758102e-02" rms="1.3720187544822693e-01" purity="1.9319375976920128e-02" nType="-1"/>
        </Node>
      </Node>
    </BinaryTree>
    <BinaryTree type="DecisionTree" boostWeight="1.0000000000000000e+00" itree="15">
      <Node pos="s" depth="0" NCoef="0" IVar="0" Cut="5.1936708390712738e-02" cType="0" res="-6.3797011971473694e-02" rms="4.0557292103767395e-01" purity="2.7207526564598083e-01" nType="0">
        <Node pos="l" depth="1" NCoef="0" IVar="-1" Cut="0.0000000000000000e+00" cType="1" res="1.2763647828251123e-03" rms="4.7587710618972778e-01" purity="4.2071774601936340e-01" nType="-1"/>
        <Node pos="r" depth="1" NCoef="0" IVar="16" Cut="9.4744920730590820e-01" cType="0" res="-1.4456371963024139e-01" rms="2.8707006573677063e-01" purity="1.0474096983671188e-01" nType="0">
          <Node pos="l" depth="2" NCoef="0" IVar="-1" Cut="0.0000000000000000e+00" cType="1" res="-1.8324654549360275e-02" rms="3.8913756608963013e-01" purity="2.0299343764781952e-01" nType="-1"/>
          <Node pos="r" depth="2" NCoef="0" IVar="-1" Cut="0.0000000000000000e+00" cType="1" res="-4.8953946679830551e-02" rms="1.2390308827161789e-01" purity="1.5689376741647720e-02" nType="-1"/>
        </Node>
      </Node>
    </BinaryTree>
    <BinaryTree type="DecisionTree" boostWeight="1.0000000000000000e+00" itree="16">
      <Node pos="s" depth="0" NCoef="0" IVar="22" Cut="5.8940166234970093e-01" cType="1" res="-5.8606918901205063e-02" rms="4.0426617860794067e-01" purity="2.7207526564598083e-01" nType="0">
        <Node pos="l" depth="1" NCoef="0" IVar="-1" Cut="0.0000000000000000e+00" cType="1" res="-6.2076502945274115e-04" rms="4.2854160070419312e-01" purity="3.3797454833984375e-01" nType="-1"/>
        <Node pos="r" depth="1" NCoef="0" IVar="22" Cut="1.4675748348236084e+00" cType="1" res="-1.5825945138931274e-01" rms="3.3391231298446655e-01" purity="1.5308842062950134e-01" nType="0">
          <Node pos="l" depth="2" NCoef="0" IVar="-1" Cut="0.0000000000000000e+00" cType="1" res="-2.0938333123922348e-02" rms="3.6927640438079834e-01" purity="2.0676377415657043e-01" nType="-1"/>
          <Node pos="r" depth="2" NCoef="0" IVar="-1" Cut="0.0000000000000000e+00" cType="1" res="-4.1078012436628342e-02" rms="2.9479789733886719e-01" purity="1.0799478739500046e-01" nType="-1"/>
        </Node>
      </Node>
    </BinaryTree>
    <BinaryTree type="DecisionTree" boostWeight="1.0000000000000000e+00" itree="17">
      <Node pos="s" depth="0" NCoef="0" IVar="4" Cut="1.9346537301316857e-03" cType="1" res="-5.3872212767601013e-02" rms="4.0310254693031311e-01" purity="2.7207526564598083e-01" nType="0">
        <Node pos="l" depth="1" NCoef="0" IVar="-1" Cut="0.0000000000000000e+00" cType="1" res="1.6248074825853109e-04" rms="4.4207882881164551e-01" purity="3.5364300012588501e-01" nType="-1"/>
        <Node pos="r" depth="1" NCoef="0" IVar="15" Cut="-8.4610171616077423e-03" cType="0" res="-1.5413963794708252e-01" rms="2.9437431693077087e-01" purity="1.2279477715492249e-01" nType="0">
          <Node pos="l" depth="2" NCoef="0" IVar="-1" Cut="0.0000000000000000e+00" cType="1" res="-2.5961963459849358e-02" rms="3.1655779480934143e-01" purity="1.5210789442062378e-01" nType="-1"/>
          <Node pos="r" depth="2" NCoef="0" IVar="-1" Cut="0.0000000000000000e+00" cType="1" res="-5.0332024693489075e-02" rms="2.2599430382251740e-01" purity="5.8217022567987442e-02" nType="-1"/>
        </Node>
      </Node>
    </BinaryTree>
    <BinaryTree type="DecisionTree" boostWeight="1.0000000000000000e+00" itree="18">
      <Node pos="s" depth="0" NCoef="0" IVar="21" Cut="3.3195626735687256e-01" cType="1" res="-4.9519684165716171e-02" rms="4.0193721652030945e-01" purity="2.7207526564598083e-01" nType="0">
        <Node pos="l" depth="1" NCoef="0" IVar="-1" Cut="0.0000000000000000e+00" cType="1" res="-1.9213993800804019e-04" rms="4.2076224088668823e-01" purity="3.2677933573722839e-01" nType="-1"/>
        <Node pos="r" depth="1" NCoef="0" IVar="21" Cut="1.1014577150344849e+00" cType="1" res="-1.5390348434448242e-01" rms="3.3503937721252441e-01" purity="1.5429300069808960e-01" nType="0">
          <Node pos="l" depth="2" NCoef="0" IVar="-1" Cut="0.0000000000000000e+00" cType="1" res="-2.0902926102280617e-02" rms="3.6747032403945923e-01" purity="2.0382015407085419e-01" nType="-1"/>
          <Node pos="r" depth="2" NCoef="0" IVar="-1" Cut="0.0000000000000000e+00" cType="1" res="-4.2975258082151413e-02" rms="2.9048535227775574e-01" purity="1.0356076061725616e-01" nType="-1"/>
        </Node>
      </Node>
    </BinaryTree>
    <BinaryTree type="DecisionTree" boostWeight="1.0000000000000000e+00" itree="19">
      <Node pos="s" depth="0" NCoef="0" IVar="20" Cut="7.4967026710510254e-01" cType="1" res="-4.5445129275321960e-02" rms="4.0081498026847839e-01" purity="2.7207526564598083e-01" nType="0">
        <Node pos="l" depth="1" NCoef="0" IVar="-1" Cut="0.0000000000000000e+00" cType="1" res="-2.0013591274619102e-03" rms="4.2049777507781982e-01" purity="3.1808698177337646e-01" nType="-1"/>
        <Node pos="r" depth="1" NCoef="0" IVar="18" Cut="-7.8751305118203163e-03" cType="0" res="-1.9094163179397583e-01" rms="2.5799357891082764e-01" purity="7.8867785632610321e-02" nType="0">
          <Node pos="l" depth="2" NCoef="0" IVar="-1" Cut="0.0000000000000000e+00" cType="1" res="-4.0725529193878174e-02" rms="2.6348763704299927e-01" purity="8.4599919617176056e-02" nType="-1"/>
          <Node pos="r" depth="2" NCoef="0" IVar="-1" Cut="0.0000000000000000e+00" cType="1" res="-5.9879548847675323e-02" rms="1.7379592359066010e-01" purity="2.7070455253124237e-02" nType="-1"/>
        </Node>
      </Node>
    </BinaryTree>
    <BinaryTree type="DecisionTree" boostWeight="1.0000000000000000e+00" itree="20">
      <Node pos="s" depth="0" NCoef="0" IVar="0" Cut="7.8781977295875549e-02" cType="0" res="-4.1735142469406128e-02" rms="3.9977782964706421e-01" purity="2.7207526564598083e-01" nType="0">
        <Node pos="l" depth="1" NCoef="0" IVar="-1" Cut="0.0000000000000000e+00" cType="1" res="5.9826555661857128e-03" rms="4.8072424530982971e-01" purity="4.5439872145652771e-01" nType="-1"/>
        <Node pos="r" depth="1" NCoef="0" IVar="16" Cut="9.9156141281127930e-01" cType="0" res="-1.0531874001026154e-01" rms="3.0644905567169189e-01" purity="1.2678919732570648e-01" nType="0">
          <Node pos="l" depth="2" NCoef="0" IVar="-1" Cut="0.0000000000000000e+00" cType="1" res="-4.8182122409343719e-03" rms="4.3018808960914612e-01" purity="2.7886593341827393e-01" nType="-1"/>
          <Node pos="r" depth="2" NCoef="0" IVar="-1" Cut="0.0000000000000000e+00" cType="1" res="-3.9269767701625824e-02" rms="2.0126630365848541e-01" purity="4.6443801373243332e-02" nType="-1"/>
        </Node>
      </Node>
    </BinaryTree>
    <BinaryTree type="DecisionTree" boostWeight="1.0000000000000000e+00" itree="21">
      <Node pos="s" depth="0" NCoef="0" IVar="19" Cut="3.7594875693321228e-01" cType="1" res="-3.8312256336212158e-02" rms="3.9847102761268616e-01" purity="2.7207526564598083e-01" nType="0">
        <Node pos="l" depth="1" NCoef="0" IVar="-1" Cut="0.0000000000000000e+00" cType="1" res="-9.1193598927929997e-04" rms="4.1999194025993347e-01" purity="3.1982818245887756e-01" nType="-1"/>
        <Node pos="r" depth="1" NCoef="0" IVar="0" Cut="7.1240931749343872e-02" cType="0" res="-1.8101029098033905e-01" rms="2.4175389111042023e-01" purity="6.8197466433048248e-02" nType="0">
          <Node pos="l" depth="2" NCoef="0" IVar="-1" Cut="0.0000000000000000e+00" cType="1" res="-4.1563499718904495e-02" rms="3.3529514074325562e-01" purity="1.3908359408378601e-01" nType="-1"/>
          <Node pos="r" depth="2" NCoef="0" IVar="-1" Cut="0.0000000000000000e+00" cType="1" res="-4.7300130128860474e-02" rms="1.5626819431781769e-01" purity="2.6658223941922188e-02" nType="-1"/>
        </Node>
      </Node>
    </BinaryTree>
    <BinaryTree type="DecisionTree" boostWeight="1.0000000000000000e+00" itree="22">
      <Node pos="s" depth="0" NCoef="0" IVar="4" Cut="1.9346537301316857e-03" cType="1" res="-3.5103250294923782e-02" rms="3.9745828509330750e-01" purity="2.7207526564598083e-01" nType="0">
        <Node pos="l" depth="1" NCoef="0" IVar="-1" Cut="0.0000000000000000e+00" cType="1" res="2.5795826222747564e-03" rms="4.3719011545181274e-01" purity="3.5364300012588501e-01" nType="-1"/>
        <Node pos="r" depth="1" NCoef="0" IVar="0" Cut="1.2126559764146805e-01" cType="0" res="-1.2527172267436981e-01" rms="2.9104793071746826e-01" purity="1.2279477715492249e-01" nType="0">
          <Node pos="l" depth="2" NCoef="0" IVar="-1" Cut="0.0000000000000000e+00" cType="1" res="-9.7219068557024002e-03" rms="4.5344740152359009e-01" purity="3.3183637261390686e-01" nType="-1"/>
          <Node pos="r" depth="2" NCoef="0" IVar="-1" Cut="0.0000000000000000e+00" cType="1" res="-4.2850323021411896e-02" rms="1.8543590605258942e-01" purity="3.9573043584823608e-02" nType="-1"/>
        </Node>
      </Node>
    </BinaryTree>
    <BinaryTree type="DecisionTree" boostWeight="1.0000000000000000e+00" itree="23">
      <Node pos="s" depth="0" NCoef="0" IVar="22" Cut="8.4200239181518555e-01" cType="1" res="-3.2209184020757675e-02" rms="3.9641600847244263e-01" purity="2.7207526564598083e-01" nType="0">
        <Node pos="l" depth="1" NCoef="0" IVar="-1" Cut="0.0000000000000000e+00" cType="1" res="2.1027345210313797e-03" rms="4.1830661892890930e-01" purity="3.2992127537727356e-01" nType="-1"/>
        <Node pos="r" depth="1" NCoef="0" IVar="23" Cut="5.6310920715332031e+00" cType="0" res="-1.3375079631805420e-01" rms="3.1715318560600281e-01" purity="1.3631972670555115e-01" nType="0">
          <Node pos="l" depth="2" NCoef="0" IVar="-1" Cut="0.0000000000000000e+00" cType="1" res="2.6664473116397858e-02" rms="4.3647965788841248e-01" purity="4.5492285490036011e-01" nType="-1"/>
          <Node pos="r" depth="2" NCoef="0" IVar="-1" Cut="0.0000000000000000e+00" cType="1" res="-3.0926821753382683e-02" rms="3.1128492951393127e-01" purity="1.2926299870014191e-01" nType="-1"/>
        </Node>
      </Node>
    </BinaryTree>
    <BinaryTree type="DecisionTree" boostWeight="1.0000000000000000e+00" itree="24">
      <Node pos="s" depth="0" NCoef="0" IVar="20" Cut="4.9506527185440063e-01" cType="1" res="-2.9578374698758125e-02" rms="3.9543738961219788e-01" purity="2.7207526564598083e-01" nType="0">
        <Node pos="l" depth="1" NCoef="0" IVar="-1" Cut="0.0000000000000000e+00" cType="1" res="1.1610302608460188e-03" rms="4.1773062944412231e-01" purity="3.2461798191070557e-01" nType="-1"/>
        <Node pos="r" depth="1" NCoef="0" IVar="20" Cut="1.2391928434371948e+00" cType="1" res="-1.4659947156906128e-01" rms="2.8120267391204834e-01" purity="9.9839434027671814e-02" nType="0">
          <Node pos="l" depth="2" NCoef="0" IVar="-1" Cut="0.0000000000000000e+00" cType="1" res="-2.3624751716852188e-02" rms="3.3343100547790527e-01" purity="1.5628074109554291e-01" nType="-1"/>
          <Node pos="r" depth="2" NCoef="0" IVar="-1" Cut="0.0000000000000000e+00" cType="1" res="-4.5082516968250275e-02" rms="2.2696191072463989e-01" purity="5.5725723505020142e-02" nType="-1"/>
        </Node>
      </Node>
    </BinaryTree>
    <BinaryTree type="DecisionTree" boostWeight="1.0000000000000000e+00" itree="25">
      <Node pos="s" depth="0" NCoef="0" IVar="0" Cut="5.1936708390712738e-02" cType="0" res="-2.7103759348392487e-02" rms="3.9445927739143372e-01" purity="2.7207526564598083e-01" nType="0">
        <Node pos="l" depth="1" NCoef="0" IVar="-1" Cut="0.0000000000000000e+00" cType="1" res="5.5941725149750710e-03" rms="4.6440073847770691e-01" purity="4.2071774601936340e-01" nType="-1"/>
        <Node pos="r" depth="1" NCoef="0" IVar="16" Cut="9.7660684585571289e-01" cType="0" res="-9.5688574016094208e-02" rms="2.8123319149017334e-01" purity="1.0474096983671188e-01" nType="0">
          <Node pos="l" depth="2" NCoef="0" IVar="-1" Cut="0.0000000000000000e+00" cType="1" res="-8.3332182839512825e-03" rms="4.0127933025360107e-01" purity="2.3090283572673798e-01" nType="-1"/>
          <Node pos="r" depth="2" NCoef="0" IVar="-1" Cut="0.0000000000000000e+00" cType="1" res="-4.0065109729766846e-02" rms="1.6669075191020966e-01" purity="3.0245650559663773e-02" nType="-1"/>
        </Node>
      </Node>
    </BinaryTree>
    <BinaryTree type="DecisionTree" boostWeight="1.0000000000000000e+00" itree="26">
      <Node pos="s" depth="0" NCoef="0" IVar="21" Cut="5.9402698278427124e-01" cType="1" res="-2.4864459410309792e-02" rms="3.9346104860305786e-01" purity="2.7207526564598083e-01" nType="0">
        <Node pos="l" depth="1" NCoef="0" IVar="-1" Cut="0.0000000000000000e+00" cType="1" res="2.3644994944334030e-03" rms="4.0951964259147644e-01" purity="3.1817188858985901e-01" nType="-1"/>
        <Node pos="r" depth="1" NCoef="0" IVar="18" Cut="8.0978134647011757e-03" cType="1" res="-1.3465699553489685e-01" rms="3.1682628393173218e-01" purity="1.3507947325706482e-01" nType="0">
          <Node pos="l" depth="2" NCoef="0" IVar="-1" Cut="0.0000000000000000e+00" cType="1" res="-2.7282940223813057e-02" rms="3.2228133082389832e-01" purity="1.4446239173412323e-01" nType="-1"/>
          <Node pos="r" depth="2" NCoef="0" IVar="-1" Cut="0.0000000000000000e+00" cType="1" res="-5.4830152541399002e-02" rms="2.2996057569980621e-01" purity="5.5106714367866516e-02" nType="-1"/>
        </Node>
      </Node>
    </BinaryTree>
    <BinaryTree type="DecisionTree" boostWeight="1.0000000000000000e+00" itree="27">
      <Node pos="s" depth="0" NCoef="0" IVar="19" Cut="6.4746725559234619e-01" cType="1" res="-2.2776734083890915e-02" rms="3.9250972867012024e-01" purity="2.7207526564598083e-01" nType="0">
        <Node pos="l" depth="1" NCoef="0" IVar="-1" Cut="0.0000000000000000e+00" cType="1" res="9.4479258405044675e-04" rms="4.1396674513816833e-01" purity="3.1699371337890625e-01" nType="-1"/>
        <Node pos="r" depth="1" NCoef="0" IVar="0" Cut="7.2418443858623505e-02" cType="0" res="-1.6254606842994690e-01" rms="2.0812025666236877e-01" purity="4.5351602137088776e-02" nType="0">
          <Node pos="l" depth="2" NCoef="0" IVar="-1" Cut="0.0000000000000000e+00" cType="1" res="-4.5803129673004150e-02" rms="2.9156810045242310e-01" purity="9.8525263369083405e-02" nType="-1"/>
          <Node pos="r" depth="2" NCoef="0" IVar="-1" Cut="0.0000000000000000e+00" cType="1" res="-4.7559790313243866e-02" rms="1.3241842389106750e-01" purity="1.7700359225273132e-02" nType="-1"/>
        </Node>
      </Node>
    </BinaryTree>
    <BinaryTree type="DecisionTree" boostWeight="1.0000000000000000e+00" itree="28">
      <Node pos="s" depth="0" NCoef="0" IVar="0" Cut="8.9718937873840332e-02" cType="0" res="-2.0778479054570198e-02" rms="3.9156156778335571e-01" purity="2.7207526564598083e-01" nType="0">
        <Node pos="l" depth="1" NCoef="0" IVar="-1" Cut="0.0000000000000000e+00" cType="1" res="7.9128881916403770e-03" rms="4.7305107116699219e-01" purity="4.5784974098205566e-01" nType="-1"/>
        <Node pos="r" depth="1" NCoef="0" IVar="16" Cut="9.8280960321426392e-01" cType="0" res="-7.2481550276279449e-02" rms="3.0876737833023071e-01" purity="1.3585104048252106e-01" nType="0">
          <Node pos="l" depth="2" NCoef="0" IVar="-1" Cut="0.0000000000000000e+00" cType="1" res="-1.4522586716338992e-03" rms="4.2268368601799011e-01" purity="2.8057321906089783e-01" nType="-1"/>
          <Node pos="r" depth="2" NCoef="0" IVar="-1" Cut="0.0000000000000000e+00" cType="1" res="-3.7046220153570175e-02" rms="1.8704108893871307e-01" purity="3.9256293326616287e-02" nType="-1"/>
        </Node>
      </Node>
    </BinaryTree>
    <BinaryTree type="DecisionTree" boostWeight="1.0000000000000000e+00" itree="29">
      <Node pos="s" depth="0" NCoef="0" IVar="22" Cut="5.8940166234970093e-01" cType="1" res="-1.9030796363949776e-02" rms="3.9050465822219849e-01" purity="2.7207526564598083e-01" nType="0">
        <Node pos="l" depth="1" NCoef="0" IVar="-1" Cut="0.0000000000000000e+00" cType="1" res="5.0159194506704807e-03" rms="4.1502937674522400e-01" purity="3.3797454833984375e-01" nType="-1"/>
        <Node pos="r" depth="1" NCoef="0" IVar="18" Cut="-1.1210590600967407e-02" cType="0" res="-9.9816240370273590e-02" rms="3.2662338018417358e-01" purity="1.5308842062950134e-01" nType="0">
          <Node pos="l" depth="2" NCoef="0" IVar="-1" Cut="0.0000000000000000e+00" cType="1" res="-2.0404590293765068e-02" rms="3.3039894700050354e-01" purity="1.6134138405323029e-01" nType="-1"/>
          <Node pos="r" depth="2" NCoef="0" IVar="-1" Cut="0.0000000000000000e+00" cType="1" res="-5.5927846580743790e-02" rms="2.1150562167167664e-01" purity="3.9675459265708923e-02" nType="-1"/>
        </Node>
      </Node>
    </BinaryTree>
    <BinaryTree type="DecisionTree" boostWeight="1.0000000000000000e+00" itree="30">
      <Node pos="s" depth="0" NCoef="0" IVar="4" Cut="1.9346537301316857e-03" cType="1" res="-1.7451968044042587e-02" rms="3.8959935307502747e-01" purity="2.7207526564598083e-01" nType="0">
        <Node pos="l" depth="1" NCoef="0" IVar="-1" Cut="0.0000000000000000e+00" cType="1" res="4.9503748305141926e-03" rms="4.2946949601173401e-01" purity="3.5364300012588501e-01" nType="-1"/>
        <Node pos="r" depth="1" NCoef="0" IVar="2" Cut="4.0024986267089844e+00" cType="1" res="-9.7544945776462555e-02" rms="2.8653413057327271e-01" purity="1.2279477715492249e-01" nType="0">
          <Node pos="l" depth="2" NCoef="0" IVar="-1" Cut="0.0000000000000000e+00" cType="1" res="1.2454415671527386e-02" rms="4.5054978132247925e-01" purity="4.1885530948638916e-01" nType="-1"/>
          <Node pos="r" depth="2" NCoef="0" IVar="-1" Cut="0.0000000000000000e+00" cType="1" res="-2.7357352897524834e-02" rms="2.7430212497711182e-01" purity="1.0935541242361069e-01" nType="-1"/>
        </Node>
      </Node>
    </BinaryTree>
    <BinaryTree type="DecisionTree" boostWeight="1.0000000000000000e+00" itree="31">
      <Node pos="s" depth="0" NCoef="0" IVar="20" Cut="7.4967026710510254e-01" cType="1" res="-1.6050575301051140e-02" rms="3.8879537582397461e-01" purity="2.7207526564598083e-01" nType="0">
        <Node pos="l" depth="1" NCoef="0" IVar="-1" Cut="0.0000000000000000e+00" cType="1" res="2.4744658730924129e-03" rms="4.0905538201332092e-01" purity="3.1808698177337646e-01" nType="-1"/>
        <Node pos="r" depth="1" NCoef="0" IVar="18" Cut="1.2830596417188644e-02" cType="1" res="-1.3596302270889282e-01" rms="2.5589525699615479e-01" purity="7.8867785632610321e-02" nType="0">
          <Node pos="l" depth="2" NCoef="0" IVar="-1" Cut="0.0000000000000000e+00" cType="1" res="-3.4716632217168808e-02" rms="2.5996097922325134e-01" purity="8.3193190395832062e-02" nType="-1"/>
          <Node pos="r" depth="2" NCoef="0" IVar="-1" Cut="0.0000000000000000e+00" cType="1" res="-5.3218070417642593e-02" rms="1.4134284853935242e-01" purity="1.5007456764578819e-02" nType="-1"/>
        </Node>
      </Node>
    </BinaryTree>
    <BinaryTree type="DecisionTree" boostWeight="1.0000000000000000e+00" itree="32">
      <Node pos="s" depth="0" NCoef="0" IVar="21" Cut="3.3195626735687256e-01" cType="1" res="-1.4686166308820248e-02" rms="3.8796675205230713e-01" purity="2.7207526564598083e-01" nType="0">
        <Node pos="l" depth="1" NCoef="0" IVar="-1" Cut="0.0000000000000000e+00" cType="1" res="4.9425680190324783e-03" rms="4.0683183073997498e-01" purity="3.2677933573722839e-01" nType="-1"/>
        <Node pos="r" depth="1" NCoef="0" IVar="21" Cut="1.4522465467453003e+00" cType="1" res="-9.9756963551044464e-02" rms="3.2808038592338562e-01" purity="1.5429300069808960e-01" nType="0">
          <Node pos="l" depth="2" NCoef="0" IVar="-1" Cut="0.0000000000000000e+00" cType="1" res="-1.5511531382799149e-02" rms="3.5016441345214844e-01" purity="1.8932919204235077e-01" nType="-1"/>
          <Node pos="r" depth="2" NCoef="0" IVar="-1" Cut="0.0000000000000000e+00" cType="1" res="-4.0612407028675079e-02" rms="2.7144372463226318e-01" purity="8.7007567286491394e-02" nType="-1"/>
        </Node>
      </Node>
    </BinaryTree>
    <BinaryTree type="DecisionTree" boostWeight="1.0000000000000000e+00" itree="33">
      <Node pos="s" depth="0" NCoef="0" IVar="19" Cut="3.7594875693321228e-01" cType="1" res="-1.3372752815485001e-02" rms="3.8704285025596619e-01" purity="2.7207526564598083e-01" nType="0">
        <Node pos="l" depth="1" NCoef="0" IVar="-1" Cut="0.0000000000000000e+00" cType="1" res="2.7340950910001993e-03" rms="4.0931928157806396e-01" purity="3.1982818245887756e-01" nType="-1"/>
        <Node pos="r" depth="1" NCoef="0" IVar="0" Cut="7.1240931749343872e-02" cType="0" res="-1.2981589138507843e-01" rms="2.3943075537681580e-01" purity="6.8197466433048248e-02" nType="0">
          <Node pos="l" depth="2" NCoef="0" IVar="-1" Cut="0.0000000000000000e+00" cType="1" res="-3.4997384995222092e-02" rms="3.3152344822883606e-01" purity="1.3908359408378601e-01" nType="-1"/>
          <Node pos="r" depth="2" NCoef="0" IVar="-1" Cut="0.0000000000000000e+00" cType="1" res="-4.1597478091716766e-02" rms="1.5534310042858124e-01" purity="2.6658223941922188e-02" nType="-1"/>
        </Node>
      </Node>
    </BinaryTree>
    <BinaryTree type="DecisionTree" boostWeight="1.0000000000000000e+00" itree="34">
      <Node pos="s" depth="0" NCoef="0" IVar="0" Cut="6.3867941498756409e-02" cType="0" res="-1.2174834497272968e-02" rms="3.8625556230545044e-01" purity="2.7207526564598083e-01" nType="0">
        <Node pos="l" depth="1" NCoef="0" IVar="-1" Cut="0.0000000000000000e+00" cType="1" res="7.5229322537779808e-03" rms="4.6266260743141174e-01" purity="4.4123402237892151e-01" nType="-1"/>
        <Node pos="r" depth="1" NCoef="0" IVar="16" Cut="9.9701714515686035e-01" cType="0" res="-6.6232301294803619e-02" rms="2.8801861405372620e-01" purity="1.1516664177179337e-01" nType="0">
          <Node pos="l" depth="2" NCoef="0" IVar="-1" Cut="0.0000000000000000e+00" cType="1" res="1.1243102926528081e-04" rms="4.1589730978012085e-01" purity="2.6971948146820068e-01" nType="-1"/>
          <Node pos="r" depth="2" NCoef="0" IVar="-1" Cut="0.0000000000000000e+00" cType="1" res="-3.2169751822948456e-02" rms="2.0502366125583649e-01" purity="4.9538701772689819e-02" nType="-1"/>
        </Node>
      </Node>
    </BinaryTree>
    <BinaryTree type="DecisionTree" boostWeight="1.0000000000000000e+00" itree="35">
      <Node pos="s" depth="0" NCoef="0" IVar="22" Cut="1.0946030616760254e+00" cType="1" res="-1.1115327477455139e-02" rms="3.8541594147682190e-01" purity="2.7207526564598083e-01" nType="0">
        <Node pos="l" depth="1" NCoef="0" IVar="-1" Cut="0.0000000000000000e+00" cType="1" res="4.1315881535410881e-03" rms="4.0450054407119751e-01" purity="3.2165381312370300e-01" nType="-1"/>
        <Node pos="r" depth="1" NCoef="0" IVar="23" Cut="5.4572925567626953e+00" cType="0" res="-1.0597880184650421e-01" rms="3.0222177505493164e-01" purity="1.2339974194765091e-01" nType="0">
          <Node pos="l" depth="2" NCoef="0" IVar="-1" Cut="0.0000000000000000e+00" cType="1" res="3.1919024884700775e-02" rms="4.2224472761154175e-01" purity="4.4233843684196472e-01" nType="-1"/>
          <Node pos="r" depth="2" NCoef="0" IVar="-1" Cut="0.0000000000000000e+00" cType="1" res="-2.8707373887300491e-02" rms="2.9532268643379211e-01" purity="1.1501260846853256e-01" nType="-1"/>
        </Node>
      </Node>
    </BinaryTree>
    <BinaryTree type="DecisionTree" boostWeight="1.0000000000000000e+00" itree="36">
      <Node pos="s" depth="0" NCoef="0" IVar="4" Cut="1.5953334514051676e-03" cType="1" res="-1.0136957280337811e-02" rms="3.8460236787796021e-01" purity="2.7207526564598083e-01" nType="0">
        <Node pos="l" depth="1" NCoef="0" IVar="-1" Cut="0.0000000000000000e+00" cType="1" res="6.9703934714198112e-03" rms="4.2752975225448608e-01" purity="3.6287751793861389e-01" nType="-1"/>
        <Node pos="r" depth="1" NCoef="0" IVar="4" Cut="2.8756260871887207e-03" cType="1" res="-7.2286397218704224e-02" rms="3.0793654918670654e-01" purity="1.5141956508159637e-01" nType="0">
          <Node pos="l" depth="2" NCoef="0" IVar="-1" Cut="0.0000000000000000e+00" cType="1" res="-7.7093597501516342e-03" rms="3.6443862318992615e-01" purity="2.2644956409931183e-01" nType="-1"/>
          <Node pos="r" depth="2" NCoef="0" IVar="-1" Cut="0.0000000000000000e+00" cType="1" res="-3.2883878797292709e-02" rms="2.2952298820018768e-01" purity="7.3985770344734192e-02" nType="-1"/>
        </Node>
      </Node>
    </BinaryTree>
    <BinaryTree type="DecisionTree" boostWeight="1.0000000000000000e+00" itree="37">
      <Node pos="s" depth="0" NCoef="0" IVar="20" Cut="4.9506527185440063e-01" cType="1" res="-9.3160951510071754e-03" rms="3.8381877541542053e-01" purity="2.7207526564598083e-01" nType="0">
        <Node pos="l" depth="1" NCoef="0" IVar="-1" Cut="0.0000000000000000e+00" cType="1" res="4.0368800982832909e-03" rms="4.0623280405998230e-01" purity="3.2461798191070557e-01" nType="-1"/>
        <Node pos="r" depth="1" NCoef="0" IVar="18" Cut="-8.3138113841414452e-03" cType="0" res="-1.0609856992959976e-01" rms="2.7756920456886292e-01" purity="9.9839434027671814e-02" nType="0">
          <Node pos="l" depth="2" NCoef="0" IVar="-1" Cut="0.0000000000000000e+00" cType="1" res="-2.6781477034091949e-02" rms="2.8218406438827515e-01" purity="1.0603500157594681e-01" nType="-1"/>
          <Node pos="r" depth="2" NCoef="0" IVar="-1" Cut="0.0000000000000000e+00" cType="1" res="-5.1393877714872360e-02" rms="1.9990719854831696e-01" purity="3.9216749370098114e-02" nType="-1"/>
        </Node>
      </Node>
    </BinaryTree>
    <BinaryTree type="DecisionTree" boostWeight="1.0000000000000000e+00" itree="38">
      <Node pos="s" depth="0" NCoef="0" IVar="21" Cut="3.3195626735687256e-01" cType="1" res="-8.4622465074062347e-03" rms="3.8306438922882080e-01" purity="2.7207526564598083e-01" nType="0">
        <Node pos="l" depth="1" NCoef="0" IVar="-1" Cut="0.0000000000000000e+00" cType="1" res="5.4939105175435543e-03" rms="4.0201786160469055e-01" purity="3.2677933573722839e-01" nType="-1"/>
        <Node pos="r" depth="1" NCoef="0" IVar="18" Cut="-1.2474489398300648e-02" cType="0" res="-8.5110120475292206e-02" rms="3.2572522759437561e-01" purity="1.5429300069808960e-01" nType="0">
          <Node pos="l" depth="2" NCoef="0" IVar="-1" Cut="0.0000000000000000e+00" cType="1" res="-1.8438801169395447e-02" rms="3.2901257276535034e-01" purity="1.6154903173446655e-01" nType="-1"/>
          <Node pos="r" depth="2" NCoef="0" IVar="-1" Cut="0.0000000000000000e+00" cType="1" res="-5.8709733188152313e-02" rms="2.0238438248634338e-01" purity="3.5279750823974609e-02" nType="-1"/>
        </Node>
      </Node>
    </BinaryTree>
    <BinaryTree type="DecisionTree" boostWeight="1.0000000000000000e+00" itree="39">
      <Node pos="s" depth="0" NCoef="0" IVar="0" Cut="8.9718937873840332e-02" cType="0" res="-7.6819714158773422e-03" rms="3.8229152560234070e-01" purity="2.7207526564598083e-01" nType="0">
        <Node pos="l" depth="1" NCoef="0" IVar="-1" Cut="0.0000000000000000e+00" cType="1" res="8.5662724450230598e-03" rms="4.6248713135719299e-01" purity="4.5784974098205566e-01" nType="-1"/>
        <Node pos="r" depth="1" NCoef="0" IVar="15" Cut="2.7540633454918861e-03" cType="1" res="-5.2198443561792374e-02" rms="3.0296006798744202e-01" purity="1.3585104048252106e-01" nType="0">
          <Node pos="l" depth="2" NCoef="0" IVar="-1" Cut="0.0000000000000000e+00" cType="1" res="-3.8401859346777201e-03" rms="3.5795578360557556e-01" purity="2.0065248012542725e-01" nType="-1"/>
          <Node pos="r" depth="2" NCoef="0" IVar="-1" Cut="0.0000000000000000e+00" cType="1" res="-3.7926778197288513e-02" rms="1.6203506290912628e-01" purity="2.9781751334667206e-02" nType="-1"/>
        </Node>
      </Node>
    </BinaryTree>
    <BinaryTree type="DecisionTree" boostWeight="1.0000000000000000e+00" itree="40">
      <Node pos="s" depth="0" NCoef="0" IVar="19" Cut="8.1455558538436890e-01" cType="1" res="-7.0332768373191357e-03" rms="3.8146731257438660e-01" purity="2.7207526564598083e-01" nType="0">
        <Node pos="l" depth="1" NCoef="0" IVar="-1" Cut="0.0000000000000000e+00" cType="1" res="3.0149095691740513e-03" rms="4.0263164043426514e-01" purity="3.1493979692459106e-01" nType="-1"/>
        <Node pos="r" depth="1" NCoef="0" IVar="0" Cut="8.0112718045711517e-02" cType="0" res="-1.2778949737548828e-01" rms="1.9225513935089111e-01" purity="3.6187820136547089e-02" nType="0">
          <Node pos="l" depth="2" NCoef="0" IVar="-1" Cut="0.0000000000000000e+00" cType="1" res="-4.5522995293140411e-02" rms="2.6467359066009521e-01" purity="7.8402124345302582e-02" nType="-1"/>
          <Node pos="r" depth="2" NCoef="0" IVar="-1" Cut="0.0000000000000000e+00" cType="1" res="-4.4053535908460617e-02" rms="1.2909469008445740e-01" purity="1.6676358878612518e-02" nType="-1"/>
        </Node>
      </Node>
    </BinaryTree>
    <BinaryTree type="DecisionTree" boostWeight="1.0000000000000000e+00" itree="41">
      <Node pos="s" depth="0" NCoef="0" IVar="22" Cut="1.0946030616760254e+00" cType="1" res="-6.3150906935334206e-03" rms="3.8067296147346497e-01" purity="2.7207526564598083e-01" nType="0">
        <Node pos="l" depth="1" NCoef="0" IVar="-1" Cut="0.0000000000000000e+00" cType="1" res="4.5387251302599907e-03" rms="3.9989706873893738e-01" purity="3.2165381312370300e-01" nType="-1"/>
        <Node pos="r" depth="1" NCoef="0" IVar="23" Cut="5.4572925567626953e+00" cType="0" res="-9.1858640313148499e-02" rms="3.0025810003280640e-01" purity="1.2339974194765091e-01" nType="0">
          <Node pos="l" depth="2" NCoef="0" IVar="-1" Cut="0.0000000000000000e+00" cType="1" res="3.0563455075025558e-02" rms="4.1788709163665771e-01" purity="4.4233843684196472e-01" nType="-1"/>
          <Node pos="r" depth="2" NCoef="0" IVar="-1" Cut="0.0000000000000000e+00" cType="1" res="-2.6332492008805275e-02" rms="2.9390376806259155e-01" purity="1.1501260846853256e-01" nType="-1"/>
        </Node>
      </Node>
    </BinaryTree>
    <BinaryTree type="DecisionTree" boostWeight="1.0000000000000000e+00" itree="42">
      <Node pos="s" depth="0" NCoef="0" IVar="0" Cut="4.9948170781135559e-02" cType="0" res="-5.7216081768274307e-03" rms="3.7997198104858398e-01" purity="2.7207526564598083e-01" nType="0">
        <Node pos="l" depth="1" NCoef="0" IVar="-1" Cut="0.0000000000000000e+00" cType="1" res="6.7932647652924061e-03" rms="4.4670230150222778e-01" purity="4.1611668467521667e-01" nType="-1"/>
        <Node pos="r" depth="1" NCoef="0" IVar="15" Cut="2.2088997066020966e-03" cType="1" res="-5.8920390903949738e-02" rms="2.7267557382583618e-01" purity="1.0290792584419250e-01" nType="0">
          <Node pos="l" depth="2" NCoef="0" IVar="-1" Cut="0.0000000000000000e+00" cType="1" res="-8.5101509466767311e-03" rms="3.3189058303833008e-01" purity="1.6000947356224060e-01" nType="-1"/>
          <Node pos="r" depth="2" NCoef="0" IVar="-1" Cut="0.0000000000000000e+00" cType="1" res="-3.7379074841737747e-02" rms="1.4840245246887207e-01" purity="2.3863501846790314e-02" nType="-1"/>
        </Node>
      </Node>
    </BinaryTree>
    <BinaryTree type="DecisionTree" boostWeight="1.0000000000000000e+00" itree="43">
      <Node pos="s" depth="0" NCoef="0" IVar="20" Cut="7.4967026710510254e-01" cType="1" res="-5.2197594195604324e-03" rms="3.7934768199920654e-01" purity="2.7207526564598083e-01" nType="0">
        <Node pos="l" depth="1" NCoef="0" IVar="-1" Cut="0.0000000000000000e+00" cType="1" res="3.8482558447867632e-03" rms="3.9980942010879517e-01" purity="3.1808698177337646e-01" nType="-1"/>
        <Node pos="r" depth="1" NCoef="0" IVar="0" Cut="5.7405713945627213e-02" cType="0" res="-1.0579551756381989e-01" rms="2.5383958220481873e-01" purity="7.8867785632610321e-02" nType="0">
          <Node pos="l" depth="2" NCoef="0" IVar="-1" Cut="0.0000000000000000e+00" cType="1" res="-3.0050886794924736e-02" rms="3.3216747641563416e-01" purity="1.4199888706207275e-01" nType="-1"/>
          <Node pos="r" depth="2" NCoef="0" IVar="-1" Cut="0.0000000000000000e+00" cType="1" res="-3.4732658416032791e-02" rms="1.6643014550209045e-01" purity="3.0491322278976440e-02" nType="-1"/>
        </Node>
      </Node>
    </BinaryTree>
    <BinaryTree type="DecisionTree" boostWeight="1.0000000000000000e+00" itree="44">
      <Node pos="s" depth="0" NCoef="0" IVar="4" Cut="1.5953334514051676e-03" cType="1" res="-4.7189788892865181e-03" rms="3.7871116399765015e-01" purity="2.7207526564598083e-01" nType="0">
        <Node pos="l" depth="1" NCoef="0" IVar="-1" Cut="0.0000000000000000e+00" cType="1" res="7.2090309113264084e-03" rms="4.2149966955184937e-01" purity="3.6287751793861389e-01" nType="-1"/>
        <Node pos="r" depth="1" NCoef="0" IVar="15" Cut="-7.6886494643986225e-03" cType="0" res="-6.0439068824052811e-02" rms="3.0411168932914734e-01" purity="1.5141956508159637e-01" nType="0">
          <Node pos="l" depth="2" NCoef="0" IVar="-1" Cut="0.0000000000000000e+00" cType="1" res="-9.4965538010001183e-03" rms="3.2318449020385742e-01" purity="1.8144349753856659e-01" nType="-1"/>
          <Node pos="r" depth="2" NCoef="0" IVar="-1" Cut="0.0000000000000000e+00" cType="1" res="-3.4102976322174072e-02" rms="2.4636161327362061e-01" purity="8.1940323114395142e-02" nType="-1"/>
        </Node>
      </Node>
    </BinaryTree>
    <BinaryTree type="DecisionTree" boostWeight="1.0000000000000000e+00" itree="45">
      <Node pos="s" depth="0" NCoef="0" IVar="21" Cut="7.8038841485977173e-01" cType="1" res="-4.3008169159293175e-03" rms="3.7803325057029724e-01" purity="2.7207526564598083e-01" nType="0">
        <Node pos="l" depth="1" NCoef="0" IVar="-1" Cut="0.0000000000000000e+00" cType="1" res="4.3285400606691837e-03" rms="3.9190217852592468e-01" purity="3.1164079904556274e-01" nType="-1"/>
        <Node pos="r" depth="1" NCoef="0" IVar="18" Cut="8.5324253886938095e-03" cType="1" res="-9.7586020827293396e-02" rms="3.0313360691070557e-01" purity="1.2388819456100464e-01" nType="0">
          <Node pos="l" depth="2" NCoef="0" IVar="-1" Cut="0.0000000000000000e+00" cType="1" res="-2.2755043581128120e-02" rms="3.0850499868392944e-01" purity="1.3265365362167358e-01" nType="-1"/>
          <Node pos="r" depth="2" NCoef="0" IVar="-1" Cut="0.0000000000000000e+00" cType="1" res="-5.4207928478717804e-02" rms="2.1577186882495880e-01" purity="4.4887352734804153e-02" nType="-1"/>
        </Node>
      </Node>
    </BinaryTree>
    <BinaryTree type="DecisionTree" boostWeight="1.0000000000000000e+00" itree="46">
      <Node pos="s" depth="0" NCoef="0" IVar="19" Cut="1.8797437846660614e-01" cType="1" res="-3.8387496024370193e-03" rms="3.7733414769172668e-01" purity="2.7207526564598083e-01" nType="0">
        <Node pos="l" depth="1" NCoef="0" IVar="-1" Cut="0.0000000000000000e+00" cType="1" res="3.9906003512442112e-03" rms="3.9989253878593445e-01" purity="3.2071983814239502e-01" nType="-1"/>
        <Node pos="r" depth="1" NCoef="0" IVar="0" Cut="7.1240931749343872e-02" cType="0" res="-9.6757948398590088e-02" rms="2.4886675179004669e-01" purity="7.8865543007850647e-02" nType="0">
          <Node pos="l" depth="2" NCoef="0" IVar="-1" Cut="0.0000000000000000e+00" cType="1" res="-2.9160991311073303e-02" rms="3.3941251039505005e-01" purity="1.5522350370883942e-01" nType="-1"/>
          <Node pos="r" depth="2" NCoef="0" IVar="-1" Cut="0.0000000000000000e+00" cType="1" res="-3.4515533596277237e-02" rms="1.6581004858016968e-01" purity="3.2460659742355347e-02" nType="-1"/>
        </Node>
      </Node>
    </BinaryTree>
    <BinaryTree type="DecisionTree" boostWeight="1.0000000000000000e+00" itree="47">
      <Node pos="s" depth="0" NCoef="0" IVar="15" Cut="6.4412849023938179e-03" cType="1" res="-3.4283802378922701e-03" rms="3.7672984600067139e-01" purity="2.7207526564598083e-01" nType="0">
        <Node pos="l" depth="1" NCoef="0" IVar="-1" Cut="0.0000000000000000e+00" cType="1" res="3.5230263601988554e-03" rms="3.9952203631401062e-01" purity="3.1426450610160828e-01" nType="-1"/>
        <Node pos="r" depth="1" NCoef="0" IVar="2" Cut="5.0029983520507812e+00" cType="1" res="-1.0670237243175507e-01" rms="1.9746485352516174e-01" purity="5.7045411318540573e-02" nType="0">
          <Node pos="l" depth="2" NCoef="0" IVar="-1" Cut="0.0000000000000000e+00" cType="1" res="5.1715672016143799e-03" rms="4.3510767817497253e-01" purity="3.9207300543785095e-01" nType="-1"/>
          <Node pos="r" depth="2" NCoef="0" IVar="-1" Cut="0.0000000000000000e+00" cType="1" res="-3.7834953516721725e-02" rms="1.6918666660785675e-01" purity="3.6735877394676208e-02" nType="-1"/>
        </Node>
      </Node>
    </BinaryTree>
    <BinaryTree type="DecisionTree" boostWeight="1.0000000000000000e+00" itree="48">
      <Node pos="s" depth="0" NCoef="0" IVar="22" Cut="2.9470083117485046e-01" cType="1" res="-3.2139536924660206e-03" rms="3.7614262104034424e-01" purity="2.7207526564598083e-01" nType="0">
        <Node pos="l" depth="1" NCoef="0" IVar="-1" Cut="0.0000000000000000e+00" cType="1" res="7.4326391331851482e-03" rms="4.0238901972770691e-01" purity="3.4638044238090515e-01" nType="-1"/>
        <Node pos="r" depth="1" NCoef="0" IVar="18" Cut="-1.1393047869205475e-02" cType="0" res="-5.5130179971456528e-02" rms="3.3173060417175293e-01" purity="1.7506164312362671e-01" nType="0">
          <Node pos="l" depth="2" NCoef="0" IVar="-1" Cut="0.0000000000000000e+00" cType="1" res="-1.1261274106800556e-02" rms="3.3554717898368835e-01" purity="1.8387807905673981e-01" nType="-1"/>
          <Node pos="r" depth="2" NCoef="0" IVar="-1" Cut="0.0000000000000000e+00" cType="1" res="-5.2241027355194092e-02" rms="2.1032407879829407e-01" purity="3.9731670171022415e-02" nType="-1"/>
        </Node>
      </Node>
    </BinaryTree>
    <BinaryTree type="DecisionTree" boostWeight="1.0000000000000000e+00" itree="49">
      <Node pos="s" depth="0" NCoef="0" IVar="20" Cut="7.6381498575210571e-01" cType="1" res="-2.9001794755458832e-03" rms="3.7546396255493164e-01" purity="2.7207526564598083e-01" nType="0">
        <Node pos="l" depth="1" NCoef="0" IVar="-1" Cut="0.0000000000000000e+00" cType="1" res="3.8751023821532726e-03" rms="3.9578661322593689e-01" purity="3.1755223870277405e-01" nType="-1"/>
        <Node pos="r" depth="1" NCoef="0" IVar="0" Cut="5.7405713945627213e-02" cType="0" res="-9.5109581947326660e-02" rms="2.5208291411399841e-01" purity="7.7869810163974762e-02" nType="0">
          <Node pos="l" depth="2" NCoef="0" IVar="-1" Cut="0.0000000000000000e+00" cType="1" res="-2.8484920039772987e-02" rms="3.2906490564346313e-01" purity="1.3934795558452606e-01" nType="-1"/>
          <Node pos="r" depth="2" NCoef="0" IVar="-1" Cut="0.0000000000000000e+00" cType="1" res="-3.3144328743219376e-02" rms="1.6728806495666504e-01" purity="3.0876439064741135e-02" nType="-1"/>
        </Node>
      </Node>
    </BinaryTree>
    <BinaryTree type="DecisionTree" boostWeight="1.0000000000000000e+00" itree="50">
      <Node pos="s" depth="0" NCoef="0" IVar="4" Cut="2.2984608076512814e-03" cType="1" res="-2.5856692809611559e-03" rms="3.7491005659103394e-01" purity="2.7207526564598083e-01" nType="0">
        <Node pos="l" depth="1" NCoef="0" IVar="-1" Cut="0.0000000000000000e+00" cType="1" res="5.1419651135802269e-03" rms="4.0977939963340759e-01" purity="3.4133815765380859e-01" nType="-1"/>
        <Node pos="r" depth="1" NCoef="0" IVar="2" Cut="4.0024986267089844e+00" cType="1" res="-7.2078920900821686e-02" rms="2.5839659571647644e-01" purity="1.0250556468963623e-01" nType="0">
          <Node pos="l" depth="2" NCoef="0" IVar="-1" Cut="0.0000000000000000e+00" cType="1" res="1.6069777309894562e-02" rms="4.3170866370201111e-01" purity="4.1481405496597290e-01" nType="-1"/>
          <Node pos="r" depth="2" NCoef="0" IVar="-1" Cut="0.0000000000000000e+00" cType="1" res="-2.5507939979434013e-02" rms="2.4565954506397247e-01" purity="8.8877469301223755e-02" nType="-1"/>
        </Node>
      </Node>
    </BinaryTree>
    <BinaryTree type="DecisionTree" boostWeight="1.0000000000000000e+00" itree="51">
      <Node pos="s" depth="0" NCoef="0" IVar="23" Cut="3.4759825468063354e-01" cType="1" res="-2.3484048433601856e-03" rms="3.7434929609298706e-01" purity="2.7207526564598083e-01" nType="0">
        <Node pos="l" depth="1" NCoef="0" IVar="-1" Cut="0.0000000000000000e+00" cType="1" res="7.9395305365324020e-03" rms="3.8963085412979126e-01" purity="3.2773542404174805e-01" nType="-1"/>
        <Node pos="r" depth="1" NCoef="0" IVar="18" Cut="1.0872579179704189e-02" cType="1" res="-5.1533475518226624e-02" rms="3.4819781780242920e-01" purity="2.0278792083263397e-01" nType="0">
          <Node pos="l" depth="2" NCoef="0" IVar="-1" Cut="0.0000000000000000e+00" cType="1" res="-9.7518414258956909e-03" rms="3.5025873780250549e-01" purity="2.1076908707618713e-01" nType="-1"/>
          <Node pos="r" depth="2" NCoef="0" IVar="-1" Cut="0.0000000000000000e+00" cType="1" res="-4.2075783014297485e-02" rms="2.7925717830657959e-01" purity="9.1953165829181671e-02" nType="-1"/>
        </Node>
      </Node>
    </BinaryTree>
    <BinaryTree type="DecisionTree" boostWeight="1.0000000000000000e+00" itree="52">
      <Node pos="s" depth="0" NCoef="0" IVar="0" Cut="4.9948170781135559e-02" cType="0" res="-2.1338406950235367e-03" rms="3.7369915843009949e-01" purity="2.7207526564598083e-01" nType="0">
        <Node pos="l" depth="1" NCoef="0" IVar="-1" Cut="0.0000000000000000e+00" cType="1" res="6.6961012780666351e-03" rms="4.3941378593444824e-01" purity="4.1611668467521667e-01" nType="-1"/>
        <Node pos="r" depth="1" NCoef="0" IVar="16" Cut="9.4744920730590820e-01" cType="0" res="-4.9875572323799133e-02" rms="2.6958665251731873e-01" purity="1.0290792584419250e-01" nType="0">
          <Node pos="l" depth="2" NCoef="0" IVar="-1" Cut="0.0000000000000000e+00" cType="1" res="-4.2650527320802212e-03" rms="3.6701536178588867e-01" purity="2.0043858885765076e-01" nType="-1"/>
          <Node pos="r" depth="2" NCoef="0" IVar="-1" Cut="0.0000000000000000e+00" cType="1" res="-3.9116427302360535e-02" rms="1.2321605533361435e-01" purity="1.5354081057012081e-02" nType="-1"/>
        </Node>
      </Node>
    </BinaryTree>
    <BinaryTree type="DecisionTree" boostWeight="1.0000000000000000e+00" itree="53">
      <Node pos="s" depth="0" NCoef="0" IVar="21" Cut="5.9402698278427124e-01" cType="1" res="-1.8829235341399908e-03" rms="3.7311455607414246e-01" purity="2.7207526564598083e-01" nType="0">
        <Node pos="l" depth="1" NCoef="0" IVar="-1" Cut="0.0000000000000000e+00" cType="1" res="4.9402029253542423e-03" rms="3.8908448815345764e-01" purity="3.1817188858985901e-01" nType="-1"/>
        <Node pos="r" depth="1" NCoef="0" IVar="18" Cut="8.0978134647011757e-03" cType="1" res="-7.6814047992229462e-02" rms="3.0908820033073425e-01" purity="1.3507947325706482e-01" nType="0">
          <Node pos="l" depth="2" NCoef="0" IVar="-1" Cut="0.0000000000000000e+00" cType="1" res="-1.7777204513549805e-02" rms="3.1468239426612854e-01" purity="1.4446239173412323e-01" nType="-1"/>
          <Node pos="r" depth="2" NCoef="0" IVar="-1" Cut="0.0000000000000000e+00" cType="1" res="-4.7002144157886505e-02" rms="2.2988416254520416e-01" purity="5.5106714367866516e-02" nType="-1"/>
        </Node>
      </Node>
    </BinaryTree>
    <BinaryTree type="DecisionTree" boostWeight="1.0000000000000000e+00" itree="54">
      <Node pos="s" depth="0" NCoef="0" IVar="19" Cut="8.3544164896011353e-01" cType="1" res="-1.6405733767896891e-03" rms="3.7251606583595276e-01" purity="2.7207526564598083e-01" nType="0">
        <Node pos="l" depth="1" NCoef="0" IVar="-1" Cut="0.0000000000000000e+00" cType="1" res="3.4399987198412418e-03" rms="3.9380198717117310e-01" purity="3.1453603506088257e-01" nType="-1"/>
        <Node pos="r" depth="1" NCoef="0" IVar="0" Cut="8.0112718045711517e-02" cType="0" res="-1.0278031975030899e-01" rms="1.8920126557350159e-01" purity="3.5439219325780869e-02" nType="0">
          <Node pos="l" depth="2" NCoef="0" IVar="-1" Cut="0.0000000000000000e+00" cType="1" res="-4.1643083095550537e-02" rms="2.6578164100646973e-01" purity="7.8585527837276459e-02" nType="-1"/>
          <Node pos="r" depth="2" NCoef="0" IVar="-1" Cut="0.0000000000000000e+00" cType="1" res="-4.1928578168153763e-02" rms="1.2483894824981689e-01" purity="1.5398104675114155e-02" nType="-1"/>
        </Node>
      </Node>
    </BinaryTree>
    <BinaryTree type="DecisionTree" boostWeight="1.0000000000000000e+00" itree="55">
      <Node pos="s" depth="0" NCoef="0" IVar="22" Cut="1.2630035877227783e+00" cType="1" res="-1.3746010372415185e-03" rms="3.7188956141471863e-01" purity="2.7207526564598083e-01" nType="0">
        <Node pos="l" depth="1" NCoef="0" IVar="-1" Cut="0.0000000000000000e+00" cType="1" res="4.4089206494390965e-03" rms="3.8920688629150391e-01" purity="3.1696903705596924e-01" nType="-1"/>
        <Node pos="r" depth="1" NCoef="0" IVar="23" Cut="5.6310920715332031e+00" cType="0" res="-7.8704893589019775e-02" rms="2.9096421599388123e-01" purity="1.1557474732398987e-01" nType="0">
          <Node pos="l" depth="2" NCoef="0" IVar="-1" Cut="0.0000000000000000e+00" cType="1" res="3.4319840371608734e-02" rms="4.1181403398513794e-01" purity="4.7132092714309692e-01" nType="-1"/>
          <Node pos="r" depth="2" NCoef="0" IVar="-1" Cut="0.0000000000000000e+00" cType="1" res="-2.4846356362104416e-02" rms="2.8500452637672424e-01" purity="1.0722177475690842e-01" nType="-1"/>
        </Node>
      </Node>
    </BinaryTree>
    <BinaryTree type="DecisionTree" boostWeight="1.0000000000000000e+00" itree="56">
      <Node pos="s" depth="0" NCoef="0" IVar="0" Cut="1.2153554707765579e-01" cType="0" res="-1.1865518754348159e-03" rms="3.7132564187049866e-01" purity="2.7207526564598083e-01" nType="0">
        <Node pos="l" depth="1" NCoef="0" IVar="-1" Cut="0.0000000000000000e+00" cType="1" res="8.3974320441484451e-03" rms="4.5082539319992065e-01" purity="4.6412333846092224e-01" nType="-1"/>
        <Node pos="r" depth="1" NCoef="0" IVar="16" Cut="1.0119824409484863e+00" cType="0" res="-3.3548377454280853e-02" rms="3.0799326300621033e-01" purity="1.5373317897319794e-01" nType="0">
          <Node pos="l" depth="2" NCoef="0" IVar="-1" Cut="0.0000000000000000e+00" cType="1" res="5.8289570733904839e-03" rms="4.2061731219291687e-01" purity="3.3076789975166321e-01" nType="-1"/>
          <Node pos="r" depth="2" NCoef="0" IVar="-1" Cut="0.0000000000000000e+00" cType="1" res="-2.2744566202163696e-02" rms="2.3606020212173462e-01" purity="7.4696213006973267e-02" nType="-1"/>
        </Node>
      </Node>
    </BinaryTree>
    <BinaryTree type="DecisionTree" boostWeight="1.0000000000000000e+00" itree="57">
      <Node pos="s" depth="0" NCoef="0" IVar="15" Cut="-8.9859869331121445e-03" cType="0" res="-1.0124153923243284e-03" rms="3.7073218822479248e-01" purity="2.7207526564598083e-01" nType="0">
        <Node pos="l" depth="1" NCoef="0" IVar="-1" Cut="0.0000000000000000e+00" cType="1" res="4.2910901829600334e-03" rms="3.8334956765174866e-01" purity="3.0468037724494934e-01" nType="-1"/>
        <Node pos="r" depth="1" NCoef="0" IVar="2" Cut="4.0024986267089844e+00" cType="1" res="-8.3668842911720276e-02" rms="3.0182278156280518e-01" purity="1.4256224036216736e-01" nType="0">
          <Node pos="l" depth="2" NCoef="0" IVar="-1" Cut="0.0000000000000000e+00" cType="1" res="2.4746114388108253e-02" rms="4.2874589562416077e-01" purity="4.7231638431549072e-01" nType="-1"/>
          <Node pos="r" depth="2" NCoef="0" IVar="-1" Cut="0.0000000000000000e+00" cType="1" res="-2.8245689347386360e-02" rms="2.8508126735687256e-01" purity="1.1850446462631226e-01" nType="-1"/>
        </Node>
      </Node>
    </BinaryTree>
    <BinaryTree type="DecisionTree" boostWeight="1.0000000000000000e+00" itree="58">
      <Node pos="s" depth="0" NCoef="0" IVar="18" Cut="-1.3488352298736572e-02" cType="0" res="-8.4107526345178485e-04" rms="3.7006604671478271e-01" purity="2.7207526564598083e-01" nType="0">
        <Node pos="l" depth="1" NCoef="0" IVar="-1" Cut="0.0000000000000000e+00" cType="1" res="1.6899252077564597e-03" rms="3.7086614966392517e-01" purity="2.7927404642105103e-01" nType="-1"/>
        <Node pos="r" depth="1" NCoef="0" IVar="0" Cut="8.0274984240531921e-02" cType="0" res="-2.0042863488197327e-01" rms="2.8485375642776489e-01" purity="9.8143391311168671e-02" nType="0">
          <Node pos="l" depth="2" NCoef="0" IVar="-1" Cut="0.0000000000000000e+00" cType="1" res="-4.9083083868026733e-02" rms="2.9063725471496582e-01" purity="1.0740149021148682e-01" nType="-1"/>
          <Node pos="r" depth="2" NCoef="0" IVar="-1" Cut="0.0000000000000000e+00" cType="1" res="-3.0798891559243202e-02" rms="2.4582652747631073e-01" purity="7.9510681331157684e-02" nType="-1"/>
        </Node>
      </Node>
    </BinaryTree>
    <BinaryTree type="DecisionTree" boostWeight="1.0000000000000000e+00" itree="59">
      <Node pos="s" depth="0" NCoef="0" IVar="20" Cut="3.5361805558204651e-01" cType="1" res="-7.2841235669329762e-04" rms="3.6960691213607788e-01" purity="2.7207526564598083e-01" nType="0">
        <Node pos="l" depth="1" NCoef="0" IVar="-1" Cut="0.0000000000000000e+00" cType="1" res="4.8215193673968315e-03" rms="3.9214506745338440e-01" purity="3.2699301838874817e-01" nType="-1"/>
        <Node pos="r" depth="1" NCoef="0" IVar="20" Cut="1.1882669925689697e+00" cType="1" res="-6.9142766296863556e-02" rms="2.8476053476333618e-01" purity="1.1467368155717850e-01" nType="0">
          <Node pos="l" depth="2" NCoef="0" IVar="-1" Cut="0.0000000000000000e+00" cType="1" res="-9.8009118810296059e-03" rms="3.3464944362640381e-01" purity="1.7872926592826843e-01" nType="-1"/>
          <Node pos="r" depth="2" NCoef="0" IVar="-1" Cut="0.0000000000000000e+00" cType="1" res="-3.4961715340614319e-02" rms="2.2710798680782318e-01" purity="5.7326368987560272e-02" nType="-1"/>
        </Node>
      </Node>
    </BinaryTree>
    <BinaryTree type="DecisionTree" boostWeight="1.0000000000000000e+00" itree="60">
      <Node pos="s" depth="0" NCoef="0" IVar="15" Cut="5.8903112076222897e-03" cType="1" res="-5.6411960395053029e-04" rms="3.6902987957000732e-01" purity="2.7207526564598083e-01" nType="0">
        <Node pos="l" depth="1" NCoef="0" IVar="-1" Cut="0.0000000000000000e+00" cType="1" res="3.8663700688630342e-03" rms="3.9331611990928650e-01" purity="3.1688868999481201e-01" nType="-1"/>
        <Node pos="r" depth="1" NCoef="0" IVar="2" Cut="5.0029983520507812e+00" cType="1" res="-8.6588017642498016e-02" rms="2.0446386933326721e-01" purity="6.5435394644737244e-02" nType="0">
          <Node pos="l" depth="2" NCoef="0" IVar="-1" Cut="0.0000000000000000e+00" cType="1" res="4.6713277697563171e-03" rms="4.2615380883216858e-01" purity="3.9405518770217896e-01" nType="-1"/>
          <Node pos="r" depth="2" NCoef="0" IVar="-1" Cut="0.0000000000000000e+00" cType="1" res="-3.3299438655376434e-02" rms="1.7928375303745270e-01" purity="4.4825717806816101e-02" nType="-1"/>
        </Node>
      </Node>
    </BinaryTree>
    <BinaryTree type="DecisionTree" boostWeight="1.0000000000000000e+00" itree="61">
      <Node pos="s" depth="0" NCoef="0" IVar="21" Cut="7.8038841485977173e-01" cType="1" res="-5.8635917957872152e-04" rms="3.6855241656303406e-01" purity="2.7207526564598083e-01" nType="0">
        <Node pos="l" depth="1" NCoef="0" IVar="-1" Cut="0.0000000000000000e+00" cType="1" res="4.3123876675963402e-03" rms="3.8221344351768494e-01" purity="3.1164079904556274e-01" nType="-1"/>
        <Node pos="r" depth="1" NCoef="0" IVar="18" Cut="8.5324253886938095e-03" cType="1" res="-7.7453278005123138e-02" rms="2.9988586902618408e-01" purity="1.2388819456100464e-01" nType="0">
          <Node pos="l" depth="2" NCoef="0" IVar="-1" Cut="0.0000000000000000e+00" cType="1" res="-1.9358895719051361e-02" rms="3.0595940351486206e-01" purity="1.3265365362167358e-01" nType="-1"/>
          <Node pos="r" depth="2" NCoef="0" IVar="-1" Cut="0.0000000000000000e+00" cType="1" res="-4.9791507422924042e-02" rms="2.1402367949485779e-01" purity="4.4887352734804153e-02" nType="-1"/>
        </Node>
      </Node>
    </BinaryTree>
    <BinaryTree type="DecisionTree" boostWeight="1.0000000000000000e+00" itree="62">
      <Node pos="s" depth="0" NCoef="0" IVar="4" Cut="1.3364707119762897e-03" cType="1" res="-4.3679683585651219e-04" rms="3.6802479624748230e-01" purity="2.7207526564598083e-01" nType="0">
        <Node pos="l" depth="1" NCoef="0" IVar="-1" Cut="0.0000000000000000e+00" cType="1" res="7.6262135989964008e-03" rms="4.1246676445007324e-01" purity="3.7080174684524536e-01" nType="-1"/>
        <Node pos="r" depth="1" NCoef="0" IVar="23" Cut="7.2995632886886597e-01" cType="1" res="-3.9837729185819626e-02" rms="3.1208637356758118e-01" purity="1.7259553074836731e-01" nType="0">
          <Node pos="l" depth="2" NCoef="0" IVar="-1" Cut="0.0000000000000000e+00" cType="1" res="-4.2464169673621655e-03" rms="3.2920035719871521e-01" purity="2.0824396610260010e-01" nType="-1"/>
          <Node pos="r" depth="2" NCoef="0" IVar="-1" Cut="0.0000000000000000e+00" cType="1" res="-2.6512239128351212e-02" rms="2.6988163590431213e-01" purity="1.0300970077514648e-01" nType="-1"/>
        </Node>
      </Node>
    </BinaryTree>
    <BinaryTree type="DecisionTree" boostWeight="1.0000000000000000e+00" itree="63">
      <Node pos="s" depth="0" NCoef="0" IVar="19" Cut="6.8923938274383545e-01" cType="1" res="-3.6054500378668308e-04" rms="3.6749392747879028e-01" purity="2.7207526564598083e-01" nType="0">
        <Node pos="l" depth="1" NCoef="0" IVar="-1" Cut="0.0000000000000000e+00" cType="1" res="3.4652675967663527e-03" rms="3.8949316740036011e-01" purity="3.1631869077682495e-01" nType="-1"/>
        <Node pos="r" depth="1" NCoef="0" IVar="0" Cut="8.0112718045711517e-02" cType="0" res="-8.7596081197261810e-02" rms="1.9901205599308014e-01" purity="4.2614210397005081e-02" nType="0">
          <Node pos="l" depth="2" NCoef="0" IVar="-1" Cut="0.0000000000000000e+00" cType="1" res="-3.7070248275995255e-02" rms="2.8105124831199646e-01" purity="9.2739462852478027e-02" nType="-1"/>
          <Node pos="r" depth="2" NCoef="0" IVar="-1" Cut="0.0000000000000000e+00" cType="1" res="-3.8116052746772766e-02" rms="1.3251563906669617e-01" purity="1.8507868051528931e-02" nType="-1"/>
        </Node>
      </Node>
    </BinaryTree>
    <BinaryTree type="DecisionTree" boostWeight="1.0000000000000000e+00" itree="64">
      <Node pos="s" depth="0" NCoef="0" IVar="23" Cut="6.6043668985366821e-01" cType="1" res="-2.0707206567749381e-04" rms="3.6697340011596680e-01" purity="2.7207526564598083e-01" nType="0">
        <Node pos="l" depth="1" NCoef="0" IVar="-1" Cut="0.0000000000000000e+00" cType="1" res="5.9564071707427502e-03" rms="3.7899404764175415e-01" purity="3.1663554906845093e-01" nType="-1"/>
        <Node pos="r" depth="1" NCoef="0" IVar="23" Cut="9.0615377426147461e+00" cType="0" res="-5.1669690757989883e-02" rms="3.3727845549583435e-01" purity="1.8831491470336914e-01" nType="0">
          <Node pos="l" depth="2" NCoef="0" IVar="-1" Cut="0.0000000000000000e+00" cType="1" res="5.8134179562330246e-02" rms="3.6586108803749084e-01" purity="6.5847468376159668e-01" nType="1"/>
          <Node pos="r" depth="2" NCoef="0" IVar="-1" Cut="0.0000000000000000e+00" cType="1" res="-1.4460832811892033e-02" rms="3.3395239710807800e-01" purity="1.8178196251392365e-01" nType="-1"/>
        </Node>
      </Node>
    </BinaryTree>
    <BinaryTree type="DecisionTree" boostWeight="1.0000000000000000e+00" itree="65">
      <Node pos="s" depth="0" NCoef="0" IVar="4" Cut="2.6587699539959431e-03" cType="1" res="-1.3482884969562292e-04" rms="3.6643278598785400e-01" purity="2.7207526564598083e-01" nType="0">
        <Node pos="l" depth="1" NCoef="0" IVar="-1" Cut="0.0000000000000000e+00" cType="1" res="4.2732842266559601e-03" rms="3.9621722698211670e-01" purity="3.3032196760177612e-01" nType="-1"/>
        <Node pos="r" depth="1" NCoef="0" IVar="8" Cut="1.4587177895009518e-02" cType="0" res="-6.7233763635158539e-02" rms="2.3429404199123383e-01" purity="8.3642274141311646e-02" nType="0">
          <Node pos="l" depth="2" NCoef="0" IVar="-1" Cut="0.0000000000000000e+00" cType="1" res="-8.8266134262084961e-03" rms="3.1809017062187195e-01" purity="1.7291325330734253e-01" nType="-1"/>
          <Node pos="r" depth="2" NCoef="0" IVar="-1" Cut="0.0000000000000000e+00" cType="1" res="-3.5991299897432327e-02" rms="1.7997522652149200e-01" purity="4.1693221777677536e-02" nType="-1"/>
        </Node>
      </Node>
    </BinaryTree>
    <BinaryTree type="DecisionTree" boostWeight="1.0000000000000000e+00" itree="66">
      <Node pos="s" depth="0" NCoef="0" IVar="18" Cut="-1.4343416318297386e-02" cType="0" res="-6.2624916608911008e-05" rms="3.6596930027008057e-01" purity="2.7207526564598083e-01" nType="0">
        <Node pos="l" depth="1" NCoef="0" IVar="-1" Cut="0.0000000000000000e+00" cType="1" res="1.6239013057202101e-03" rms="3.6694744229316711e-01" purity="2.7880075573921204e-01" nType="-1"/>
        <Node pos="r" depth="1" NCoef="0" IVar="14" Cut="1.3903763294219971e+00" cType="0" res="-1.9500748813152313e-01" rms="2.7362254261970520e-01" purity="8.7481714785099030e-02" nType="0">
          <Node pos="l" depth="2" NCoef="0" IVar="-1" Cut="0.0000000000000000e+00" cType="1" res="-4.1925832629203796e-03" rms="3.5651150345802307e-01" purity="2.2083088755607605e-01" nType="-1"/>
          <Node pos="r" depth="2" NCoef="0" IVar="-1" Cut="0.0000000000000000e+00" cType="1" res="-4.9565173685550690e-02" rms="2.4743781983852386e-01" purity="6.7231900990009308e-02" nType="-1"/>
        </Node>
      </Node>
    </BinaryTree>
    <BinaryTree type="DecisionTree" boostWeight="1.0000000000000000e+00" itree="67">
      <Node pos="s" depth="0" NCoef="0" IVar="0" Cut="1.2153554707765579e-01" cType="0" res="-2.4071241568890400e-05" rms="3.6554995179176331e-01" purity="2.7207526564598083e-01" nType="0">
        <Node pos="l" depth="1" NCoef="0" IVar="-1" Cut="0.0000000000000000e+00" cType="1" res="7.7800024300813675e-03" rms="4.4371679425239563e-01" purity="4.6412333846092224e-01" nType="-1"/>
        <Node pos="r" depth="1" NCoef="0" IVar="15" Cut="2.9705564957112074e-03" cType="1" res="-2.9068775475025177e-02" rms="3.0402964353561401e-01" purity="1.5373317897319794e-01" nType="0">
          <Node pos="l" depth="2" NCoef="0" IVar="-1" Cut="0.0000000000000000e+00" cType="1" res="-1.7561495769768953e-04" rms="3.5457181930541992e-01" purity="2.1970625221729279e-01" nType="-1"/>
          <Node pos="r" depth="2" NCoef="0" IVar="-1" Cut="0.0000000000000000e+00" cType="1" res="-3.3539295196533203e-02" rms="1.6670431196689606e-01" purity="3.3807143568992615e-02" nType="-1"/>
        </Node>
      </Node>
    </BinaryTree>
    <BinaryTree type="DecisionTree" boostWeight="1.0000000000000000e+00" itree="68">
      <Node pos="s" depth="0" NCoef="0" IVar="15" Cut="-5.9556299820542336e-03" cType="0" res="3.1153631425695494e-06" rms="3.6500412225723267e-01" purity="2.7207526564598083e-01" nType="0">
        <Node pos="l" depth="1" NCoef="0" IVar="-1" Cut="0.0000000000000000e+00" cType="1" res="4.8215831629931927e-03" rms="3.7592831254005432e-01" purity="3.0428072810173035e-01" nType="-1"/>
        <Node pos="r" depth="1" NCoef="0" IVar="2" Cut="4.0024986267089844e+00" cType="1" res="-6.5218605101108551e-02" rms="3.2113313674926758e-01" purity="1.7483617365360260e-01" nType="0">
          <Node pos="l" depth="2" NCoef="0" IVar="-1" Cut="0.0000000000000000e+00" cType="1" res="2.3344293236732483e-02" rms="4.3086823821067810e-01" purity="4.8947918415069580e-01" nType="-1"/>
          <Node pos="r" depth="2" NCoef="0" IVar="-1" Cut="0.0000000000000000e+00" cType="1" res="-2.0923784002661705e-02" rms="3.0747675895690918e-01" purity="1.5158954262733459e-01" nType="-1"/>
        </Node>
      </Node>
    </BinaryTree>
    <BinaryTree type="DecisionTree" boostWeight="1.0000000000000000e+00" itree="69">
      <Node pos="s" depth="0" NCoef="0" IVar="22" Cut="1.2630035877227783e+00" cType="1" res="3.5033208405366167e-05" rms="3.6444470286369324e-01" purity="2.7207526564598083e-01" nType="0">
        <Node pos="l" depth="1" NCoef="0" IVar="-1" Cut="0.0000000000000000e+00" cType="1" res="4.2608068324625492e-03" rms="3.8132929801940918e-01" purity="3.1696903705596924e-01" nType="-1"/>
        <Node pos="r" depth="1" NCoef="0" IVar="23" Cut="5.6310920715332031e+00" cType="0" res="-6.8418540060520172e-02" rms="2.8791242837905884e-01" purity="1.1557474732398987e-01" nType="0">
          <Node pos="l" depth="2" NCoef="0" IVar="-1" Cut="0.0000000000000000e+00" cType="1" res="3.1145708635449409e-02" rms="3.9880734682083130e-01" purity="4.7132092714309692e-01" nType="-1"/>
          <Node pos="r" depth="2" NCoef="0" IVar="-1" Cut="0.0000000000000000e+00" cType="1" res="-2.2901719436049461e-02" rms="2.8277933597564697e-01" purity="1.0722177475690842e-01" nType="-1"/>
        </Node>
      </Node>
    </BinaryTree>
    <BinaryTree type="DecisionTree" boostWeight="1.0000000000000000e+00" itree="70">
      <Node pos="s" depth="0" NCoef="0" IVar="18" Cut="1.2923628091812134e-02" cType="1" res="1.0589864541543648e-04" rms="3.6397275328636169e-01" purity="2.7207526564598083e-01" nType="0">
        <Node pos="l" depth="1" NCoef="0" IVar="-1" Cut="0.0000000000000000e+00" cType="1" res="1.8448885530233383e-03" rms="3.6508280038833618e-01" purity="2.7952307462692261e-01" nType="-1"/>
        <Node pos="r" depth="1" NCoef="0" IVar="14" Cut="1.2700213193893433e+00" cType="0" res="-1.6827948391437531e-01" rms="2.9221165180206299e-01" purity="1.1177956312894821e-01" nType="0">
          <Node pos="l" depth="2" NCoef="0" IVar="-1" Cut="0.0000000000000000e+00" cType="1" res="-1.4276689849793911e-02" rms="3.2362958788871765e-01" purity="1.9536045193672180e-01" nType="-1"/>
          <Node pos="r" depth="2" NCoef="0" IVar="-1" Cut="0.0000000000000000e+00" cType="1" res="-4.3002877384424210e-02" rms="2.7505353093147278e-01" purity="8.9580543339252472e-02" nType="-1"/>
        </Node>
      </Node>
    </BinaryTree>
    <BinaryTree type="DecisionTree" boostWeight="1.0000000000000000e+00" itree="71">
      <Node pos="s" depth="0" NCoef="0" IVar="20" Cut="3.5361805558204651e-01" cType="1" res="1.1597671255003661e-04" rms="3.6357995867729187e-01" purity="2.7207526564598083e-01" nType="0">
        <Node pos="l" depth="1" NCoef="0" IVar="-1" Cut="0.0000000000000000e+00" cType="1" res="4.5227319933474064e-03" rms="3.8578626513481140e-01" purity="3.2699301838874817e-01" nType="-1"/>
        <Node pos="r" depth="1" NCoef="0" IVar="20" Cut="1.2710129022598267e+00" cType="1" res="-6.0821231454610825e-02" rms="2.8193458914756775e-01" purity="1.1467368155717850e-01" nType="0">
          <Node pos="l" depth="2" NCoef="0" IVar="-1" Cut="0.0000000000000000e+00" cType="1" res="-9.3070110306143761e-03" rms="3.2777500152587891e-01" purity="1.7283816635608673e-01" nType="-1"/>
          <Node pos="r" depth="2" NCoef="0" IVar="-1" Cut="0.0000000000000000e+00" cType="1" res="-3.3612098544836044e-02" rms="2.2208124399185181e-01" purity="5.5322702974081039e-02" nType="-1"/>
        </Node>
      </Node>
    </BinaryTree>
    <BinaryTree type="DecisionTree" boostWeight="1.0000000000000000e+00" itree="72">
      <Node pos="s" depth="0" NCoef="0" IVar="21" Cut="1.0832257270812988e+00" cType="1" res="1.9756183610297740e-04" rms="3.6309668421745300e-01" purity="2.7207526564598083e-01" nType="0">
        <Node pos="l" depth="1" NCoef="0" IVar="-1" Cut="0.0000000000000000e+00" cType="1" res="3.5123822744935751e-03" rms="3.7441089749336243e-01" purity="3.0396461486816406e-01" nType="-1"/>
        <Node pos="r" depth="1" NCoef="0" IVar="17" Cut="6.6723166964948177e-03" cType="1" res="-8.2186050713062286e-02" rms="2.8243163228034973e-01" purity="1.0393130034208298e-01" nType="0">
          <Node pos="l" depth="2" NCoef="0" IVar="-1" Cut="0.0000000000000000e+00" cType="1" res="-2.3803180083632469e-02" rms="2.8641438484191895e-01" purity="1.0860373824834824e-01" nType="-1"/>
          <Node pos="r" depth="2" NCoef="0" IVar="-1" Cut="0.0000000000000000e+00" cType="1" res="-5.2072625607252121e-02" rms="1.9659566879272461e-01" purity="3.9603359997272491e-02" nType="-1"/>
        </Node>
      </Node>
    </BinaryTree>
    <BinaryTree type="DecisionTree" boostWeight="1.0000000000000000e+00" itree="73">
      <Node pos="s" depth="0" NCoef="0" IVar="15" Cut="6.4412849023938179e-03" cType="1" res="2.7809670427814126e-04" rms="3.6265349388122559e-01" purity="2.7207526564598083e-01" nType="0">
        <Node pos="l" depth="1" NCoef="0" IVar="-1" Cut="0.0000000000000000e+00" cType="1" res="3.4818451385945082e-03" rms="3.8546526432037354e-01" purity="3.1426450610160828e-01" nType="-1"/>
        <Node pos="r" depth="1" NCoef="0" IVar="2" Cut="4.0024986267089844e+00" cType="1" res="-7.9819969832897186e-02" rms="1.9199366867542267e-01" purity="5.7045411318540573e-02" nType="0">
          <Node pos="l" depth="2" NCoef="0" IVar="-1" Cut="0.0000000000000000e+00" cType="1" res="1.1052988469600677e-02" rms="4.3794253468513489e-01" purity="4.5467326045036316e-01" nType="-1"/>
          <Node pos="r" depth="2" NCoef="0" IVar="-1" Cut="0.0000000000000000e+00" cType="1" res="-3.2276779413223267e-02" rms="1.7773047089576721e-01" purity="4.5331463217735291e-02" nType="-1"/>
        </Node>
      </Node>
    </BinaryTree>
    <BinaryTree type="DecisionTree" boostWeight="1.0000000000000000e+00" itree="74">
      <Node pos="s" depth="0" NCoef="0" IVar="15" Cut="-8.9859869331121445e-03" cType="0" res="2.0646862685680389e-04" rms="3.6225241422653198e-01" purity="2.7207526564598083e-01" nType="0">
        <Node pos="l" depth="1" NCoef="0" IVar="-1" Cut="0.0000000000000000e+00" cType="1" res="3.9369529113173485e-03" rms="3.7505966424942017e-01" purity="3.0468037724494934e-01" nType="-1"/>
        <Node pos="r" depth="1" NCoef="0" IVar="2" Cut="4.0024986267089844e+00" cType="1" res="-6.9571994245052338e-02" rms="2.9601204395294189e-01" purity="1.4256224036216736e-01" nType="0">
          <Node pos="l" depth="2" NCoef="0" IVar="-1" Cut="0.0000000000000000e+00" cType="1" res="2.0765032619237900e-02" rms="4.1726008057594299e-01" purity="4.7231638431549072e-01" nType="-1"/>
          <Node pos="r" depth="2" NCoef="0" IVar="-1" Cut="0.0000000000000000e+00" cType="1" res="-2.5071632117033005e-02" rms="2.8140249848365784e-01" purity="1.1850446462631226e-01" nType="-1"/>
        </Node>
      </Node>
    </BinaryTree>
    <BinaryTree type="DecisionTree" boostWeight="1.0000000000000000e+00" itree="75">
      <Node pos="s" depth="0" NCoef="0" IVar="0" Cut="4.9948170781135559e-02" cType="0" res="2.6675578556023538e-04" rms="3.6175346374511719e-01" purity="2.7207526564598083e-01" nType="0">
        <Node pos="l" depth="1" NCoef="0" IVar="-1" Cut="0.0000000000000000e+00" cType="1" res="5.7074571959674358e-03" rms="4.2519703507423401e-01" purity="4.1611668467521667e-01" nType="-1"/>
        <Node pos="r" depth="1" NCoef="0" IVar="15" Cut="2.2088997066020966e-03" cType="1" res="-3.7008039653301239e-02" rms="2.6392638683319092e-01" purity="1.0290792584419250e-01" nType="0">
          <Node pos="l" depth="2" NCoef="0" IVar="-1" Cut="0.0000000000000000e+00" cType="1" res="-4.7844606451690197e-03" rms="3.2135784626007080e-01" purity="1.6000947356224060e-01" nType="-1"/>
          <Node pos="r" depth="2" NCoef="0" IVar="-1" Cut="0.0000000000000000e+00" cType="1" res="-3.3279851078987122e-02" rms="1.4690573513507843e-01" purity="2.3863501846790314e-02" nType="-1"/>
        </Node>
      </Node>
    </BinaryTree>
    <BinaryTree type="DecisionTree" boostWeight="1.0000000000000000e+00" itree="76">
      <Node pos="s" depth="0" NCoef="0" IVar="18" Cut="-1.3488352298736572e-02" cType="0" res="2.8184839175082743e-04" rms="3.6138859391212463e-01" purity="2.7207526564598083e-01" nType="0">
        <Node pos="l" depth="1" NCoef="0" IVar="-1" Cut="0.0000000000000000e+00" cType="1" res="1.7126417951658368e-03" rms="3.6264553666114807e-01" purity="2.7927404642105103e-01" nType="-1"/>
        <Node pos="r" depth="1" NCoef="0" IVar="14" Cut="1.3903763294219971e+00" cType="0" res="-1.6915208101272583e-01" rms="2.8056630492210388e-01" purity="9.8143391311168671e-02" nType="0">
          <Node pos="l" depth="2" NCoef="0" IVar="-1" Cut="0.0000000000000000e+00" cType="1" res="-2.8395422268658876e-03" rms="3.4612458944320679e-01" purity="2.1080419421195984e-01" nType="-1"/>
          <Node pos="r" depth="2" NCoef="0" IVar="-1" Cut="0.0000000000000000e+00" cType="1" res="-4.4647574424743652e-02" rms="2.6063120365142822e-01" purity="8.0934002995491028e-02" nType="-1"/>
        </Node>
      </Node>
    </BinaryTree>
    <BinaryTree type="DecisionTree" boostWeight="1.0000000000000000e+00" itree="77">
      <Node pos="s" depth="0" NCoef="0" IVar="19" Cut="3.7594875693321228e-01" cType="1" res="2.9064327827654779e-04" rms="3.6101579666137695e-01" purity="2.7207526564598083e-01" nType="0">
        <Node pos="l" depth="1" NCoef="0" IVar="-1" Cut="0.0000000000000000e+00" cType="1" res="3.6234355065971613e-03" rms="3.8318362832069397e-01" purity="3.1982818245887756e-01" nType="-1"/>
        <Node pos="r" depth="1" NCoef="0" IVar="0" Cut="7.1240931749343872e-02" cType="0" res="-7.0677265524864197e-02" rms="2.3169420659542084e-01" purity="6.8197466433048248e-02" nType="0">
          <Node pos="l" depth="2" NCoef="0" IVar="-1" Cut="0.0000000000000000e+00" cType="1" res="-2.6832930743694305e-02" rms="3.2104060053825378e-01" purity="1.3908359408378601e-01" nType="-1"/>
          <Node pos="r" depth="2" NCoef="0" IVar="-1" Cut="0.0000000000000000e+00" cType="1" res="-3.1090281903743744e-02" rms="1.5085947513580322e-01" purity="2.6658223941922188e-02" nType="-1"/>
        </Node>
      </Node>
    </BinaryTree>
    <BinaryTree type="DecisionTree" boostWeight="1.0000000000000000e+00" itree="78">
      <Node pos="s" depth="0" NCoef="0" IVar="23" Cut="3.4759825468063354e-01" cType="1" res="3.4981660428456962e-04" rms="3.6061212420463562e-01" purity="2.7207526564598083e-01" nType="0">
        <Node pos="l" depth="1" NCoef="0" IVar="-1" Cut="0.0000000000000000e+00" cType="1" res="6.7347097210586071e-03" rms="3.7503767013549805e-01" purity="3.2773542404174805e-01" nType="-1"/>
        <Node pos="r" depth="1" NCoef="0" IVar="23" Cut="9.0634965896606445e+00" cType="0" res="-3.7057630717754364e-02" rms="3.3809372782707214e-01" purity="2.0278792083263397e-01" nType="0">
          <Node pos="l" depth="2" NCoef="0" IVar="-1" Cut="0.0000000000000000e+00" cType="1" res="5.1811907440423965e-02" rms="3.5526430606842041e-01" purity="6.5847468376159668e-01" nType="1"/>
          <Node pos="r" depth="2" NCoef="0" IVar="-1" Cut="0.0000000000000000e+00" cType="1" res="-1.0409088805317879e-02" rms="3.3619397878646851e-01" purity="1.9786712527275085e-01" nType="-1"/>
        </Node>
      </Node>
    </BinaryTree>
    <BinaryTree type="DecisionTree" boostWeight="1.0000000000000000e+00" itree="79">
      <Node pos="s" depth="0" NCoef="0" IVar="22" Cut="5.8940166234970093e-01" cType="1" res="3.5852994187735021e-04" rms="3.6018779873847961e-01" purity="2.7207526564598083e-01" nType="0">
        <Node pos="l" depth="1" NCoef="0" IVar="-1" Cut="0.0000000000000000e+00" cType="1" res="5.3526675328612328e-03" rms="3.8334915041923523e-01" purity="3.3797454833984375e-01" nType="-1"/>
        <Node pos="r" depth="1" NCoef="0" IVar="18" Cut="1.0593055747449398e-02" cType="1" res="-4.4315010309219360e-02" rms="3.0909484624862671e-01" purity="1.5308842062950134e-01" nType="0">
          <Node pos="l" depth="2" NCoef="0" IVar="-1" Cut="0.0000000000000000e+00" cType="1" res="-1.0381167754530907e-02" rms="3.1294044852256775e-01" purity="1.6097059845924377e-01" nType="-1"/>
          <Node pos="r" depth="2" NCoef="0" IVar="-1" Cut="0.0000000000000000e+00" cType="1" res="-3.9779588580131531e-02" rms="2.3242472112178802e-01" purity="5.8130521327257156e-02" nType="-1"/>
        </Node>
      </Node>
    </BinaryTree>
    <BinaryTree type="DecisionTree" boostWeight="1.0000000000000000e+00" itree="80">
      <Node pos="s" depth="0" NCoef="0" IVar="9" Cut="1.2442490085959435e-02" cType="1" res="3.6879646359011531e-04" rms="3.5979548096656799e-01" purity="2.7207526564598083e-01" nType="0">
        <Node pos="l" depth="1" NCoef="0" IVar="-1" Cut="0.0000000000000000e+00" cType="1" res="2.8901719488203526e-03" rms="3.6882194876670837e-01" purity="2.9495647549629211e-01" nType="-1"/>
        <Node pos="r" depth="1" NCoef="0" IVar="16" Cut="9.6993243694305420e-01" cType="0" res="-8.9597031474113464e-02" rms="2.6806119084358215e-01" purity="1.0368040949106216e-01" nType="0">
          <Node pos="l" depth="2" NCoef="0" IVar="-1" Cut="0.0000000000000000e+00" cType="1" res="-2.6973282918334007e-02" rms="3.2131913304328918e-01" purity="1.5405698120594025e-01" nType="-1"/>
          <Node pos="r" depth="2" NCoef="0" IVar="-1" Cut="0.0000000000000000e+00" cType="1" res="-2.6557456701993942e-02" rms="1.9826027750968933e-01" purity="5.5159609764814377e-02" nType="-1"/>
        </Node>
      </Node>
    </BinaryTree>
    <BinaryTree type="DecisionTree" boostWeight="1.0000000000000000e+00" itree="81">
      <Node pos="s" depth="0" NCoef="0" IVar="21" Cut="3.2613247632980347e-01" cType="1" res="3.3938640262931585e-04" rms="3.5944235324859619e-01" purity="2.7207526564598083e-01" nType="0">
        <Node pos="l" depth="1" NCoef="0" IVar="-1" Cut="0.0000000000000000e+00" cType="1" res="4.9331556074321270e-03" rms="3.7735044956207275e-01" purity="3.2688501477241516e-01" nType="-1"/>
        <Node pos="r" depth="1" NCoef="0" IVar="2" Cut="4.0024986267089844e+00" cType="1" res="-4.7428809106349945e-02" rms="3.1249910593032837e-01" purity="1.5496066212654114e-01" nType="0">
          <Node pos="l" depth="2" NCoef="0" IVar="-1" Cut="0.0000000000000000e+00" cType="1" res="1.6364496201276779e-02" rms="4.3663433194160461e-01" purity="4.2579168081283569e-01" nType="-1"/>
          <Node pos="r" depth="2" NCoef="0" IVar="-1" Cut="0.0000000000000000e+00" cType="1" res="-1.6269603744149208e-02" rms="3.0350601673126221e-01" purity="1.4176183938980103e-01" nType="-1"/>
        </Node>
      </Node>
    </BinaryTree>
    <BinaryTree type="DecisionTree" boostWeight="1.0000000000000000e+00" itree="82">
      <Node pos="s" depth="0" NCoef="0" IVar="20" Cut="7.6381498575210571e-01" cType="1" res="3.9733623270876706e-04" rms="3.5905760526657104e-01" purity="2.7207526564598083e-01" nType="0">
