<?xml version="1.0"?>
<MethodSetup Method="BDT::BDTG">
  <GeneralInfo>
    <Info name="TMVA Release" value="4.0.7 [262151]"/>
    <Info name="ROOT Release" value="5.27/06 [334598]"/>
    <Info name="Creator" value="sixie"/>
    <Info name="Date" value="Sun Sep 25 19:18:52 2011"/>
    <Info name="Host" value="Linux lxbuild042.cern.ch 2.6.18-238.1.1.el5 #1 SMP Wed Jan 19 11:06:36 CET 2011 x86_64 x86_64 x86_64 GNU/Linux"/>
    <Info name="Dir" value="/build/sixie/releases/analysis/CMSSW_4_2_3_patch2/src/ElectronMVA"/>
    <Info name="Training events" value="141338"/>
    <Info name="TrainingTime" value="200.62"/>
    <Info name="AnalysisType" value="Classification"/>
  </GeneralInfo>
  <Options>
    <Option name="V" modified="Yes">False</Option>
    <Option name="VerbosityLevel" modified="No">Default</Option>
    <Option name="VarTransform" modified="No">None</Option>
    <Option name="H" modified="Yes">False</Option>
    <Option name="CreateMVAPdfs" modified="No">False</Option>
    <Option name="IgnoreNegWeightsInTraining" modified="No">False</Option>
    <Option name="NTrees" modified="Yes">1000</Option>
    <Option name="BoostType" modified="Yes">Grad</Option>
    <Option name="AdaBoostR2Loss" modified="No">quadratic</Option>
    <Option name="UseBaggedGrad" modified="Yes">False</Option>
    <Option name="GradBaggingFraction" modified="No">6.000000e-01</Option>
    <Option name="Shrinkage" modified="Yes">1.000000e-01</Option>
    <Option name="AdaBoostBeta" modified="No">1.000000e+00</Option>
    <Option name="UseRandomisedTrees" modified="No">False</Option>
    <Option name="UseNvars" modified="Yes">4</Option>
    <Option name="UseNTrainEvents" modified="No">141338</Option>
    <Option name="UseWeightedTrees" modified="No">True</Option>
    <Option name="UseYesNoLeaf" modified="No">True</Option>
    <Option name="NodePurityLimit" modified="No">5.000000e-01</Option>
    <Option name="SeparationType" modified="No">giniindex</Option>
    <Option name="nEventsMin" modified="No">62</Option>
    <Option name="nCuts" modified="Yes">2000</Option>
    <Option name="PruneStrength" modified="Yes">0.000000e+00</Option>
    <Option name="PruneMethod" modified="Yes">nopruning</Option>
    <Option name="PruneBeforeBoost" modified="No">False</Option>
    <Option name="PruningValFraction" modified="No">5.000000e-01</Option>
    <Option name="NNodesMax" modified="Yes">5</Option>
    <Option name="MaxDepth" modified="No">3</Option>
  </Options>
  <Variables NVar="15">
    <Variable VarIndex="0" Expression="SigmaIEtaIEta" Label="SigmaIEtaIEta" Title="SigmaIEtaIEta" Unit="" Internal="SigmaIEtaIEta" Type="F" Min="0.000379413" Max="0.0299997"/>
    <Variable VarIndex="1" Expression="DEtaIn" Label="DEtaIn" Title="DEtaIn" Unit="" Internal="DEtaIn" Type="F" Min="-0.00899982" Max="0.00899982"/>
    <Variable VarIndex="2" Expression="DPhiIn" Label="DPhiIn" Title="DPhiIn" Unit="" Internal="DPhiIn" Type="F" Min="-0.144653" Max="0.125809"/>
    <Variable VarIndex="3" Expression="HoverE" Label="HoverE" Title="HoverE" Unit="" Internal="HoverE" Type="F" Min="0" Max="0.119862"/>
    <Variable VarIndex="4" Expression="D0" Label="D0" Title="D0" Unit="" Internal="D0" Type="F" Min="-0.0199941" Max="0.0199925"/>
    <Variable VarIndex="5" Expression="FBrem" Label="FBrem" Title="FBrem" Unit="" Internal="FBrem" Type="F" Min="-17.5361" Max="0.999329"/>
    <Variable VarIndex="6" Expression="EOverP" Label="EOverP" Title="EOverP" Unit="" Internal="EOverP" Type="F" Min="2.96514e-05" Max="41.6875"/>
    <Variable VarIndex="7" Expression="ESeedClusterOverPout" Label="ESeedClusterOverPout" Title="ESeedClusterOverPout" Unit="" Internal="ESeedClusterOverPout" Type="F" Min="0.000330985" Max="1248"/>
    <Variable VarIndex="8" Expression="SigmaIPhiIPhi" Label="SigmaIPhiIPhi" Title="SigmaIPhiIPhi" Unit="" Internal="SigmaIPhiIPhi" Type="F" Min="0.00692668" Max="0.0867882"/>
    <Variable VarIndex="9" Expression="NBrem" Label="NBrem" Title="NBrem" Unit="" Internal="NBrem" Type="I" Min="0" Max="9"/>
    <Variable VarIndex="10" Expression="OneOverEMinusOneOverP" Label="OneOverEMinusOneOverP" Title="OneOverEMinusOneOverP" Unit="" Internal="OneOverEMinusOneOverP" Type="F" Min="-0.082142" Max="0.0331077"/>
    <Variable VarIndex="11" Expression="ESeedClusterOverPIn" Label="ESeedClusterOverPIn" Title="ESeedClusterOverPIn" Unit="" Internal="ESeedClusterOverPIn" Type="F" Min="2.81446e-05" Max="38.9319"/>
    <Variable VarIndex="12" Expression="IP3d" Label="IP3d" Title="IP3d" Unit="" Internal="IP3d" Type="F" Min="-4.75952" Max="0.0398865"/>
    <Variable VarIndex="13" Expression="IP3dSig" Label="IP3dSig" Title="IP3dSig" Unit="" Internal="IP3dSig" Type="F" Min="-379.119" Max="12.3385"/>
    <Variable VarIndex="14" Expression="StandardLikelihood" Label="StandardLikelihood" Title="StandardLikelihood" Unit="" Internal="StandardLikelihood" Type="F" Min="-20" Max="20"/>
  </Variables>
  <Spectators NSpec="0"/>
  <Transformations NTransformations="0"/>
  <MVAPdfs/>
  <Weights NTrees="1000" TreeType="1">
    <BinaryTree type="DecisionTree" boostWeight="1.0000000000000000e+00" itree="0">
      <Node pos="s" depth="0" Seq="0" IVar="14" Cut="8.0959522724151611e-01" cType="0" nS="1.2931899218750000e+05" nB="1.2135003906250000e+04" nEv="1.4145400000000000e+05" nSuw="1.2923900000000000e+05" nBuw="1.2099000000000000e+04" nEvuw="1.4133800000000000e+05" sepI="7.8428119421005249e-02" sepG="3.0324289575219154e-02" res="4.1421234607696533e-01" rms="2.8005021810531616e-01" nType="0" CC="0.0000000000000000e+00">
        <Node pos="l" depth="1" Seq="0" IVar="-1" Cut="0.0000000000000000e+00" cType="1" nS="1.2589919531250000e+05" nB="4.6172880859375000e+03" nEv="1.3051648437500000e+05" nSuw="1.2630000000000000e+05" nBuw="4.6630000000000000e+03" nEvuw="1.3096300000000000e+05" sepI="3.4125514328479767e-02" sepG="-1.0000000000000000e+00" res="6.0290645807981491e-02" rms="1.8473091721534729e-01" nType="1" CC="0.0000000000000000e+00"/>
        <Node pos="r" depth="1" Seq="1" IVar="5" Cut="1.8235291540622711e-01" cType="0" nS="3.4197897949218750e+03" nB="7.5177158203125000e+03" nEv="1.0937505859375000e+04" nSuw="2.9390000000000000e+03" nBuw="7.4360000000000000e+03" nEvuw="1.0375000000000000e+04" sepI="2.1490609645843506e-01" sepG="5.5243708193302155e-02" res="-1.8733367323875427e-01" rms="4.6357965469360352e-01" nType="0" CC="0.0000000000000000e+00">
          <Node pos="l" depth="2" Seq="1" IVar="-1" Cut="0.0000000000000000e+00" cType="1" nS="2.6139680175781250e+03" nB="1.7240964355468750e+03" nEv="4.3380644531250000e+03" nSuw="2.3210000000000000e+03" nBuw="1.7500000000000000e+03" nEvuw="4.0710000000000000e+03" sepI="2.3948031663894653e-01" sepG="-1.0000000000000000e+00" res="1.2788095511496067e-02" rms="4.8936724662780762e-01" nType="1" CC="0.0000000000000000e+00"/>
          <Node pos="r" depth="2" Seq="3" IVar="-1" Cut="0.0000000000000000e+00" cType="1" nS="8.0582177734375000e+02" nB="5.7936196289062500e+03" nEv="6.5994414062500000e+03" nSuw="6.1800000000000000e+02" nBuw="5.6860000000000000e+03" nEvuw="6.3040000000000000e+03" sepI="1.0719501972198486e-01" sepG="-1.0000000000000000e+00" res="-4.8544574528932571e-02" rms="3.2740649580955505e-01" nType="-1" CC="0.0000000000000000e+00"/>
        </Node>
      </Node>
    </BinaryTree>
    <BinaryTree type="DecisionTree" boostWeight="1.0000000000000000e+00" itree="1">
      <Node pos="s" depth="0" Seq="0" IVar="14" Cut="1.0094952583312988e+00" cType="0" nS="1.2931899218750000e+05" nB="1.2135003906250000e+04" nEv="1.4145400000000000e+05" nSuw="1.2923900000000000e+05" nBuw="1.2099000000000000e+04" nEvuw="1.4133800000000000e+05" sepI="7.4101351201534271e-02" sepG="2.6593023911118507e-02" res="3.8736703991889954e-01" rms="2.7221563458442688e-01" nType="0" CC="0.0000000000000000e+00">
        <Node pos="l" depth="1" Seq="0" IVar="-1" Cut="0.0000000000000000e+00" cType="1" nS="1.2555432031250000e+05" nB="4.4303901367187500e+03" nEv="1.2998471093750000e+05" nSuw="1.2598400000000000e+05" nBuw="4.4550000000000000e+03" nEvuw="1.3043900000000000e+05" sepI="3.2922223210334778e-02" sepG="-1.0000000000000000e+00" res="5.6753877550363541e-02" rms="1.8144482374191284e-01" nType="1" CC="0.0000000000000000e+00"/>
        <Node pos="r" depth="1" Seq="1" IVar="5" Cut="1.8235291540622711e-01" cType="0" nS="3.7646684570312500e+03" nB="7.7046137695312500e+03" nEv="1.1469282226562500e+04" nSuw="3.2550000000000000e+03" nBuw="7.6440000000000000e+03" nEvuw="1.0899000000000000e+04" sepI="2.1281689405441284e-01" sepG="5.0803966820240021e-02" res="-1.6161972284317017e-01" rms="4.6132081747055054e-01" nType="0" CC="0.0000000000000000e+00">
          <Node pos="l" depth="2" Seq="1" IVar="-1" Cut="0.0000000000000000e+00" cType="1" nS="2.8981408691406250e+03" nB="1.7963908691406250e+03" nEv="4.6945317382812500e+03" nSuw="2.5880000000000000e+03" nBuw="1.8250000000000000e+03" nEvuw="4.4130000000000000e+03" sepI="2.3562212288379669e-01" sepG="-1.0000000000000000e+00" res="1.3630568049848080e-02" rms="4.8540922999382019e-01" nType="1" CC="0.0000000000000000e+00"/>
          <Node pos="r" depth="2" Seq="3" IVar="-1" Cut="0.0000000000000000e+00" cType="1" nS="8.6652770996093750e+02" nB="5.9082231445312500e+03" nEv="6.7747509765625000e+03" nSuw="6.6700000000000000e+02" nBuw="5.8190000000000000e+03" nEvuw="6.4860000000000000e+03" sepI="1.1100577563047409e-01" sepG="-1.0000000000000000e+00" res="-4.5092716813087463e-02" rms="3.3317530155181885e-01" nType="-1" CC="0.0000000000000000e+00"/>
        </Node>
      </Node>
    </BinaryTree>
    <BinaryTree type="DecisionTree" boostWeight="1.0000000000000000e+00" itree="2">
      <Node pos="s" depth="0" Seq="0" IVar="14" Cut="4.2978510260581970e-01" cType="0" nS="1.2931899218750000e+05" nB="1.2135003906250000e+04" nEv="1.4145400000000000e+05" nSuw="1.2923900000000000e+05" nBuw="1.2099000000000000e+04" nEvuw="1.4133800000000000e+05" sepI="7.0266447961330414e-02" sepG="2.3389903828501701e-02" res="3.6234992742538452e-01" rms="2.6507818698883057e-01" nType="0" CC="0.0000000000000000e+00">
        <Node pos="l" depth="1" Seq="0" IVar="-1" Cut="0.0000000000000000e+00" cType="1" nS="1.2650456250000000e+05" nB="4.9792573242187500e+03" nEv="1.3148381250000000e+05" nSuw="1.2680000000000000e+05" nBuw="5.0430000000000000e+03" nEvuw="1.3184300000000000e+05" sepI="3.5991240292787552e-02" sepG="-1.0000000000000000e+00" res="5.3162179887294769e-02" rms="1.8971356749534607e-01" nType="1" CC="0.0000000000000000e+00"/>
        <Node pos="r" depth="1" Seq="1" IVar="5" Cut="1.8235291540622711e-01" cType="0" nS="2.8144260253906250e+03" nB="7.1557470703125000e+03" nEv="9.9701728515625000e+03" nSuw="2.4390000000000000e+03" nBuw="7.0560000000000000e+03" nEvuw="9.4950000000000000e+03" sepI="1.9042885303497314e-01" sepG="3.8545396178960800e-02" res="-1.9304130971431732e-01" rms="4.3638154864311218e-01" nType="0" CC="0.0000000000000000e+00">
          <Node pos="l" depth="2" Seq="1" IVar="-1" Cut="0.0000000000000000e+00" cType="1" nS="2.1167731933593750e+03" nB="1.5471217041015625e+03" nEv="3.6638950195312500e+03" nSuw="1.8990000000000000e+03" nBuw="1.5700000000000000e+03" nEvuw="3.4690000000000000e+03" sepI="2.4395669996738434e-01" sepG="-1.0000000000000000e+00" res="8.1616956740617752e-03" rms="4.9391973018646240e-01" nType="1" CC="0.0000000000000000e+00"/>
          <Node pos="r" depth="2" Seq="3" IVar="-1" Cut="0.0000000000000000e+00" cType="1" nS="6.9765277099609375e+02" nB="5.6086254882812500e+03" nEv="6.3062783203125000e+03" nSuw="5.4000000000000000e+02" nBuw="5.4860000000000000e+03" nEvuw="6.0260000000000000e+03" sepI="9.8389670252799988e-02" sepG="-1.0000000000000000e+00" res="-4.4489223510026932e-02" rms="3.1367129087448120e-01" nType="-1" CC="0.0000000000000000e+00"/>
        </Node>
      </Node>
    </BinaryTree>
    <BinaryTree type="DecisionTree" boostWeight="1.0000000000000000e+00" itree="3">
      <Node pos="s" depth="0" Seq="0" IVar="14" Cut="1.3693153858184814e+00" cType="0" nS="1.2931899218750000e+05" nB="1.2135003906250000e+04" nEv="1.4145400000000000e+05" nSuw="1.2923900000000000e+05" nBuw="1.2099000000000000e+04" nEvuw="1.4133800000000000e+05" sepI="6.7021496593952179e-02" sepG="2.0624304190278053e-02" res="3.3901882171630859e-01" rms="2.5888508558273315e-01" nType="0" CC="0.0000000000000000e+00">
        <Node pos="l" depth="1" Seq="0" IVar="-1" Cut="0.0000000000000000e+00" cType="1" nS="1.2475282812500000e+05" nB="4.0928903808593750e+03" nEv="1.2884571875000000e+05" nSuw="1.2531200000000000e+05" nBuw="4.1020000000000000e+03" nEvuw="1.2941400000000000e+05" sepI="3.0756752938032150e-02" sepG="-1.0000000000000000e+00" res="5.1334753632545471e-02" rms="1.7537602782249451e-01" nType="1" CC="0.0000000000000000e+00"/>
        <Node pos="r" depth="1" Seq="1" IVar="5" Cut="1.7603017389774323e-01" cType="0" nS="4.5661572265625000e+03" nB="8.0421142578125000e+03" nEv="1.2608271484375000e+04" nSuw="3.9270000000000000e+03" nBuw="7.9970000000000000e+03" nEvuw="1.1924000000000000e+04" sepI="2.0622906088829041e-01" sepG="4.2468901723623276e-02" res="-1.2007018178701401e-01" rms="4.5412448048591614e-01" nType="0" CC="0.0000000000000000e+00">
          <Node pos="l" depth="2" Seq="1" IVar="-1" Cut="0.0000000000000000e+00" cType="1" nS="3.6068320312500000e+03" nB="2.0073925781250000e+03" nEv="5.6142246093750000e+03" nSuw="3.1900000000000000e+03" nBuw="2.0440000000000000e+03" nEvuw="5.2340000000000000e+03" sepI="2.2528237104415894e-01" sepG="-1.0000000000000000e+00" res="1.3600122183561325e-02" rms="4.7463920712471008e-01" nType="1" CC="0.0000000000000000e+00"/>
          <Node pos="r" depth="2" Seq="3" IVar="-1" Cut="0.0000000000000000e+00" cType="1" nS="9.5932501220703125e+02" nB="6.0347211914062500e+03" nEv="6.9940463867187500e+03" nSuw="7.3700000000000000e+02" nBuw="5.9530000000000000e+03" nEvuw="6.6900000000000000e+03" sepI="1.1437536031007767e-01" sepG="-1.0000000000000000e+00" res="-3.9902709424495697e-02" rms="3.3819425106048584e-01" nType="-1" CC="0.0000000000000000e+00"/>
        </Node>
      </Node>
    </BinaryTree>
    <BinaryTree type="DecisionTree" boostWeight="1.0000000000000000e+00" itree="4">
      <Node pos="s" depth="0" Seq="0" IVar="14" Cut="4.8975512385368347e-01" cType="0" nS="1.2931899218750000e+05" nB="1.2135003906250000e+04" nEv="1.4145400000000000e+05" nSuw="1.2923900000000000e+05" nBuw="1.2099000000000000e+04" nEvuw="1.4133800000000000e+05" sepI="6.3983678817749023e-02" sepG="1.8081966787576675e-02" res="3.1721407175064087e-01" rms="2.5294995307922363e-01" nType="0" CC="0.0000000000000000e+00">
        <Node pos="l" depth="1" Seq="0" IVar="-1" Cut="0.0000000000000000e+00" cType="1" nS="1.2641864062500000e+05" nB="4.9241113281250000e+03" nEv="1.3134275000000000e+05" nSuw="1.2673000000000000e+05" nBuw="4.9840000000000000e+03" nEvuw="1.3171400000000000e+05" sepI="3.5369694232940674e-02" sepG="-1.0000000000000000e+00" res="4.8236731439828873e-02" rms="1.8806831538677216e-01" nType="1" CC="0.0000000000000000e+00"/>
        <Node pos="r" depth="1" Seq="1" IVar="10" Cut="-4.1865068487823009e-03" cType="0" nS="2.9003479003906250e+03" nB="7.2108925781250000e+03" nEv="1.0111241210937500e+04" nSuw="2.5090000000000000e+03" nBuw="7.1150000000000000e+03" nEvuw="9.6240000000000000e+03" sepI="1.8271031975746155e-01" sepG="3.1588122248649597e-02" res="-1.6743084788322449e-01" rms="4.2744627594947815e-01" nType="0" CC="0.0000000000000000e+00">
          <Node pos="l" depth="2" Seq="1" IVar="-1" Cut="0.0000000000000000e+00" cType="1" nS="1.5327474365234375e+03" nB="9.2580584716796875e+02" nEv="2.4585532226562500e+03" nSuw="1.3350000000000000e+03" nBuw="1.1260000000000000e+03" nEvuw="2.4610000000000000e+03" sepI="2.0741087198257446e-01" sepG="-1.0000000000000000e+00" res="1.9390473142266273e-02" rms="4.5542383193969727e-01" nType="1" CC="0.0000000000000000e+00"/>
          <Node pos="r" depth="2" Seq="3" IVar="-1" Cut="0.0000000000000000e+00" cType="1" nS="1.3676005859375000e+03" nB="6.2850869140625000e+03" nEv="7.6526875000000000e+03" nSuw="1.1740000000000000e+03" nBuw="5.9890000000000000e+03" nEvuw="7.1630000000000000e+03" sepI="1.3303852081298828e-01" sepG="-1.0000000000000000e+00" res="-3.4787837415933609e-02" rms="3.6474445462226868e-01" nType="-1" CC="0.0000000000000000e+00"/>
        </Node>
      </Node>
    </BinaryTree>
    <BinaryTree type="DecisionTree" boostWeight="1.0000000000000000e+00" itree="5">
      <Node pos="s" depth="0" Seq="0" IVar="14" Cut="1.4092953205108643e+00" cType="0" nS="1.2931899218750000e+05" nB="1.2135003906250000e+04" nEv="1.4145400000000000e+05" nSuw="1.2923900000000000e+05" nBuw="1.2099000000000000e+04" nEvuw="1.4133800000000000e+05" sepI="6.1485607177019119e-02" sepG="1.6082083806395531e-02" res="2.9685804247856140e-01" rms="2.4796292185783386e-01" nType="0" CC="0.0000000000000000e+00">
        <Node pos="l" depth="1" Seq="0" IVar="-1" Cut="0.0000000000000000e+00" cType="1" nS="1.2466228906250000e+05" nB="4.0615493164062500e+03" nEv="1.2872383593750000e+05" nSuw="1.2523400000000000e+05" nBuw="4.0690000000000000e+03" nEvuw="1.2930300000000000e+05" sepI="3.0556868761777878e-02" sepG="-1.0000000000000000e+00" res="4.7008473426103592e-02" rms="1.7480523884296417e-01" nType="1" CC="0.0000000000000000e+00"/>
        <Node pos="r" depth="1" Seq="1" IVar="5" Cut="2.0132112503051758e-01" cType="0" nS="4.6566997070312500e+03" nB="8.0734550781250000e+03" nEv="1.2730155273437500e+04" nSuw="4.0050000000000000e+03" nBuw="8.0300000000000000e+03" nEvuw="1.2035000000000000e+04" sepI="1.9552883505821228e-01" sepG="3.5575903952121735e-02" res="-1.0640071332454681e-01" rms="4.4218641519546509e-01" nType="0" CC="0.0000000000000000e+00">
          <Node pos="l" depth="2" Seq="1" IVar="-1" Cut="0.0000000000000000e+00" cType="1" nS="3.5490856933593750e+03" nB="1.8486921386718750e+03" nEv="5.3977778320312500e+03" nSuw="3.1270000000000000e+03" nBuw="1.8790000000000000e+03" nEvuw="5.0060000000000000e+03" sepI="2.1541795134544373e-01" sepG="-1.0000000000000000e+00" res="1.4052912592887878e-02" rms="4.6413138508796692e-01" nType="1" CC="0.0000000000000000e+00"/>
          <Node pos="r" depth="2" Seq="3" IVar="-1" Cut="0.0000000000000000e+00" cType="1" nS="1.1076141357421875e+03" nB="6.2247626953125000e+03" nEv="7.3323769531250000e+03" nSuw="8.7800000000000000e+02" nBuw="6.1510000000000000e+03" nEvuw="7.0290000000000000e+03" sepI="1.1912199854850769e-01" sepG="-1.0000000000000000e+00" res="-3.5927943885326385e-02" rms="3.4514054656028748e-01" nType="-1" CC="0.0000000000000000e+00"/>
        </Node>
      </Node>
    </BinaryTree>
    <BinaryTree type="DecisionTree" boostWeight="1.0000000000000000e+00" itree="6">
      <Node pos="s" depth="0" Seq="0" IVar="14" Cut="1.3693153858184814e+00" cType="0" nS="1.2931899218750000e+05" nB="1.2135003906250000e+04" nEv="1.4145400000000000e+05" nSuw="1.2923900000000000e+05" nBuw="1.2099000000000000e+04" nEvuw="1.4133800000000000e+05" sepI="5.9090778231620789e-02" sepG="1.4079995453357697e-02" res="2.7783811092376709e-01" rms="2.4308595061302185e-01" nType="0" CC="0.0000000000000000e+00">
        <Node pos="l" depth="1" Seq="0" IVar="-1" Cut="0.0000000000000000e+00" cType="1" nS="1.2475282812500000e+05" nB="4.0928903808593750e+03" nEv="1.2884571875000000e+05" nSuw="1.2531200000000000e+05" nBuw="4.1020000000000000e+03" nEvuw="1.2941400000000000e+05" sepI="3.0744325369596481e-02" sepG="-1.0000000000000000e+00" res="4.5158002525568008e-02" rms="1.7534059286117554e-01" nType="1" CC="0.0000000000000000e+00"/>
        <Node pos="r" depth="1" Seq="1" IVar="5" Cut="2.0132112503051758e-01" cType="0" nS="4.5661572265625000e+03" nB="8.0421142578125000e+03" nEv="1.2608271484375000e+04" nSuw="3.9270000000000000e+03" nBuw="7.9970000000000000e+03" nEvuw="1.1924000000000000e+04" sepI="1.9080173969268799e-01" sepG="3.1083526089787483e-02" res="-1.0148429125547409e-01" rms="4.3680858612060547e-01" nType="0" CC="0.0000000000000000e+00">
          <Node pos="l" depth="2" Seq="1" IVar="-1" Cut="0.0000000000000000e+00" cType="1" nS="3.4816376953125000e+03" nB="1.8369746093750000e+03" nEv="5.3186123046875000e+03" nSuw="3.0670000000000000e+03" nBuw="1.8660000000000000e+03" nEvuw="4.9330000000000000e+03" sepI="2.1659450232982635e-01" sepG="-1.0000000000000000e+00" res="1.3021161779761314e-02" rms="4.6539714932441711e-01" nType="1" CC="0.0000000000000000e+00"/>
          <Node pos="r" depth="2" Seq="3" IVar="-1" Cut="0.0000000000000000e+00" cType="1" nS="1.0845192871093750e+03" nB="6.2051391601562500e+03" nEv="7.2896586914062500e+03" nSuw="8.6000000000000000e+02" nBuw="6.1310000000000000e+03" nEvuw="6.9910000000000000e+03" sepI="1.1822067201137543e-01" sepG="-1.0000000000000000e+00" res="-3.4216661006212234e-02" rms="3.4383234381675720e-01" nType="-1" CC="0.0000000000000000e+00"/>
        </Node>
      </Node>
    </BinaryTree>
    <BinaryTree type="DecisionTree" boostWeight="1.0000000000000000e+00" itree="7">
      <Node pos="s" depth="0" Seq="0" IVar="14" Cut="1.8990504741668701e-01" cType="0" nS="1.2931899218750000e+05" nB="1.2135003906250000e+04" nEv="1.4145400000000000e+05" nSuw="1.2923900000000000e+05" nBuw="1.2099000000000000e+04" nEvuw="1.4133800000000000e+05" sepI="5.7001590728759766e-02" sepG="1.2428591959178448e-02" res="2.6006290316581726e-01" rms="2.3875005543231964e-01" nType="0" CC="0.0000000000000000e+00">
        <Node pos="l" depth="1" Seq="0" IVar="-1" Cut="0.0000000000000000e+00" cType="1" nS="1.2680857031250000e+05" nB="5.2113540039062500e+03" nEv="1.3201992187500000e+05" nSuw="1.2706600000000000e+05" nBuw="5.2920000000000000e+03" nEvuw="1.3235800000000000e+05" sepI="3.6024179309606552e-02" sepG="-1.0000000000000000e+00" res="4.2617887258529663e-02" rms="1.8980036675930023e-01" nType="1" CC="0.0000000000000000e+00"/>
        <Node pos="r" depth="1" Seq="1" IVar="10" Cut="-4.1372738778591156e-03" cType="0" nS="2.5104189453125000e+03" nB="6.9236499023437500e+03" nEv="9.4340693359375000e+03" nSuw="2.1730000000000000e+03" nBuw="6.8070000000000000e+03" nEvuw="8.9800000000000000e+03" sepI="1.6420476138591766e-01" sepG="2.5330072268843651e-02" res="-1.5698044002056122e-01" rms="4.0522184967994690e-01" nType="0" CC="0.0000000000000000e+00">
          <Node pos="l" depth="2" Seq="1" IVar="-1" Cut="0.0000000000000000e+00" cType="1" nS="1.2916718750000000e+03" nB="8.0103021240234375e+02" nEv="2.0927021484375000e+03" nSuw="1.1280000000000000e+03" nBuw="9.7800000000000000e+02" nEvuw="2.1060000000000000e+03" sepI="1.9843363761901855e-01" sepG="-1.0000000000000000e+00" res="1.8969178199768066e-02" rms="4.4545891880989075e-01" nType="1" CC="0.0000000000000000e+00"/>
          <Node pos="r" depth="2" Seq="3" IVar="-1" Cut="0.0000000000000000e+00" cType="1" nS="1.2187469482421875e+03" nB="6.1226196289062500e+03" nEv="7.3413666992187500e+03" nSuw="1.0450000000000000e+03" nBuw="5.8290000000000000e+03" nEvuw="6.8740000000000000e+03" sepI="1.2189703434705734e-01" sepG="-1.0000000000000000e+00" res="-3.2493814826011658e-02" rms="3.4913757443428040e-01" nType="-1" CC="0.0000000000000000e+00"/>
        </Node>
      </Node>
    </BinaryTree>
    <BinaryTree type="DecisionTree" boostWeight="1.0000000000000000e+00" itree="8">
      <Node pos="s" depth="0" Seq="0" IVar="14" Cut="2.1689155101776123e+00" cType="0" nS="1.2931899218750000e+05" nB="1.2135003906250000e+04" nEv="1.4145400000000000e+05" nSuw="1.2923900000000000e+05" nBuw="1.2099000000000000e+04" nEvuw="1.4133800000000000e+05" sepI="5.5290110409259796e-02" sepG="1.1251985095441341e-02" res="2.4344410002231598e-01" rms="2.3513849079608917e-01" nType="0" CC="0.0000000000000000e+00">
        <Node pos="l" depth="1" Seq="0" IVar="-1" Cut="0.0000000000000000e+00" cType="1" nS="1.2209846875000000e+05" nB="3.3561215820312500e+03" nEv="1.2545458593750000e+05" nSuw="1.2300100000000000e+05" nBuw="3.3360000000000000e+03" nEvuw="1.2633700000000000e+05" sepI="2.6036029681563377e-02" sepG="-1.0000000000000000e+00" res="4.3008293956518173e-02" rms="1.6135683655738831e-01" nType="1" CC="0.0000000000000000e+00"/>
        <Node pos="r" depth="1" Seq="1" IVar="5" Cut="1.6970744729042053e-01" cType="0" nS="7.2205239257812500e+03" nB="8.7788828125000000e+03" nEv="1.5999406250000000e+04" nSuw="6.2380000000000000e+03" nBuw="8.7630000000000000e+03" nEvuw="1.5001000000000000e+04" sepI="1.8519620597362518e-01" sepG="2.8856301680207253e-02" res="-5.3589716553688049e-02" rms="4.3034428358078003e-01" nType="0" CC="0.0000000000000000e+00">
          <Node pos="l" depth="2" Seq="1" IVar="-1" Cut="0.0000000000000000e+00" cType="1" nS="5.8795610351562500e+03" nB="2.4320808105468750e+03" nEv="8.3116416015625000e+03" nSuw="5.1930000000000000e+03" nBuw="2.4700000000000000e+03" nEvuw="7.6630000000000000e+03" sepI="1.8667489290237427e-01" sepG="-1.0000000000000000e+00" res="1.4108601026237011e-02" rms="4.3205890059471130e-01" nType="1" CC="0.0000000000000000e+00"/>
          <Node pos="r" depth="2" Seq="3" IVar="-1" Cut="0.0000000000000000e+00" cType="1" nS="1.3409628906250000e+03" nB="6.3468022460937500e+03" nEv="7.6877651367187500e+03" nSuw="1.0450000000000000e+03" nBuw="6.2930000000000000e+03" nEvuw="7.3380000000000000e+03" sepI="1.2354316562414169e-01" sepG="-1.0000000000000000e+00" res="-3.2097175717353821e-02" rms="3.5148707032203674e-01" nType="-1" CC="0.0000000000000000e+00"/>
        </Node>
      </Node>
    </BinaryTree>
    <BinaryTree type="DecisionTree" boostWeight="1.0000000000000000e+00" itree="9">
      <Node pos="s" depth="0" Seq="0" IVar="14" Cut="2.1689155101776123e+00" cType="0" nS="1.2931899218750000e+05" nB="1.2135003906250000e+04" nEv="1.4145400000000000e+05" nSuw="1.2923900000000000e+05" nBuw="1.2099000000000000e+04" nEvuw="1.4133800000000000e+05" sepI="5.3495246917009354e-02" sepG="9.8457913845777512e-03" res="2.2786310315132141e-01" rms="2.3129040002822876e-01" nType="0" CC="0.0000000000000000e+00">
        <Node pos="l" depth="1" Seq="0" IVar="-1" Cut="0.0000000000000000e+00" cType="1" nS="1.2209846875000000e+05" nB="3.3561215820312500e+03" nEv="1.2545458593750000e+05" nSuw="1.2300100000000000e+05" nBuw="3.3360000000000000e+03" nEvuw="1.2633700000000000e+05" sepI="2.6036031544208527e-02" sepG="-1.0000000000000000e+00" res="4.1668500751256943e-02" rms="1.6135685145854950e-01" nType="1" CC="0.0000000000000000e+00"/>
        <Node pos="r" depth="1" Seq="1" IVar="3" Cut="1.1021756567060947e-02" cType="1" nS="7.2205239257812500e+03" nB="8.7788828125000000e+03" nEv="1.5999406250000000e+04" nSuw="6.2380000000000000e+03" nBuw="8.7630000000000000e+03" nEvuw="1.5001000000000000e+04" sepI="1.8175987899303436e-01" sepG="2.6112388819456100e-02" res="-4.9990896135568619e-02" rms="4.2633306980133057e-01" nType="0" CC="0.0000000000000000e+00">
          <Node pos="l" depth="2" Seq="1" IVar="-1" Cut="0.0000000000000000e+00" cType="1" nS="5.3202861328125000e+03" nB="2.6376037597656250e+03" nEv="7.9578896484375000e+03" nSuw="4.7820000000000000e+03" nBuw="2.8980000000000000e+03" nEvuw="7.6800000000000000e+03" sepI="1.7015096545219421e-01" sepG="-1.0000000000000000e+00" res="1.5493444167077541e-02" rms="4.1249358654022217e-01" nType="1" CC="0.0000000000000000e+00"/>
          <Node pos="r" depth="2" Seq="3" IVar="-1" Cut="0.0000000000000000e+00" cType="1" nS="1.9002377929687500e+03" nB="6.1412788085937500e+03" nEv="8.0415166015625000e+03" nSuw="1.4560000000000000e+03" nBuw="5.8650000000000000e+03" nEvuw="7.3210000000000000e+03" sepI="1.4129485189914703e-01" sepG="-1.0000000000000000e+00" res="-2.7792060747742653e-02" rms="3.7589207291603088e-01" nType="-1" CC="0.0000000000000000e+00"/>
        </Node>
      </Node>
    </BinaryTree>
    <BinaryTree type="DecisionTree" boostWeight="1.0000000000000000e+00" itree="10">
      <Node pos="s" depth="0" Seq="0" IVar="14" Cut="-1.8990504741668701e-01" cType="0" nS="1.2931899218750000e+05" nB="1.2135003906250000e+04" nEv="1.4145400000000000e+05" nSuw="1.2923900000000000e+05" nBuw="1.2099000000000000e+04" nEvuw="1.4133800000000000e+05" sepI="5.1946431398391724e-02" sepG="8.7753729894757271e-03" res="2.1323350071907043e-01" rms="2.2791759669780731e-01" nType="0" CC="0.0000000000000000e+00">
        <Node pos="l" depth="1" Seq="0" IVar="-1" Cut="0.0000000000000000e+00" cType="1" nS="1.2723017187500000e+05" nB="5.5873867187500000e+03" nEv="1.3281756250000000e+05" nSuw="1.2745700000000000e+05" nBuw="5.6810000000000000e+03" nEvuw="1.3313800000000000e+05" sepI="3.6410834640264511e-02" sepG="-1.0000000000000000e+00" res="3.8401532918214798e-02" rms="1.9081623852252960e-01" nType="1" CC="0.0000000000000000e+00"/>
        <Node pos="r" depth="1" Seq="1" IVar="10" Cut="-3.3987809438258410e-03" cType="0" nS="2.0888142089843750e+03" nB="6.5476176757812500e+03" nEv="8.6364316406250000e+03" nSuw="1.7820000000000000e+03" nBuw="6.4180000000000000e+03" nEvuw="8.2000000000000000e+03" sepI="1.4713488519191742e-01" sepG="2.0744180306792259e-02" res="-1.5412776172161102e-01" rms="3.8358163833618164e-01" nType="0" CC="0.0000000000000000e+00">
          <Node pos="l" depth="2" Seq="1" IVar="-1" Cut="0.0000000000000000e+00" cType="1" nS="9.7924047851562500e+02" nB="5.5215893554687500e+02" nEv="1.5313994140625000e+03" nSuw="8.3400000000000000e+02" nBuw="6.9700000000000000e+02" nEvuw="1.5310000000000000e+03" sepI="1.8740689754486084e-01" sepG="-1.0000000000000000e+00" res="2.0507929846644402e-02" rms="4.3290519714355469e-01" nType="1" CC="0.0000000000000000e+00"/>
          <Node pos="r" depth="2" Seq="3" IVar="-1" Cut="0.0000000000000000e+00" cType="1" nS="1.1095736083984375e+03" nB="5.9954589843750000e+03" nEv="7.1050327148437500e+03" nSuw="9.4800000000000000e+02" nBuw="5.7210000000000000e+03" nEvuw="6.6690000000000000e+03" sepI="1.1323943734169006e-01" sepG="-1.0000000000000000e+00" res="-3.0941078439354897e-02" rms="3.3651068806648254e-01" nType="-1" CC="0.0000000000000000e+00"/>
        </Node>
      </Node>
    </BinaryTree>
    <BinaryTree type="DecisionTree" boostWeight="1.0000000000000000e+00" itree="11">
      <Node pos="s" depth="0" Seq="0" IVar="14" Cut="2.1889054775238037e+00" cType="0" nS="1.2931899218750000e+05" nB="1.2135003906250000e+04" nEv="1.4145400000000000e+05" nSuw="1.2923900000000000e+05" nBuw="1.2099000000000000e+04" nEvuw="1.4133800000000000e+05" sepI="5.0759434700012207e-02" sepG="7.9419268295168877e-03" res="1.9964711368083954e-01" rms="2.2529855370521545e-01" nType="0" CC="0.0000000000000000e+00">
        <Node pos="l" depth="1" Seq="0" IVar="-1" Cut="0.0000000000000000e+00" cType="1" nS="1.2200924218750000e+05" nB="3.3364238281250000e+03" nEv="1.2534566406250000e+05" nSuw="1.2292700000000000e+05" nBuw="3.3170000000000000e+03" nEvuw="1.2624400000000000e+05" sepI="2.5909278541803360e-02" sepG="-1.0000000000000000e+00" res="3.9411295205354691e-02" rms="1.6096359491348267e-01" nType="1" CC="0.0000000000000000e+00"/>
        <Node pos="r" depth="1" Seq="1" IVar="5" Cut="2.0764385163784027e-01" cType="0" nS="7.3097460937500000e+03" nB="8.7985800781250000e+03" nEv="1.6108327148437500e+04" nSuw="6.3120000000000000e+03" nBuw="8.7820000000000000e+03" nEvuw="1.5094000000000000e+04" sepI="1.7438757419586182e-01" sepG="2.2685633972287178e-02" res="-4.8947893083095551e-02" rms="4.1759738326072693e-01" nType="0" CC="0.0000000000000000e+00">
          <Node pos="l" depth="2" Seq="1" IVar="-1" Cut="0.0000000000000000e+00" cType="1" nS="5.6648398437500000e+03" nB="2.1390378417968750e+03" nEv="7.8038774414062500e+03" nSuw="4.9820000000000000e+03" nBuw="2.1680000000000000e+03" nEvuw="7.1500000000000000e+03" sepI="1.7584130167961121e-01" sepG="-1.0000000000000000e+00" res="1.3887867331504822e-02" rms="4.1933435201644897e-01" nType="1" CC="0.0000000000000000e+00"/>
          <Node pos="r" depth="2" Seq="3" IVar="-1" Cut="0.0000000000000000e+00" cType="1" nS="1.6449064941406250e+03" nB="6.6595424804687500e+03" nEv="8.3044492187500000e+03" nSuw="1.3300000000000000e+03" nBuw="6.6140000000000000e+03" nEvuw="7.9440000000000000e+03" sepI="1.2901763617992401e-01" sepG="-1.0000000000000000e+00" res="-2.8264496475458145e-02" rms="3.5919025540351868e-01" nType="-1" CC="0.0000000000000000e+00"/>
        </Node>
      </Node>
    </BinaryTree>
    <BinaryTree type="DecisionTree" boostWeight="1.0000000000000000e+00" itree="12">
      <Node pos="s" depth="0" Seq="0" IVar="14" Cut="2.4887557029724121e+00" cType="0" nS="1.2931899218750000e+05" nB="1.2135003906250000e+04" nEv="1.4145400000000000e+05" nSuw="1.2923900000000000e+05" nBuw="1.2099000000000000e+04" nEvuw="1.4133800000000000e+05" sepI="4.9460992217063904e-02" sepG="6.9710533134639263e-03" res="1.8690791726112366e-01" rms="2.2239828109741211e-01" nType="0" CC="0.0000000000000000e+00">
        <Node pos="l" depth="1" Seq="0" IVar="-1" Cut="0.0000000000000000e+00" cType="1" nS="1.2051315625000000e+05" nB="3.0561938476562500e+03" nEv="1.2356934375000000e+05" nSuw="1.2166600000000000e+05" nBuw="3.0230000000000000e+03" nEvuw="1.2468900000000000e+05" sepI="2.4120917543768883e-02" sepG="-1.0000000000000000e+00" res="3.8780190050601959e-02" rms="1.5530911087989807e-01" nType="1" CC="0.0000000000000000e+00"/>
        <Node pos="r" depth="1" Seq="1" IVar="3" Cut="1.5334618277847767e-02" cType="1" nS="8.8058359375000000e+03" nB="9.0788105468750000e+03" nEv="1.7884646484375000e+04" nSuw="7.5730000000000000e+03" nBuw="9.0760000000000000e+03" nEvuw="1.6649000000000000e+04" sepI="1.6940595209598541e-01" sepG="2.1389815956354141e-02" res="-3.2556649297475815e-02" rms="4.1158953309059143e-01" nType="0" CC="0.0000000000000000e+00">
          <Node pos="l" depth="2" Seq="1" IVar="-1" Cut="0.0000000000000000e+00" cType="1" nS="7.0715703125000000e+03" nB="3.3450305175781250e+03" nEv="1.0416600585937500e+04" nSuw="6.2760000000000000e+03" nBuw="3.6000000000000000e+03" nEvuw="9.8760000000000000e+03" sepI="1.5628923475742340e-01" sepG="-1.0000000000000000e+00" res="1.3000297360122204e-02" rms="3.9533433318138123e-01" nType="1" CC="0.0000000000000000e+00"/>
          <Node pos="r" depth="2" Seq="3" IVar="-1" Cut="0.0000000000000000e+00" cType="1" nS="1.7342650146484375e+03" nB="5.7337797851562500e+03" nEv="7.4680449218750000e+03" nSuw="1.2970000000000000e+03" nBuw="5.4760000000000000e+03" nEvuw="6.7730000000000000e+03" sepI="1.3647662103176117e-01" sepG="-1.0000000000000000e+00" res="-2.8254972770810127e-02" rms="3.6942741274833679e-01" nType="-1" CC="0.0000000000000000e+00"/>
        </Node>
      </Node>
    </BinaryTree>
    <BinaryTree type="DecisionTree" boostWeight="1.0000000000000000e+00" itree="13">
      <Node pos="s" depth="0" Seq="0" IVar="14" Cut="-1.8990504741668701e-01" cType="0" nS="1.2931899218750000e+05" nB="1.2135003906250000e+04" nEv="1.4145400000000000e+05" nSuw="1.2923900000000000e+05" nBuw="1.2099000000000000e+04" nEvuw="1.4133800000000000e+05" sepI="4.8291645944118500e-02" sepG="6.1982693150639534e-03" res="1.7491325736045837e-01" rms="2.1975360810756683e-01" nType="0" CC="0.0000000000000000e+00">
        <Node pos="l" depth="1" Seq="0" IVar="-1" Cut="0.0000000000000000e+00" cType="1" nS="1.2723017187500000e+05" nB="5.5873867187500000e+03" nEv="1.3281756250000000e+05" nSuw="1.2745700000000000e+05" nBuw="5.6810000000000000e+03" nEvuw="1.3313800000000000e+05" sepI="3.5652767866849899e-02" sepG="-1.0000000000000000e+00" res="3.5221952944993973e-02" rms="1.8881940841674805e-01" nType="1" CC="0.0000000000000000e+00"/>
        <Node pos="r" depth="1" Seq="1" IVar="10" Cut="-4.1865068487823009e-03" cType="0" nS="2.0888142089843750e+03" nB="6.5476176757812500e+03" nEv="8.6364316406250000e+03" nSuw="1.7820000000000000e+03" nBuw="6.4180000000000000e+03" nEvuw="8.2000000000000000e+03" sepI="1.4114195108413696e-01" sepG="1.7576392740011215e-02" res="-1.3382880389690399e-01" rms="3.7568864226341248e-01" nType="0" CC="0.0000000000000000e+00">
          <Node pos="l" depth="2" Seq="1" IVar="-1" Cut="0.0000000000000000e+00" cType="1" nS="1.0658394775390625e+03" nB="6.7892327880859375e+02" nEv="1.7447626953125000e+03" nSuw="9.1200000000000000e+02" nBuw="8.2500000000000000e+02" nEvuw="1.7370000000000000e+03" sepI="1.8317155539989471e-01" sepG="-1.0000000000000000e+00" res="1.7388820648193359e-02" rms="4.2798545956611633e-01" nType="1" CC="0.0000000000000000e+00"/>
          <Node pos="r" depth="2" Seq="3" IVar="-1" Cut="0.0000000000000000e+00" cType="1" nS="1.0229746704101562e+03" nB="5.8686943359375000e+03" nEv="6.8916689453125000e+03" nSuw="8.7000000000000000e+02" nBuw="5.5930000000000000e+03" nEvuw="6.4630000000000000e+03" sepI="1.0847512632608414e-01" sepG="-1.0000000000000000e+00" res="-2.9255475848913193e-02" rms="3.2935562729835510e-01" nType="-1" CC="0.0000000000000000e+00"/>
        </Node>
      </Node>
    </BinaryTree>
    <BinaryTree type="DecisionTree" boostWeight="1.0000000000000000e+00" itree="14">
      <Node pos="s" depth="0" Seq="0" IVar="14" Cut="2.5687155723571777e+00" cType="0" nS="1.2931899218750000e+05" nB="1.2135003906250000e+04" nEv="1.4145400000000000e+05" nSuw="1.2923900000000000e+05" nBuw="1.2099000000000000e+04" nEvuw="1.4133800000000000e+05" sepI="4.7460310161113739e-02" sepG="5.6861061602830887e-03" res="1.6378894448280334e-01" rms="2.1785387396812439e-01" nType="0" CC="0.0000000000000000e+00">
        <Node pos="l" depth="1" Seq="0" IVar="-1" Cut="0.0000000000000000e+00" cType="1" nS="1.2010116406250000e+05" nB="2.9881118164062500e+03" nEv="1.2308927343750000e+05" nSuw="1.2131900000000000e+05" nBuw="2.9510000000000000e+03" nEvuw="1.2427000000000000e+05" sepI="2.3686649277806282e-02" sepG="-1.0000000000000000e+00" res="3.7085268646478653e-02" rms="1.5390467643737793e-01" nType="1" CC="0.0000000000000000e+00"/>
        <Node pos="r" depth="1" Seq="1" IVar="3" Cut="1.5334618277847767e-02" cType="1" nS="9.2178251953125000e+03" nB="9.1468925781250000e+03" nEv="1.8364716796875000e+04" nSuw="7.9200000000000000e+03" nBuw="9.1480000000000000e+03" nEvuw="1.7068000000000000e+04" sepI="1.6300581395626068e-01" sepG="1.8097499385476112e-02" res="-3.1431563198566437e-02" rms="4.0373978018760681e-01" nType="0" CC="0.0000000000000000e+00">
          <Node pos="l" depth="2" Seq="1" IVar="-1" Cut="0.0000000000000000e+00" cType="1" nS="7.4215590820312500e+03" nB="3.3759658203125000e+03" nEv="1.0797524414062500e+04" nSuw="6.5740000000000000e+03" nBuw="3.6390000000000000e+03" nEvuw="1.0213000000000000e+04" sepI="1.5051220357418060e-01" sepG="-1.0000000000000000e+00" res="1.1889089830219746e-02" rms="3.8795903325080872e-01" nType="1" CC="0.0000000000000000e+00"/>
          <Node pos="r" depth="2" Seq="3" IVar="-1" Cut="0.0000000000000000e+00" cType="1" nS="1.7962663574218750e+03" nB="5.7709267578125000e+03" nEv="7.5671928710937500e+03" nSuw="1.3460000000000000e+03" nBuw="5.5090000000000000e+03" nEvuw="6.8550000000000000e+03" sepI="1.3691221177577972e-01" sepG="-1.0000000000000000e+00" res="-2.7128718793392181e-02" rms="3.7001648545265198e-01" nType="-1" CC="0.0000000000000000e+00"/>
        </Node>
      </Node>
    </BinaryTree>
    <BinaryTree type="DecisionTree" boostWeight="1.0000000000000000e+00" itree="15">
      <Node pos="s" depth="0" Seq="0" IVar="14" Cut="2.0289855003356934e+00" cType="0" nS="1.2931899218750000e+05" nB="1.2135003906250000e+04" nEv="1.4145400000000000e+05" nSuw="1.2923900000000000e+05" nBuw="1.2099000000000000e+04" nEvuw="1.4133800000000000e+05" sepI="4.6491667628288269e-02" sepG="4.9982033669948578e-03" res="1.5327887237071991e-01" rms="2.1561926603317261e-01" nType="0" CC="0.0000000000000000e+00">
        <Node pos="l" depth="1" Seq="0" IVar="-1" Cut="0.0000000000000000e+00" cType="1" nS="1.2265025000000000e+05" nB="3.4974731445312500e+03" nEv="1.2614771875000000e+05" nSuw="1.2350300000000000e+05" nBuw="3.4680000000000000e+03" nEvuw="1.2697100000000000e+05" sepI="2.6649624109268188e-02" sepG="-1.0000000000000000e+00" res="3.5459227859973907e-02" rms="1.6324712336063385e-01" nType="1" CC="0.0000000000000000e+00"/>
        <Node pos="r" depth="1" Seq="1" IVar="5" Cut="2.1396659314632416e-01" cType="0" nS="6.6687416992187500e+03" nB="8.6375312500000000e+03" nEv="1.5306272460937500e+04" nSuw="5.7360000000000000e+03" nBuw="8.6310000000000000e+03" nEvuw="1.4367000000000000e+04" sepI="1.6383001208305359e-01" sepG="1.6419114544987679e-02" res="-4.9681819975376129e-02" rms="4.0475919842720032e-01" nType="0" CC="0.0000000000000000e+00">
          <Node pos="l" depth="2" Seq="1" IVar="-1" Cut="0.0000000000000000e+00" cType="1" nS="5.0813901367187500e+03" nB="2.0329664306640625e+03" nEv="7.1143564453125000e+03" nSuw="4.4540000000000000e+03" nBuw="2.0650000000000000e+03" nEvuw="6.5190000000000000e+03" sepI="1.7472788691520691e-01" sepG="-1.0000000000000000e+00" res="1.1722525581717491e-02" rms="4.1800466179847717e-01" nType="1" CC="0.0000000000000000e+00"/>
          <Node pos="r" depth="2" Seq="3" IVar="-1" Cut="0.0000000000000000e+00" cType="1" nS="1.5873515625000000e+03" nB="6.6045649414062500e+03" nEv="8.1919160156250000e+03" nSuw="1.2820000000000000e+03" nBuw="6.5660000000000000e+03" nEvuw="7.8480000000000000e+03" sepI="1.2368716299533844e-01" sepG="-1.0000000000000000e+00" res="-2.5748949497938156e-02" rms="3.5169187188148499e-01" nType="-1" CC="0.0000000000000000e+00"/>
        </Node>
      </Node>
    </BinaryTree>
    <BinaryTree type="DecisionTree" boostWeight="1.0000000000000000e+00" itree="16">
      <Node pos="s" depth="0" Seq="0" IVar="14" Cut="2.5687155723571777e+00" cType="0" nS="1.2931899218750000e+05" nB="1.2135003906250000e+04" nEv="1.4145400000000000e+05" nSuw="1.2923900000000000e+05" nBuw="1.2099000000000000e+04" nEvuw="1.4133800000000000e+05" sepI="4.5669056475162506e-02" sepG="4.4373082928359509e-03" res="1.4352960884571075e-01" rms="2.1370320022106171e-01" nType="0" CC="0.0000000000000000e+00">
        <Node pos="l" depth="1" Seq="0" IVar="-1" Cut="0.0000000000000000e+00" cType="1" nS="1.2010116406250000e+05" nB="2.9881118164062500e+03" nEv="1.2308927343750000e+05" nSuw="1.2131900000000000e+05" nBuw="2.9510000000000000e+03" nEvuw="1.2427000000000000e+05" sepI="2.3686651140451431e-02" sepG="-1.0000000000000000e+00" res="3.5443779081106186e-02" rms="1.5390467643737793e-01" nType="1" CC="0.0000000000000000e+00"/>
        <Node pos="r" depth="1" Seq="1" IVar="3" Cut="1.0662351734936237e-02" cType="1" nS="9.2178251953125000e+03" nB="9.1468925781250000e+03" nEv="1.8364716796875000e+04" nSuw="7.9200000000000000e+03" nBuw="9.1480000000000000e+03" nEvuw="1.7068000000000000e+04" sepI="1.5882752835750580e-01" sepG="1.5286672860383987e-02" res="-2.8926186263561249e-02" rms="3.9853170514106750e-01" nType="0" CC="0.0000000000000000e+00">
          <Node pos="l" depth="2" Seq="1" IVar="-1" Cut="0.0000000000000000e+00" cType="1" nS="6.8114682617187500e+03" nB="2.7345876464843750e+03" nEv="9.5460556640625000e+03" nSuw="6.0780000000000000e+03" nBuw="3.0170000000000000e+03" nEvuw="9.0950000000000000e+03" sepI="1.4528198540210724e-01" sepG="-1.0000000000000000e+00" res="1.3561232015490532e-02" rms="3.8115873932838440e-01" nType="1" CC="0.0000000000000000e+00"/>
          <Node pos="r" depth="2" Seq="3" IVar="-1" Cut="0.0000000000000000e+00" cType="1" nS="2.4063566894531250e+03" nB="6.4123046875000000e+03" nEv="8.8186611328125000e+03" nSuw="1.8420000000000000e+03" nBuw="6.1310000000000000e+03" nEvuw="7.9730000000000000e+03" sepI="1.4165611565113068e-01" sepG="-1.0000000000000000e+00" res="-2.2592488676309586e-02" rms="3.7637230753898621e-01" nType="-1" CC="0.0000000000000000e+00"/>
        </Node>
      </Node>
    </BinaryTree>
    <BinaryTree type="DecisionTree" boostWeight="1.0000000000000000e+00" itree="17">
      <Node pos="s" depth="0" Seq="0" IVar="14" Cut="-5.8970516920089722e-01" cType="0" nS="1.2931899218750000e+05" nB="1.2135003906250000e+04" nEv="1.4145400000000000e+05" nSuw="1.2923900000000000e+05" nBuw="1.2099000000000000e+04" nEvuw="1.4133800000000000e+05" sepI="4.4898793101310730e-02" sepG="4.0056412108242512e-03" res="1.3431754708290100e-01" rms="2.1189334988594055e-01" nType="0" CC="0.0000000000000000e+00">
        <Node pos="l" depth="1" Seq="0" IVar="-1" Cut="0.0000000000000000e+00" cType="1" nS="1.2758260156250000e+05" nB="5.9854599609375000e+03" nEv="1.3356806250000000e+05" nSuw="1.2776000000000000e+05" nBuw="6.1200000000000000e+03" nEvuw="1.3388000000000000e+05" sepI="3.5869490355253220e-02" sepG="-1.0000000000000000e+00" res="3.1518921256065369e-02" rms="1.8939243257045746e-01" nType="1" CC="0.0000000000000000e+00"/>
        <Node pos="r" depth="1" Seq="1" IVar="10" Cut="-5.6142602115869522e-03" cType="0" nS="1.7363891601562500e+03" nB="6.1495444335937500e+03" nEv="7.8859335937500000e+03" nSuw="1.4790000000000000e+03" nBuw="5.9790000000000000e+03" nEvuw="7.4580000000000000e+03" sepI="1.2598142027854919e-01" sepG="1.4336167834699154e-02" res="-1.2615428864955902e-01" rms="3.5493862628936768e-01" nType="0" CC="0.0000000000000000e+00">
          <Node pos="l" depth="2" Seq="1" IVar="-1" Cut="0.0000000000000000e+00" cType="1" nS="9.7347741699218750e+02" nB="7.9916052246093750e+02" nEv="1.7726379394531250e+03" nSuw="8.4200000000000000e+02" nBuw="8.8200000000000000e+02" nEvuw="1.7240000000000000e+03" sepI="1.7460638284683228e-01" sepG="-1.0000000000000000e+00" res="1.3133284635841846e-02" rms="4.1785928606987000e-01" nType="1" CC="0.0000000000000000e+00"/>
          <Node pos="r" depth="2" Seq="3" IVar="-1" Cut="0.0000000000000000e+00" cType="1" nS="7.6291168212890625e+02" nB="5.3503837890625000e+03" nEv="6.1132954101562500e+03" nSuw="6.3700000000000000e+02" nBuw="5.0970000000000000e+03" nEvuw="5.7340000000000000e+03" sepI="9.3388766050338745e-02" sepG="-1.0000000000000000e+00" res="-2.9834140092134476e-02" rms="3.0559575557708740e-01" nType="-1" CC="0.0000000000000000e+00"/>
        </Node>
      </Node>
    </BinaryTree>
    <BinaryTree type="DecisionTree" boostWeight="1.0000000000000000e+00" itree="18">
      <Node pos="s" depth="0" Seq="0" IVar="14" Cut="2.8685657978057861e+00" cType="0" nS="1.2931899218750000e+05" nB="1.2135003906250000e+04" nEv="1.4145400000000000e+05" nSuw="1.2923900000000000e+05" nBuw="1.2099000000000000e+04" nEvuw="1.4133800000000000e+05" sepI="4.4379115104675293e-02" sepG="3.7127274554222822e-03" res="1.2579484283924103e-01" rms="2.1066351234912872e-01" nType="0" CC="0.0000000000000000e+00">
        <Node pos="l" depth="1" Seq="0" IVar="-1" Cut="0.0000000000000000e+00" cType="1" nS="1.1829725781250000e+05" nB="2.7437670898437500e+03" nEv="1.2104102343750000e+05" nSuw="1.1974300000000000e+05" nBuw="2.6920000000000000e+03" nEvuw="1.2243500000000000e+05" sepI="2.2154232487082481e-02" sepG="-1.0000000000000000e+00" res="3.4461520612239838e-02" rms="1.4884297549724579e-01" nType="1" CC="0.0000000000000000e+00"/>
        <Node pos="r" depth="1" Seq="1" IVar="5" Cut="1.9557000696659088e-01" cType="0" nS="1.1021730468750000e+04" nB="9.3912373046875000e+03" nEv="2.0412966796875000e+04" nSuw="9.4960000000000000e+03" nBuw="9.4070000000000000e+03" nEvuw="1.8903000000000000e+04" sepI="1.5043631196022034e-01" sepG="1.3462058268487453e-02" res="-2.2579833865165710e-02" rms="3.8786119222640991e-01" nType="0" CC="0.0000000000000000e+00">
          <Node pos="l" depth="2" Seq="1" IVar="-1" Cut="0.0000000000000000e+00" cType="1" nS="8.8757919921875000e+03" nB="2.5474089355468750e+03" nEv="1.1423200195312500e+04" nSuw="7.7410000000000000e+03" nBuw="2.5700000000000000e+03" nEvuw="1.0311000000000000e+04" sepI="1.4285935461521149e-01" sepG="-1.0000000000000000e+00" res="1.1998584493994713e-02" rms="3.7796741724014282e-01" nType="1" CC="0.0000000000000000e+00"/>
          <Node pos="r" depth="2" Seq="3" IVar="-1" Cut="0.0000000000000000e+00" cType="1" nS="2.1459387207031250e+03" nB="6.8438281250000000e+03" nEv="8.9897666015625000e+03" nSuw="1.7550000000000000e+03" nBuw="6.8370000000000000e+03" nEvuw="8.5920000000000000e+03" sepI="1.2949611246585846e-01" sepG="-1.0000000000000000e+00" res="-2.4821942672133446e-02" rms="3.5985568165779114e-01" nType="-1" CC="0.0000000000000000e+00"/>
        </Node>
      </Node>
    </BinaryTree>
    <BinaryTree type="DecisionTree" boostWeight="1.0000000000000000e+00" itree="19">
      <Node pos="s" depth="0" Seq="0" IVar="14" Cut="2.8685657978057861e+00" cType="0" nS="1.2931899218750000e+05" nB="1.2135003906250000e+04" nEv="1.4145400000000000e+05" nSuw="1.2923900000000000e+05" nBuw="1.2099000000000000e+04" nEvuw="1.4133800000000000e+05" sepI="4.3684821575880051e-02" sepG="3.2429711427539587e-03" res="1.1776984483003616e-01" rms="2.0900914072990417e-01" nType="0" CC="0.0000000000000000e+00">
        <Node pos="l" depth="1" Seq="0" IVar="-1" Cut="0.0000000000000000e+00" cType="1" nS="1.1829725781250000e+05" nB="2.7437670898437500e+03" nEv="1.2104102343750000e+05" nSuw="1.1974300000000000e+05" nBuw="2.6920000000000000e+03" nEvuw="1.2243500000000000e+05" sepI="2.2154236212372780e-02" sepG="-1.0000000000000000e+00" res="3.3761400729417801e-02" rms="1.4884299039840698e-01" nType="1" CC="0.0000000000000000e+00"/>
        <Node pos="r" depth="1" Seq="1" IVar="3" Cut="2.4020241573452950e-02" cType="1" nS="1.1021730468750000e+04" nB="9.3912373046875000e+03" nEv="2.0412966796875000e+04" nSuw="9.4960000000000000e+03" nBuw="9.4070000000000000e+03" nEvuw="1.8903000000000000e+04" sepI="1.4888034760951996e-01" sepG="1.2733660638332367e-02" res="-2.0900873467326164e-02" rms="3.8585016131401062e-01" nType="0" CC="0.0000000000000000e+00">
          <Node pos="l" depth="2" Seq="1" IVar="-1" Cut="0.0000000000000000e+00" cType="1" nS="9.6291835937500000e+03" nB="4.3733940429687500e+03" nEv="1.4002578125000000e+04" nSuw="8.4710000000000000e+03" nBuw="4.7050000000000000e+03" nEvuw="1.3176000000000000e+04" sepI="1.3835476338863373e-01" sepG="-1.0000000000000000e+00" res="8.7905963882803917e-03" rms="3.7196069955825806e-01" nType="1" CC="0.0000000000000000e+00"/>
          <Node pos="r" depth="2" Seq="3" IVar="-1" Cut="0.0000000000000000e+00" cType="1" nS="1.3925467529296875e+03" nB="5.0178427734375000e+03" nEv="6.4103896484375000e+03" nSuw="1.0250000000000000e+03" nBuw="4.7020000000000000e+03" nEvuw="5.7270000000000000e+03" sepI="1.3132348656654358e-01" sepG="-1.0000000000000000e+00" res="-2.8342362493276596e-02" rms="3.6238580942153931e-01" nType="-1" CC="0.0000000000000000e+00"/>
        </Node>
      </Node>
    </BinaryTree>
    <BinaryTree type="DecisionTree" boostWeight="1.0000000000000000e+00" itree="20">
      <Node pos="s" depth="0" Seq="0" IVar="14" Cut="-5.8970516920089722e-01" cType="0" nS="1.2931899218750000e+05" nB="1.2135003906250000e+04" nEv="1.4145400000000000e+05" nSuw="1.2923900000000000e+05" nBuw="1.2099000000000000e+04" nEvuw="1.4133800000000000e+05" sepI="4.3075148016214371e-02" sepG="2.8642502147704363e-03" res="1.1019902676343918e-01" rms="2.0754553377628326e-01" nType="0" CC="0.0000000000000000e+00">
        <Node pos="l" depth="1" Seq="0" IVar="-1" Cut="0.0000000000000000e+00" cType="1" nS="1.2758260156250000e+05" nB="5.9854599609375000e+03" nEv="1.3356806250000000e+05" nSuw="1.2776000000000000e+05" nBuw="6.1200000000000000e+03" nEvuw="1.3388000000000000e+05" sepI="3.5366229712963104e-02" sepG="-1.0000000000000000e+00" res="2.9210871085524559e-02" rms="1.8805912137031555e-01" nType="1" CC="0.0000000000000000e+00"/>
        <Node pos="r" depth="1" Seq="1" IVar="10" Cut="-3.3003152348101139e-03" cType="0" nS="1.7363891601562500e+03" nB="6.1495444335937500e+03" nEv="7.8859335937500000e+03" nSuw="1.4790000000000000e+03" nBuw="5.9790000000000000e+03" nEvuw="7.4580000000000000e+03" sepI="1.2226749956607819e-01" sepG="1.2405268847942352e-02" res="-1.1005823314189911e-01" rms="3.4966769814491272e-01" nType="0" CC="0.0000000000000000e+00">
          <Node pos="l" depth="2" Seq="1" IVar="-1" Cut="0.0000000000000000e+00" cType="1" nS="7.8944982910156250e+02" nB="4.3390576171875000e+02" nEv="1.2233555908203125e+03" nSuw="6.8200000000000000e+02" nBuw="5.3700000000000000e+02" nEvuw="1.2190000000000000e+03" sepI="1.6622811555862427e-01" sepG="-1.0000000000000000e+00" res="2.0410072058439255e-02" rms="4.0771082043647766e-01" nType="1" CC="0.0000000000000000e+00"/>
          <Node pos="r" depth="2" Seq="3" IVar="-1" Cut="0.0000000000000000e+00" cType="1" nS="9.4693927001953125e+02" nB="5.7156386718750000e+03" nEv="6.6625781250000000e+03" nSuw="7.9700000000000000e+02" nBuw="5.4420000000000000e+03" nEvuw="6.2390000000000000e+03" sepI="9.9512554705142975e-02" sepG="-1.0000000000000000e+00" res="-2.5674100965261459e-02" rms="3.1545609235763550e-01" nType="-1" CC="0.0000000000000000e+00"/>
        </Node>
      </Node>
    </BinaryTree>
    <BinaryTree type="DecisionTree" boostWeight="1.0000000000000000e+00" itree="21">
      <Node pos="s" depth="0" Seq="0" IVar="14" Cut="3.1084458827972412e+00" cType="0" nS="1.2931899218750000e+05" nB="1.2135003906250000e+04" nEv="1.4145400000000000e+05" nSuw="1.2923900000000000e+05" nBuw="1.2099000000000000e+04" nEvuw="1.4133800000000000e+05" sepI="4.2716924101114273e-02" sepG="2.7324692346155643e-03" res="1.0321301966905594e-01" rms="2.0668072998523712e-01" nType="0" CC="0.0000000000000000e+00">
        <Node pos="l" depth="1" Seq="0" IVar="-1" Cut="0.0000000000000000e+00" cType="1" nS="1.1660428125000000e+05" nB="2.5586215820312500e+03" nEv="1.1916290625000000e+05" nSuw="1.1822500000000000e+05" nBuw="2.5050000000000000e+03" nEvuw="1.2073000000000000e+05" sepI="2.1010596305131912e-02" sepG="-1.0000000000000000e+00" res="3.2874982804059982e-02" rms="1.4495031535625458e-01" nType="1" CC="0.0000000000000000e+00"/>
        <Node pos="r" depth="1" Seq="1" IVar="3" Cut="2.3960340768098831e-02" cType="1" nS="1.2714704101562500e+04" nB="9.5763828125000000e+03" nEv="2.2291085937500000e+04" nSuw="1.1014000000000000e+04" nBuw="9.5940000000000000e+03" nEvuw="2.0608000000000000e+04" sepI="1.4141424000263214e-01" sepG="1.0897121392190456e-02" res="-1.7646972090005875e-02" rms="3.7605085968971252e-01" nType="0" CC="0.0000000000000000e+00">
          <Node pos="l" depth="2" Seq="1" IVar="-1" Cut="0.0000000000000000e+00" cType="1" nS="1.1133930664062500e+04" nB="4.4677182617187500e+03" nEv="1.5601649414062500e+04" nSuw="9.8460000000000000e+03" nBuw="4.8030000000000000e+03" nEvuw="1.4649000000000000e+04" sepI="1.2860597670078278e-01" sepG="-1.0000000000000000e+00" res="8.5301166400313377e-03" rms="3.5861676931381226e-01" nType="1" CC="0.0000000000000000e+00"/>
          <Node pos="r" depth="2" Seq="3" IVar="-1" Cut="0.0000000000000000e+00" cType="1" nS="1.5807733154296875e+03" nB="5.1086645507812500e+03" nEv="6.6894379882812500e+03" nSuw="1.1680000000000000e+03" nBuw="4.7910000000000000e+03" nEvuw="5.9590000000000000e+03" sepI="1.3497443497180939e-01" sepG="-1.0000000000000000e+00" res="-2.7827002108097076e-02" rms="3.6738866567611694e-01" nType="-1" CC="0.0000000000000000e+00"/>
        </Node>
      </Node>
    </BinaryTree>
    <BinaryTree type="DecisionTree" boostWeight="1.0000000000000000e+00" itree="22">
      <Node pos="s" depth="0" Seq="0" IVar="14" Cut="3.5482258796691895e+00" cType="0" nS="1.2931899218750000e+05" nB="1.2135003906250000e+04" nEv="1.4145400000000000e+05" nSuw="1.2923900000000000e+05" nBuw="1.2099000000000000e+04" nEvuw="1.4133800000000000e+05" sepI="4.2183410376310349e-02" sepG="2.4243132211267948e-03" res="9.6568085253238678e-02" rms="2.0538599789142609e-01" nType="0" CC="0.0000000000000000e+00">
        <Node pos="l" depth="1" Seq="0" IVar="-1" Cut="0.0000000000000000e+00" cType="1" nS="1.1277645312500000e+05" nB="2.1867995605468750e+03" nEv="1.1496325781250000e+05" nSuw="1.1480600000000000e+05" nBuw="2.1150000000000000e+03" nEvuw="1.1692100000000000e+05" sepI="1.8659900873899460e-02" sepG="-1.0000000000000000e+00" res="3.3056829124689102e-02" rms="1.3660125434398651e-01" nType="1" CC="0.0000000000000000e+00"/>
        <Node pos="r" depth="1" Seq="1" IVar="5" Cut="2.2086216509342194e-01" cType="0" nS="1.6542535156250000e+04" nB="9.9482050781250000e+03" nEv="2.6490738281250000e+04" nSuw="1.4433000000000000e+04" nBuw="9.9840000000000000e+03" nEvuw="2.4417000000000000e+04" sepI="1.3132439553737640e-01" sepG="9.8912697285413742e-03" res="-6.0034454800188541e-03" rms="3.6238706111907959e-01" nType="0" CC="0.0000000000000000e+00">
          <Node pos="l" depth="2" Seq="1" IVar="-1" Cut="0.0000000000000000e+00" cType="1" nS="1.3070867187500000e+04" nB="2.6157780761718750e+03" nEv="1.5686645507812500e+04" nSuw="1.1486000000000000e+04" nBuw="2.6480000000000000e+03" nEvuw="1.4134000000000000e+04" sepI="1.1081532388925552e-01" sepG="-1.0000000000000000e+00" res="1.3320415280759335e-02" rms="3.3288934826850891e-01" nType="1" CC="0.0000000000000000e+00"/>
          <Node pos="r" depth="2" Seq="3" IVar="-1" Cut="0.0000000000000000e+00" cType="1" nS="3.4716667480468750e+03" nB="7.3324267578125000e+03" nEv="1.0804092773437500e+04" nSuw="2.9470000000000000e+03" nBuw="7.3360000000000000e+03" nEvuw="1.0283000000000000e+04" sepI="1.3684928417205811e-01" sepG="-1.0000000000000000e+00" res="-2.2117771208286285e-02" rms="3.6993145942687988e-01" nType="-1" CC="0.0000000000000000e+00"/>
        </Node>
      </Node>
    </BinaryTree>
    <BinaryTree type="DecisionTree" boostWeight="1.0000000000000000e+00" itree="23">
      <Node pos="s" depth="0" Seq="0" IVar="14" Cut="3.5482258796691895e+00" cType="0" nS="1.2931899218750000e+05" nB="1.2135003906250000e+04" nEv="1.4145400000000000e+05" nSuw="1.2923900000000000e+05" nBuw="1.2099000000000000e+04" nEvuw="1.4133800000000000e+05" sepI="4.1659425944089890e-02" sepG="2.1136938594281673e-03" res="9.0398296713829041e-02" rms="2.0410640537738800e-01" nType="0" CC="0.0000000000000000e+00">
        <Node pos="l" depth="1" Seq="0" IVar="-1" Cut="0.0000000000000000e+00" cType="1" nS="1.1277645312500000e+05" nB="2.1867995605468750e+03" nEv="1.1496325781250000e+05" nSuw="1.1480600000000000e+05" nBuw="2.1150000000000000e+03" nEvuw="1.1692100000000000e+05" sepI="1.8659899011254311e-02" sepG="-1.0000000000000000e+00" res="3.2457374036312103e-02" rms="1.3660123944282532e-01" nType="1" CC="0.0000000000000000e+00"/>
        <Node pos="r" depth="1" Seq="1" IVar="3" Cut="2.3061826825141907e-02" cType="1" nS="1.6542535156250000e+04" nB="9.9482050781250000e+03" nEv="2.6490738281250000e+04" nSuw="1.4433000000000000e+04" nBuw="9.9840000000000000e+03" nEvuw="2.4417000000000000e+04" sepI="1.3018508255481720e-01" sepG="9.1479476541280746e-03" res="-5.3770048543810844e-03" rms="3.6081171035766602e-01" nType="0" CC="0.0000000000000000e+00">
          <Node pos="l" depth="2" Seq="1" IVar="-1" Cut="0.0000000000000000e+00" cType="1" nS="1.4481030273437500e+04" nB="4.6066586914062500e+03" nEv="1.9087689453125000e+04" nSuw="1.2893000000000000e+04" nBuw="4.9650000000000000e+03" nEvuw="1.7858000000000000e+04" sepI="1.1354658752679825e-01" sepG="-1.0000000000000000e+00" res="9.8548689857125282e-03" rms="3.3696675300598145e-01" nType="1" CC="0.0000000000000000e+00"/>
          <Node pos="r" depth="2" Seq="3" IVar="-1" Cut="0.0000000000000000e+00" cType="1" nS="2.0615041503906250e+03" nB="5.3415458984375000e+03" nEv="7.4030502929687500e+03" nSuw="1.5400000000000000e+03" nBuw="5.0190000000000000e+03" nEvuw="6.5590000000000000e+03" sepI="1.4035044610500336e-01" sepG="-1.0000000000000000e+00" res="-2.6031404733657837e-02" rms="3.7463372945785522e-01" nType="-1" CC="0.0000000000000000e+00"/>
        </Node>
      </Node>
    </BinaryTree>
    <BinaryTree type="DecisionTree" boostWeight="1.0000000000000000e+00" itree="24">
      <Node pos="s" depth="0" Seq="0" IVar="3" Cut="4.0912281721830368e-02" cType="1" nS="1.2931899218750000e+05" nB="1.2135003906250000e+04" nEv="1.4145400000000000e+05" nSuw="1.2923900000000000e+05" nBuw="1.2099000000000000e+04" nEvuw="1.4133800000000000e+05" sepI="4.1202638298273087e-02" sepG="1.9280535634607077e-03" res="8.4558010101318359e-02" rms="2.0298433303833008e-01" nType="0" CC="0.0000000000000000e+00">
        <Node pos="l" depth="1" Seq="0" IVar="-1" Cut="0.0000000000000000e+00" cType="1" nS="1.2426786718750000e+05" nB="8.0879150390625000e+03" nEv="1.3235578125000000e+05" nSuw="1.2521600000000000e+05" nBuw="8.3800000000000000e+03" nEvuw="1.3359600000000000e+05" sepI="3.3627830445766449e-02" sepG="-1.0000000000000000e+00" res="2.6343049481511116e-02" rms="1.8337891995906830e-01" nType="1" CC="0.0000000000000000e+00"/>
        <Node pos="r" depth="1" Seq="1" IVar="14" Cut="4.6076960563659668e+00" cType="0" nS="5.0511254882812500e+03" nB="4.0470891113281250e+03" nEv="9.0982148437500000e+03" nSuw="4.0230000000000000e+03" nBuw="3.7190000000000000e+03" nEvuw="7.7420000000000000e+03" sepI="1.2142043560743332e-01" sepG="1.4643965288996696e-02" res="-8.2918114960193634e-02" rms="3.4845435619354248e-01" nType="0" CC="0.0000000000000000e+00">
          <Node pos="l" depth="2" Seq="1" IVar="-1" Cut="0.0000000000000000e+00" cType="1" nS="3.5701325683593750e+03" nB="2.4757861328125000e+02" nEv="3.8177111816406250e+03" nSuw="2.9250000000000000e+03" nBuw="2.1700000000000000e+02" nEvuw="3.1420000000000000e+03" sepI="6.0644488781690598e-02" sepG="-1.0000000000000000e+00" res="1.4766493812203407e-02" rms="2.4626101553440094e-01" nType="1" CC="0.0000000000000000e+00"/>
          <Node pos="r" depth="2" Seq="3" IVar="-1" Cut="0.0000000000000000e+00" cType="1" nS="1.4809929199218750e+03" nB="3.7995104980468750e+03" nEv="5.2805034179687500e+03" nSuw="1.0980000000000000e+03" nBuw="3.5020000000000000e+03" nEvuw="4.6000000000000000e+03" sepI="1.4012908935546875e-01" sepG="-1.0000000000000000e+00" res="-3.1982179731130600e-02" rms="3.7433820962905884e-01" nType="-1" CC="0.0000000000000000e+00"/>
        </Node>
      </Node>
    </BinaryTree>
    <BinaryTree type="DecisionTree" boostWeight="1.0000000000000000e+00" itree="25">
      <Node pos="s" depth="0" Seq="0" IVar="14" Cut="1.5692154169082642e+00" cType="0" nS="1.2931899218750000e+05" nB="1.2135003906250000e+04" nEv="1.4145400000000000e+05" nSuw="1.2923900000000000e+05" nBuw="1.2099000000000000e+04" nEvuw="1.4133800000000000e+05" sepI="4.0947251021862030e-02" sepG="1.8914957763627172e-03" res="7.9111941158771515e-02" rms="2.0235426723957062e-01" nType="0" CC="0.0000000000000000e+00">
        <Node pos="l" depth="1" Seq="0" IVar="-1" Cut="0.0000000000000000e+00" cType="1" nS="1.2420461718750000e+05" nB="3.9231599121093750e+03" nEv="1.2812778125000000e+05" nSuw="1.2485400000000000e+05" nBuw="3.9260000000000000e+03" nEvuw="1.2878000000000000e+05" sepI="2.7891894802451134e-02" sepG="-1.0000000000000000e+00" res="2.7926908805966377e-02" rms="1.6700866818428040e-01" nType="1" CC="0.0000000000000000e+00"/>
        <Node pos="r" depth="1" Seq="1" IVar="10" Cut="-7.7805067412555218e-03" cType="0" nS="5.1143706054687500e+03" nB="8.2118447265625000e+03" nEv="1.3326214843750000e+04" nSuw="4.3850000000000000e+03" nBuw="8.1730000000000000e+03" nEvuw="1.2558000000000000e+04" sepI="1.4639310538768768e-01" sepG="1.0083579458296299e-02" res="-5.5744256824254990e-02" rms="3.8261350989341736e-01" nType="0" CC="0.0000000000000000e+00">
          <Node pos="l" depth="2" Seq="1" IVar="-1" Cut="0.0000000000000000e+00" cType="1" nS="3.7145908203125000e+03" nB="2.5505134277343750e+03" nEv="6.2651044921875000e+03" nSuw="3.1480000000000000e+03" nBuw="2.7850000000000000e+03" nEvuw="5.9330000000000000e+03" sepI="1.5635684132575989e-01" sepG="-1.0000000000000000e+00" res="7.4704810976982117e-03" rms="3.9541980624198914e-01" nType="1" CC="0.0000000000000000e+00"/>
          <Node pos="r" depth="2" Seq="3" IVar="-1" Cut="0.0000000000000000e+00" cType="1" nS="1.3997797851562500e+03" nB="5.6613310546875000e+03" nEv="7.0611108398437500e+03" nSuw="1.2370000000000000e+03" nBuw="5.3880000000000000e+03" nEvuw="6.6250000000000000e+03" sepI="1.1852215975522995e-01" sepG="-1.0000000000000000e+00" res="-2.5197390466928482e-02" rms="3.4427046775817871e-01" nType="-1" CC="0.0000000000000000e+00"/>
        </Node>
      </Node>
    </BinaryTree>
    <BinaryTree type="DecisionTree" boostWeight="1.0000000000000000e+00" itree="26">
      <Node pos="s" depth="0" Seq="0" IVar="14" Cut="3.5482258796691895e+00" cType="0" nS="1.2931899218750000e+05" nB="1.2135003906250000e+04" nEv="1.4145400000000000e+05" nSuw="1.2923900000000000e+05" nBuw="1.2099000000000000e+04" nEvuw="1.4133800000000000e+05" sepI="4.0633324533700943e-02" sepG="1.7277054721489549e-03" res="7.4102982878684998e-02" rms="2.0157709717750549e-01" nType="0" CC="0.0000000000000000e+00">
        <Node pos="l" depth="1" Seq="0" IVar="-1" Cut="0.0000000000000000e+00" cType="1" nS="1.1277645312500000e+05" nB="2.1867995605468750e+03" nEv="1.1496325781250000e+05" nSuw="1.1480600000000000e+05" nBuw="2.1150000000000000e+03" nEvuw="1.1692100000000000e+05" sepI="1.8613863736391068e-02" sepG="-1.0000000000000000e+00" res="3.0899358913302422e-02" rms="1.3643263280391693e-01" nType="1" CC="0.0000000000000000e+00"/>
        <Node pos="r" depth="1" Seq="1" IVar="5" Cut="2.2718520462512970e-01" cType="0" nS="1.6542535156250000e+04" nB="9.9482050781250000e+03" nEv="2.6490738281250000e+04" nSuw="1.4433000000000000e+04" nBuw="9.9840000000000000e+03" nEvuw="2.4417000000000000e+04" sepI="1.2696681916713715e-01" sepG="7.7146119438111782e-03" res="-1.2486935593187809e-02" rms="3.5632401704788208e-01" nType="0" CC="0.0000000000000000e+00">
          <Node pos="l" depth="2" Seq="1" IVar="-1" Cut="0.0000000000000000e+00" cType="1" nS="1.2970291015625000e+04" nB="2.5797292480468750e+03" nEv="1.5550020507812500e+04" nSuw="1.1387000000000000e+04" nBuw="2.6100000000000000e+03" nEvuw="1.3997000000000000e+04" sepI="1.0834359377622604e-01" sepG="-1.0000000000000000e+00" res="1.1293809860944748e-02" rms="3.2915589213371277e-01" nType="1" CC="0.0000000000000000e+00"/>
          <Node pos="r" depth="2" Seq="3" IVar="-1" Cut="0.0000000000000000e+00" cType="1" nS="3.5722434082031250e+03" nB="7.3684755859375000e+03" nEv="1.0940718750000000e+04" nSuw="3.0460000000000000e+03" nBuw="7.3740000000000000e+03" nEvuw="1.0420000000000000e+04" sepI="1.3475657999515533e-01" sepG="-1.0000000000000000e+00" res="-2.1463166922330856e-02" rms="3.6709207296371460e-01" nType="-1" CC="0.0000000000000000e+00"/>
        </Node>
      </Node>
    </BinaryTree>
    <BinaryTree type="DecisionTree" boostWeight="1.0000000000000000e+00" itree="27">
      <Node pos="s" depth="0" Seq="0" IVar="3" Cut="3.3125169575214386e-02" cType="1" nS="1.2931899218750000e+05" nB="1.2135003906250000e+04" nEv="1.4145400000000000e+05" nSuw="1.2923900000000000e+05" nBuw="1.2099000000000000e+04" nEvuw="1.4133800000000000e+05" sepI="4.0245581418275833e-02" sepG="1.5936287818476558e-03" res="6.9372124969959259e-02" rms="2.0061302185058594e-01" nType="0" CC="0.0000000000000000e+00">
        <Node pos="l" depth="1" Seq="0" IVar="-1" Cut="0.0000000000000000e+00" cType="1" nS="1.2194219531250000e+05" nB="7.2862861328125000e+03" nEv="1.2922848437500000e+05" nSuw="1.2324600000000000e+05" nBuw="7.5960000000000000e+03" nEvuw="1.3084200000000000e+05" sepI="3.1702902168035507e-02" sepG="-1.0000000000000000e+00" res="2.5125954300165176e-02" rms="1.7805309593677521e-01" nType="1" CC="0.0000000000000000e+00"/>
        <Node pos="r" depth="1" Seq="1" IVar="14" Cut="4.6076960563659668e+00" cType="0" nS="7.3767939453125000e+03" nB="4.8487177734375000e+03" nEv="1.2225511718750000e+04" nSuw="5.9930000000000000e+03" nBuw="4.5030000000000000e+03" nEvuw="1.0496000000000000e+04" sepI="1.1210615187883377e-01" sepG="1.0766725987195969e-02" res="-6.0417260974645615e-02" rms="3.3482256531715393e-01" nType="0" CC="0.0000000000000000e+00">
          <Node pos="l" depth="2" Seq="1" IVar="-1" Cut="0.0000000000000000e+00" cType="1" nS="5.2590366210937500e+03" nB="3.0808340454101562e+02" nEv="5.5671201171875000e+03" nSuw="4.4060000000000000e+03" nBuw="2.6800000000000000e+02" nEvuw="4.6740000000000000e+03" sepI="5.2249304950237274e-02" sepG="-1.0000000000000000e+00" res="1.5113551169633865e-02" rms="2.2858107089996338e-01" nType="1" CC="0.0000000000000000e+00"/>
          <Node pos="r" depth="2" Seq="3" IVar="-1" Cut="0.0000000000000000e+00" cType="1" nS="2.1177575683593750e+03" nB="4.5406347656250000e+03" nEv="6.6583920898437500e+03" nSuw="1.5870000000000000e+03" nBuw="4.2350000000000000e+03" nEvuw="5.8220000000000000e+03" sepI="1.4238396286964417e-01" sepG="-1.0000000000000000e+00" res="-2.8145367279648781e-02" rms="3.7733799219131470e-01" nType="-1" CC="0.0000000000000000e+00"/>
        </Node>
      </Node>
    </BinaryTree>
    <BinaryTree type="DecisionTree" boostWeight="1.0000000000000000e+00" itree="28">
      <Node pos="s" depth="0" Seq="0" IVar="14" Cut="2.8685657978057861e+00" cType="0" nS="1.2931899218750000e+05" nB="1.2135003906250000e+04" nEv="1.4145400000000000e+05" nSuw="1.2923900000000000e+05" nBuw="1.2099000000000000e+04" nEvuw="1.4133800000000000e+05" sepI="4.0016762912273407e-02" sepG="1.5103102196007967e-03" res="6.4890891313552856e-02" rms="2.0004190504550934e-01" nType="0" CC="0.0000000000000000e+00">
        <Node pos="l" depth="1" Seq="0" IVar="-1" Cut="0.0000000000000000e+00" cType="1" nS="1.1829725781250000e+05" nB="2.7437670898437500e+03" nEv="1.2104102343750000e+05" nSuw="1.1974300000000000e+05" nBuw="2.6920000000000000e+03" nEvuw="1.2243500000000000e+05" sepI="2.1811751648783684e-02" sepG="-1.0000000000000000e+00" res="2.8505593538284302e-02" rms="1.4768801629543304e-01" nType="1" CC="0.0000000000000000e+00"/>
        <Node pos="r" depth="1" Seq="1" IVar="10" Cut="-7.6820407994091511e-03" cType="0" nS="1.1021730468750000e+04" nB="9.3912373046875000e+03" nEv="2.0412966796875000e+04" nSuw="9.4960000000000000e+03" nBuw="9.4070000000000000e+03" nEvuw="1.8903000000000000e+04" sepI="1.3749958574771881e-01" sepG="6.7704501561820507e-03" res="-2.9742913320660591e-02" rms="3.7080937623977661e-01" nType="0" CC="0.0000000000000000e+00">
          <Node pos="l" depth="2" Seq="1" IVar="-1" Cut="0.0000000000000000e+00" cType="1" nS="8.7941357421875000e+03" nB="3.4381171875000000e+03" nEv="1.2232252929687500e+04" nSuw="7.5090000000000000e+03" nBuw="3.7360000000000000e+03" nEvuw="1.1245000000000000e+04" sepI="1.3278909027576447e-01" sepG="-1.0000000000000000e+00" res="6.3895317725837231e-03" rms="3.6440235376358032e-01" nType="1" CC="0.0000000000000000e+00"/>
          <Node pos="r" depth="2" Seq="3" IVar="-1" Cut="0.0000000000000000e+00" cType="1" nS="2.2275944824218750e+03" nB="5.9531201171875000e+03" nEv="8.1807143554687500e+03" nSuw="1.9870000000000000e+03" nBuw="5.6710000000000000e+03" nEvuw="7.6580000000000000e+03" sepI="1.2764899432659149e-01" sepG="-1.0000000000000000e+00" res="-2.2941986098885536e-02" rms="3.5727998614311218e-01" nType="-1" CC="0.0000000000000000e+00"/>
        </Node>
      </Node>
    </BinaryTree>
    <BinaryTree type="DecisionTree" boostWeight="1.0000000000000000e+00" itree="29">
      <Node pos="s" depth="0" Seq="0" IVar="3" Cut="2.8452904894948006e-02" cType="1" nS="1.2931899218750000e+05" nB="1.2135003906250000e+04" nEv="1.4145400000000000e+05" nSuw="1.2923900000000000e+05" nBuw="1.2099000000000000e+04" nEvuw="1.4133800000000000e+05" sepI="3.9717219769954681e-02" sepG="1.3642070116475224e-03" res="6.0750078409910202e-02" rms="1.9929179549217224e-01" nType="0" CC="0.0000000000000000e+00">
        <Node pos="l" depth="1" Seq="0" IVar="-1" Cut="0.0000000000000000e+00" cType="1" nS="1.1984584375000000e+05" nB="6.7117587890625000e+03" nEv="1.2655760156250000e+05" nSuw="1.2148600000000000e+05" nBuw="7.0600000000000000e+03" nEvuw="1.2854600000000000e+05" sepI="3.0477792024612427e-02" sepG="-1.0000000000000000e+00" res="2.4414097890257835e-02" rms="1.7457889020442963e-01" nType="1" CC="0.0000000000000000e+00"/>
        <Node pos="r" depth="1" Seq="1" IVar="14" Cut="4.6076960563659668e+00" cType="0" nS="9.4731455078125000e+03" nB="5.4232456054687500e+03" nEv="1.4896390625000000e+04" nSuw="7.7530000000000000e+03" nBuw="5.0390000000000000e+03" nEvuw="1.2792000000000000e+04" sepI="1.0525975376367569e-01" sepG="8.7422905489802361e-03" res="-4.6907283365726471e-02" rms="3.2443758845329285e-01" nType="0" CC="0.0000000000000000e+00">
          <Node pos="l" depth="2" Seq="1" IVar="-1" Cut="0.0000000000000000e+00" cType="1" nS="6.7936450195312500e+03" nB="3.5045651245117188e+02" nEv="7.1441015625000000e+03" nSuw="5.7310000000000000e+03" nBuw="3.1400000000000000e+02" nEvuw="6.0450000000000000e+03" sepI="4.6598963439464569e-02" sepG="-1.0000000000000000e+00" res="1.5582813881337643e-02" rms="2.1586792171001434e-01" nType="1" CC="0.0000000000000000e+00"/>
          <Node pos="r" depth="2" Seq="3" IVar="-1" Cut="0.0000000000000000e+00" cType="1" nS="2.6795002441406250e+03" nB="5.0727890625000000e+03" nEv="7.7522895507812500e+03" nSuw="2.0220000000000000e+03" nBuw="4.7250000000000000e+03" nEvuw="6.7470000000000000e+03" sepI="1.4251971244812012e-01" sepG="-1.0000000000000000e+00" res="-2.5208741426467896e-02" rms="3.7751784920692444e-01" nType="-1" CC="0.0000000000000000e+00"/>
        </Node>
      </Node>
    </BinaryTree>
    <BinaryTree type="DecisionTree" boostWeight="1.0000000000000000e+00" itree="30">
      <Node pos="s" depth="0" Seq="0" IVar="14" Cut="3.5482258796691895e+00" cType="0" nS="1.2931899218750000e+05" nB="1.2135003906250000e+04" nEv="1.4145400000000000e+05" nSuw="1.2923900000000000e+05" nBuw="1.2099000000000000e+04" nEvuw="1.4133800000000000e+05" sepI="3.9511427283287048e-02" sepG="1.3382716570049524e-03" res="5.6807518005371094e-02" rms="1.9877481460571289e-01" nType="0" CC="0.0000000000000000e+00">
        <Node pos="l" depth="1" Seq="0" IVar="-1" Cut="0.0000000000000000e+00" cType="1" nS="1.1277645312500000e+05" nB="2.1867995605468750e+03" nEv="1.1496325781250000e+05" nSuw="1.1480600000000000e+05" nBuw="2.1150000000000000e+03" nEvuw="1.1692100000000000e+05" sepI="1.8531963229179382e-02" sepG="-1.0000000000000000e+00" res="2.8918420895934105e-02" rms="1.3613215088844299e-01" nType="1" CC="0.0000000000000000e+00"/>
        <Node pos="r" depth="1" Seq="1" IVar="5" Cut="2.2718520462512970e-01" cType="0" nS="1.6542535156250000e+04" nB="9.9482050781250000e+03" nEv="2.6490738281250000e+04" nSuw="1.4433000000000000e+04" nBuw="9.9840000000000000e+03" nEvuw="2.4417000000000000e+04" sepI="1.2341107428073883e-01" sepG="6.0552572831511497e-03" res="-1.9401194527745247e-02" rms="3.5129913687705994e-01" nType="0" CC="0.0000000000000000e+00">
          <Node pos="l" depth="2" Seq="1" IVar="-1" Cut="0.0000000000000000e+00" cType="1" nS="1.2970291015625000e+04" nB="2.5797292480468750e+03" nEv="1.5550020507812500e+04" nSuw="1.1387000000000000e+04" nBuw="2.6100000000000000e+03" nEvuw="1.3997000000000000e+04" sepI="1.0633368045091629e-01" sepG="-1.0000000000000000e+00" res="9.0120919048786163e-03" rms="3.2608845829963684e-01" nType="1" CC="0.0000000000000000e+00"/>
          <Node pos="r" depth="2" Seq="3" IVar="-1" Cut="0.0000000000000000e+00" cType="1" nS="3.5722434082031250e+03" nB="7.3684755859375000e+03" nEv="1.0940718750000000e+04" nSuw="3.0460000000000000e+03" nBuw="7.3740000000000000e+03" nEvuw="1.0420000000000000e+04" sepI="1.3302156329154968e-01" sepG="-1.0000000000000000e+00" res="-2.1269645541906357e-02" rms="3.6472120881080627e-01" nType="-1" CC="0.0000000000000000e+00"/>
        </Node>
      </Node>
    </BinaryTree>
    <BinaryTree type="DecisionTree" boostWeight="1.0000000000000000e+00" itree="31">
      <Node pos="s" depth="0" Seq="0" IVar="5" Cut="1.4712348580360413e-01" cType="0" nS="1.2931899218750000e+05" nB="1.2135003906250000e+04" nEv="1.4145400000000000e+05" nSuw="1.2923900000000000e+05" nBuw="1.2099000000000000e+04" nEvuw="1.4133800000000000e+05" sepI="3.9209924638271332e-02" sepG="1.1936603114008904e-03" res="5.3181458264589310e-02" rms="1.9801495969295502e-01" nType="0" CC="0.0000000000000000e+00">
        <Node pos="l" depth="1" Seq="0" IVar="-1" Cut="0.0000000000000000e+00" cType="1" nS="1.1892960156250000e+05" nB="5.3410014648437500e+03" nEv="1.2427060156250000e+05" nSuw="1.2008200000000000e+05" nBuw="5.2150000000000000e+03" nEvuw="1.2529700000000000e+05" sepI="3.0864862725138664e-02" sepG="-1.0000000000000000e+00" res="2.3467980325222015e-02" rms="1.7568399012088776e-01" nType="1" CC="0.0000000000000000e+00"/>
        <Node pos="r" depth="1" Seq="1" IVar="14" Cut="4.0679659843444824e+00" cType="0" nS="1.0389389648437500e+04" nB="6.7940029296875000e+03" nEv="1.7183392578125000e+04" nSuw="9.1570000000000000e+03" nBuw="6.8840000000000000e+03" nEvuw="1.6041000000000000e+04" sepI="8.9735336601734161e-02" sepG="7.0681818760931492e-03" res="-3.9730180054903030e-02" rms="2.9955857992172241e-01" nType="0" CC="0.0000000000000000e+00">
          <Node pos="l" depth="2" Seq="1" IVar="-1" Cut="0.0000000000000000e+00" cType="1" nS="7.6478671875000000e+03" nB="3.0043594360351562e+02" nEv="7.9483032226562500e+03" nSuw="6.9100000000000000e+03" nBuw="3.5100000000000000e+02" nEvuw="7.2610000000000000e+03" sepI="3.6171041429042816e-02" sepG="-1.0000000000000000e+00" res="1.8411668017506599e-02" rms="1.9018685817718506e-01" nType="1" CC="0.0000000000000000e+00"/>
          <Node pos="r" depth="2" Seq="3" IVar="-1" Cut="0.0000000000000000e+00" cType="1" nS="2.7415222167968750e+03" nB="6.4935668945312500e+03" nEv="9.2350888671875000e+03" nSuw="2.2470000000000000e+03" nBuw="6.5330000000000000e+03" nEvuw="8.7800000000000000e+03" sepI="1.2268465757369995e-01" sepG="-1.0000000000000000e+00" res="-2.3531187325716019e-02" rms="3.5026368498802185e-01" nType="-1" CC="0.0000000000000000e+00"/>
        </Node>
      </Node>
    </BinaryTree>
    <BinaryTree type="DecisionTree" boostWeight="1.0000000000000000e+00" itree="32">
      <Node pos="s" depth="0" Seq="0" IVar="14" Cut="3.8680660724639893e+00" cType="0" nS="1.2931899218750000e+05" nB="1.2135003906250000e+04" nEv="1.4145400000000000e+05" nSuw="1.2923900000000000e+05" nBuw="1.2099000000000000e+04" nEvuw="1.4133800000000000e+05" sepI="3.9009205996990204e-02" sepG="1.1365085374563932e-03" res="4.9820415675640106e-02" rms="1.9750748574733734e-01" nType="0" CC="0.0000000000000000e+00">
        <Node pos="l" depth="1" Seq="0" IVar="-1" Cut="0.0000000000000000e+00" cType="1" nS="1.0929816406250000e+05" nB="1.9489146728515625e+03" nEv="1.1124707812500000e+05" nSuw="1.1159900000000000e+05" nBuw="1.8770000000000000e+03" nEvuw="1.1347600000000000e+05" sepI="1.7117576673626900e-02" sepG="-1.0000000000000000e+00" res="2.8640680015087128e-02" rms="1.3083414733409882e-01" nType="1" CC="0.0000000000000000e+00"/>
        <Node pos="r" depth="1" Seq="1" IVar="3" Cut="8.6856232956051826e-03" cType="1" nS="2.0020824218750000e+04" nB="1.0186089843750000e+04" nEv="3.0206914062500000e+04" nSuw="1.7640000000000000e+04" nBuw="1.0222000000000000e+04" nEvuw="2.7862000000000000e+04" sepI="1.1431038379669189e-01" sepG="4.8212944529950619e-03" res="-1.4875593595206738e-02" rms="3.3809819817543030e-01" nType="0" CC="0.0000000000000000e+00">
          <Node pos="l" depth="2" Seq="1" IVar="-1" Cut="0.0000000000000000e+00" cType="1" nS="1.4319214843750000e+04" nB="2.8497282714843750e+03" nEv="1.7168943359375000e+04" nSuw="1.2995000000000000e+04" nBuw="3.2140000000000000e+03" nEvuw="1.6209000000000000e+04" sepI="8.9053511619567871e-02" sepG="-1.0000000000000000e+00" res="1.0523193515837193e-02" rms="2.9841834306716919e-01" nType="1" CC="0.0000000000000000e+00"/>
          <Node pos="r" depth="2" Seq="3" IVar="-1" Cut="0.0000000000000000e+00" cType="1" nS="5.7016088867187500e+03" nB="7.3363613281250000e+03" nEv="1.3037970703125000e+04" nSuw="4.6450000000000000e+03" nBuw="7.0080000000000000e+03" nEvuw="1.1653000000000000e+04" sepI="1.3639950752258301e-01" sepG="-1.0000000000000000e+00" res="-1.7924111336469650e-02" rms="3.6932304501533508e-01" nType="-1" CC="0.0000000000000000e+00"/>
        </Node>
      </Node>
    </BinaryTree>
    <BinaryTree type="DecisionTree" boostWeight="1.0000000000000000e+00" itree="33">
      <Node pos="s" depth="0" Seq="0" IVar="3" Cut="4.0912281721830368e-02" cType="1" nS="1.2931899218750000e+05" nB="1.2135003906250000e+04" nEv="1.4145400000000000e+05" nSuw="1.2923900000000000e+05" nBuw="1.2099000000000000e+04" nEvuw="1.4133800000000000e+05" sepI="3.8744386285543442e-02" sepG="1.0574202751740813e-03" res="4.6575658023357391e-02" rms="1.9683593511581421e-01" nType="0" CC="0.0000000000000000e+00">
        <Node pos="l" depth="1" Seq="0" IVar="-1" Cut="0.0000000000000000e+00" cType="1" nS="1.2426786718750000e+05" nB="8.0879150390625000e+03" nEv="1.3235578125000000e+05" nSuw="1.2521600000000000e+05" nBuw="8.3800000000000000e+03" nEvuw="1.3359600000000000e+05" sepI="3.2491710036993027e-02" sepG="-1.0000000000000000e+00" res="2.0626727491617203e-02" rms="1.8025457859039307e-01" nType="1" CC="0.0000000000000000e+00"/>
        <Node pos="r" depth="1" Seq="1" IVar="14" Cut="4.6076960563659668e+00" cType="0" nS="5.0511254882812500e+03" nB="4.0470891113281250e+03" nEv="9.0982148437500000e+03" nSuw="4.0230000000000000e+03" nBuw="3.7190000000000000e+03" nEvuw="7.7420000000000000e+03" sepI="1.1326463520526886e-01" sepG="6.8523497320711613e-03" res="-7.7451609075069427e-02" rms="3.3654811978340149e-01" nType="0" CC="0.0000000000000000e+00">
          <Node pos="l" depth="2" Seq="1" IVar="-1" Cut="0.0000000000000000e+00" cType="1" nS="3.5701325683593750e+03" nB="2.4757861328125000e+02" nEv="3.8177111816406250e+03" nSuw="2.9250000000000000e+03" nBuw="2.1700000000000000e+02" nEvuw="3.1420000000000000e+03" sepI="6.0636091977357864e-02" sepG="-1.0000000000000000e+00" res="6.9399047642946243e-03" rms="2.4624396860599518e-01" nType="1" CC="0.0000000000000000e+00"/>
          <Node pos="r" depth="2" Seq="3" IVar="-1" Cut="0.0000000000000000e+00" cType="1" nS="1.4809929199218750e+03" nB="3.7995104980468750e+03" nEv="5.2805034179687500e+03" nSuw="1.0980000000000000e+03" nBuw="3.5020000000000000e+03" nEvuw="4.6000000000000000e+03" sepI="1.3950766623020172e-01" sepG="-1.0000000000000000e+00" res="-2.8294293209910393e-02" rms="3.7350726127624512e-01" nType="-1" CC="0.0000000000000000e+00"/>
        </Node>
      </Node>
    </BinaryTree>
    <BinaryTree type="DecisionTree" boostWeight="1.0000000000000000e+00" itree="34">
      <Node pos="s" depth="0" Seq="0" IVar="14" Cut="2.5687155723571777e+00" cType="0" nS="1.2931899218750000e+05" nB="1.2135003906250000e+04" nEv="1.4145400000000000e+05" nSuw="1.2923900000000000e+05" nBuw="1.2099000000000000e+04" nEvuw="1.4133800000000000e+05" sepI="3.8637731224298477e-02" sepG="1.0222818236798048e-03" res="4.3562620878219604e-02" rms="1.9656482338905334e-01" nType="0" CC="0.0000000000000000e+00">
        <Node pos="l" depth="1" Seq="0" IVar="-1" Cut="0.0000000000000000e+00" cType="1" nS="1.2010116406250000e+05" nB="2.9881118164062500e+03" nEv="1.2308927343750000e+05" nSuw="1.2131900000000000e+05" nBuw="2.9510000000000000e+03" nEvuw="1.2427000000000000e+05" sepI="2.2874124348163605e-02" sepG="-1.0000000000000000e+00" res="2.4698814377188683e-02" rms="1.5124194324016571e-01" nType="1" CC="0.0000000000000000e+00"/>
        <Node pos="r" depth="1" Seq="1" IVar="10" Cut="-7.7805067412555218e-03" cType="0" nS="9.2178251953125000e+03" nB="9.1468925781250000e+03" nEv="1.8364716796875000e+04" nSuw="7.9200000000000000e+03" nBuw="9.1480000000000000e+03" nEvuw="1.7068000000000000e+04" sepI="1.3641898334026337e-01" sepG="5.8160447515547276e-03" res="-3.9213165640830994e-02" rms="3.6934942007064819e-01" nType="0" CC="0.0000000000000000e+00">
          <Node pos="l" depth="2" Seq="1" IVar="-1" Cut="0.0000000000000000e+00" cType="1" nS="7.2309570312500000e+03" nB="3.2715310058593750e+03" nEv="1.0502488281250000e+04" nSuw="6.1420000000000000e+03" nBuw="3.5540000000000000e+03" nEvuw="9.6960000000000000e+03" sepI="1.3364891707897186e-01" sepG="-1.0000000000000000e+00" res="4.6169781126081944e-03" rms="3.6558026075363159e-01" nType="1" CC="0.0000000000000000e+00"/>
          <Node pos="r" depth="2" Seq="3" IVar="-1" Cut="0.0000000000000000e+00" cType="1" nS="1.9868680419921875e+03" nB="5.8753613281250000e+03" nEv="7.8622294921875000e+03" nSuw="1.7780000000000000e+03" nBuw="5.5940000000000000e+03" nEvuw="7.3720000000000000e+03" sepI="1.2653408944606781e-01" sepG="-1.0000000000000000e+00" res="-2.3617392405867577e-02" rms="3.5571628808975220e-01" nType="-1" CC="0.0000000000000000e+00"/>
        </Node>
      </Node>
    </BinaryTree>
    <BinaryTree type="DecisionTree" boostWeight="1.0000000000000000e+00" itree="35">
      <Node pos="s" depth="0" Seq="0" IVar="14" Cut="3.8680660724639893e+00" cType="0" nS="1.2931899218750000e+05" nB="1.2135003906250000e+04" nEv="1.4145400000000000e+05" nSuw="1.2923900000000000e+05" nBuw="1.2099000000000000e+04" nEvuw="1.4133800000000000e+05" sepI="3.8431495428085327e-02" sepG="9.3076704069972038e-04" res="4.0794137865304947e-02" rms="1.9603952765464783e-01" nType="0" CC="0.0000000000000000e+00">
        <Node pos="l" depth="1" Seq="0" IVar="-1" Cut="0.0000000000000000e+00" cType="1" nS="1.0929816406250000e+05" nB="1.9489146728515625e+03" nEv="1.1124707812500000e+05" nSuw="1.1159900000000000e+05" nBuw="1.8770000000000000e+03" nEvuw="1.1347600000000000e+05" sepI="1.7103729769587517e-02" sepG="-1.0000000000000000e+00" res="2.7240891009569168e-02" rms="1.3078123331069946e-01" nType="1" CC="0.0000000000000000e+00"/>
        <Node pos="r" depth="1" Seq="1" IVar="3" Cut="8.6856232956051826e-03" cType="1" nS="2.0020824218750000e+04" nB="1.0186089843750000e+04" nEv="3.0206914062500000e+04" nSuw="1.7640000000000000e+04" nBuw="1.0222000000000000e+04" nEvuw="2.7862000000000000e+04" sepI="1.1261951178312302e-01" sepG="3.8615374360233545e-03" res="-1.7753802239894867e-02" rms="3.3558830618858337e-01" nType="0" CC="0.0000000000000000e+00">
          <Node pos="l" depth="2" Seq="1" IVar="-1" Cut="0.0000000000000000e+00" cType="1" nS="1.4319214843750000e+04" nB="2.8497282714843750e+03" nEv="1.7168943359375000e+04" nSuw="1.2995000000000000e+04" nBuw="3.2140000000000000e+03" nEvuw="1.6209000000000000e+04" sepI="8.8587746024131775e-02" sepG="-1.0000000000000000e+00" res="8.7777664884924889e-03" rms="2.9763692617416382e-01" nType="1" CC="0.0000000000000000e+00"/>
          <Node pos="r" depth="2" Seq="3" IVar="-1" Cut="0.0000000000000000e+00" cType="1" nS="5.7016088867187500e+03" nB="7.3363613281250000e+03" nEv="1.3037970703125000e+04" nSuw="4.6450000000000000e+03" nBuw="7.0080000000000000e+03" nEvuw="1.1653000000000000e+04" sepI="1.3531896471977234e-01" sepG="-1.0000000000000000e+00" res="-1.7229242250323296e-02" rms="3.6785724759101868e-01" nType="-1" CC="0.0000000000000000e+00"/>
        </Node>
      </Node>
    </BinaryTree>
    <BinaryTree type="DecisionTree" boostWeight="1.0000000000000000e+00" itree="36">
      <Node pos="s" depth="0" Seq="0" IVar="5" Cut="1.5638658404350281e-01" cType="0" nS="1.2931899218750000e+05" nB="1.2135003906250000e+04" nEv="1.4145400000000000e+05" nSuw="1.2923900000000000e+05" nBuw="1.2099000000000000e+04" nEvuw="1.4133800000000000e+05" sepI="3.8217067718505859e-02" sepG="8.8077096734195948e-04" res="3.8129668682813644e-02" rms="1.9549186527729034e-01" nType="0" CC="0.0000000000000000e+00">
        <Node pos="l" depth="1" Seq="0" IVar="-1" Cut="0.0000000000000000e+00" cType="1" nS="1.1763216406250000e+05" nB="5.0932407226562500e+03" nEv="1.2272540625000000e+05" nSuw="1.1884600000000000e+05" nBuw="4.9710000000000000e+03" nEvuw="1.2381700000000000e+05" sepI="3.0001258477568626e-02" sepG="-1.0000000000000000e+00" res="2.0859692245721817e-02" rms="1.7320871353149414e-01" nType="1" CC="0.0000000000000000e+00"/>
        <Node pos="r" depth="1" Seq="1" IVar="14" Cut="4.0679659843444824e+00" cType="0" nS="1.1686822265625000e+04" nB="7.0417636718750000e+03" nEv="1.8728585937500000e+04" nSuw="1.0393000000000000e+04" nBuw="7.1280000000000000e+03" nEvuw="1.7521000000000000e+04" sepI="8.5401616990566254e-02" sepG="4.8478040844202042e-03" res="-3.7841051816940308e-02" rms="2.9223555326461792e-01" nType="0" CC="0.0000000000000000e+00">
          <Node pos="l" depth="2" Seq="1" IVar="-1" Cut="0.0000000000000000e+00" cType="1" nS="8.7084033203125000e+03" nB="3.3465029907226562e+02" nEv="9.0430537109375000e+03" nSuw="7.9300000000000000e+03" nBuw="3.9100000000000000e+02" nEvuw="8.3210000000000000e+03" sepI="3.5412717610597610e-02" sepG="-1.0000000000000000e+00" res="1.5210383571684361e-02" rms="1.8818268179893494e-01" nType="1" CC="0.0000000000000000e+00"/>
          <Node pos="r" depth="2" Seq="3" IVar="-1" Cut="0.0000000000000000e+00" cType="1" nS="2.9784187011718750e+03" nB="6.7071132812500000e+03" nEv="9.6855322265625000e+03" nSuw="2.4630000000000000e+03" nBuw="6.7370000000000000e+03" nEvuw="9.2000000000000000e+03" sepI="1.2270052731037140e-01" sepG="-1.0000000000000000e+00" res="-2.2053338587284088e-02" rms="3.5028633475303650e-01" nType="-1" CC="0.0000000000000000e+00"/>
        </Node>
      </Node>
    </BinaryTree>
    <BinaryTree type="DecisionTree" boostWeight="1.0000000000000000e+00" itree="37">
      <Node pos="s" depth="0" Seq="0" IVar="3" Cut="2.8452904894948006e-02" cType="1" nS="1.2931899218750000e+05" nB="1.2135003906250000e+04" nEv="1.4145400000000000e+05" nSuw="1.2923900000000000e+05" nBuw="1.2099000000000000e+04" nEvuw="1.4133800000000000e+05" sepI="3.8072206079959869e-02" sepG="8.3809450734406710e-04" res="3.5725180059671402e-02" rms="1.9512100517749786e-01" nType="0" CC="0.0000000000000000e+00">
        <Node pos="l" depth="1" Seq="0" IVar="-1" Cut="0.0000000000000000e+00" cType="1" nS="1.1984584375000000e+05" nB="6.7117587890625000e+03" nEv="1.2655760156250000e+05" nSuw="1.2148600000000000e+05" nBuw="7.0600000000000000e+03" nEvuw="1.2854600000000000e+05" sepI="2.9804581776261330e-02" sepG="-1.0000000000000000e+00" res="1.9690576940774918e-02" rms="1.7264004051685333e-01" nType="1" CC="0.0000000000000000e+00"/>
        <Node pos="r" depth="1" Seq="1" IVar="14" Cut="4.6076960563659668e+00" cType="0" nS="9.4731455078125000e+03" nB="5.4232456054687500e+03" nEv="1.4896390625000000e+04" nSuw="7.7530000000000000e+03" nBuw="5.0390000000000000e+03" nEvuw="1.2792000000000000e+04" sepI="1.0035434365272522e-01" sepG="4.6463259495794773e-03" res="-4.8656873404979706e-02" rms="3.1678754091262817e-01" nType="0" CC="0.0000000000000000e+00">
          <Node pos="l" depth="2" Seq="1" IVar="-1" Cut="0.0000000000000000e+00" cType="1" nS="6.7936450195312500e+03" nB="3.5045651245117188e+02" nEv="7.1441015625000000e+03" nSuw="5.7310000000000000e+03" nBuw="3.1400000000000000e+02" nEvuw="6.0450000000000000e+03" sepI="4.6571481972932816e-02" sepG="-1.0000000000000000e+00" res="9.3208076432347298e-03" rms="2.1580426394939423e-01" nType="1" CC="0.0000000000000000e+00"/>
          <Node pos="r" depth="2" Seq="3" IVar="-1" Cut="0.0000000000000000e+00" cType="1" nS="2.6795002441406250e+03" nB="5.0727890625000000e+03" nEv="7.7522895507812500e+03" nSuw="2.0220000000000000e+03" nBuw="4.7250000000000000e+03" nEvuw="6.7470000000000000e+03" sepI="1.4098966121673584e-01" sepG="-1.0000000000000000e+00" res="-2.2929472848773003e-02" rms="3.7548589706420898e-01" nType="-1" CC="0.0000000000000000e+00"/>
        </Node>
      </Node>
    </BinaryTree>
    <BinaryTree type="DecisionTree" boostWeight="1.0000000000000000e+00" itree="38">
      <Node pos="s" depth="0" Seq="0" IVar="14" Cut="3.5482258796691895e+00" cType="0" nS="1.2931899218750000e+05" nB="1.2135003906250000e+04" nEv="1.4145400000000000e+05" nSuw="1.2923900000000000e+05" nBuw="1.2099000000000000e+04" nEvuw="1.4133800000000000e+05" sepI="3.7968225777149200e-02" sepG="8.0196891212835908e-04" res="3.3390026539564133e-02" rms="1.9485436379909515e-01" nType="0" CC="0.0000000000000000e+00">
        <Node pos="l" depth="1" Seq="0" IVar="-1" Cut="0.0000000000000000e+00" cType="1" nS="1.1277645312500000e+05" nB="2.1867995605468750e+03" nEv="1.1496325781250000e+05" nSuw="1.1480600000000000e+05" nBuw="2.1150000000000000e+03" nEvuw="1.1692100000000000e+05" sepI="1.8441922962665558e-02" sepG="-1.0000000000000000e+00" res="2.5055674836039543e-02" rms="1.3580104708671570e-01" nType="1" CC="0.0000000000000000e+00"/>
        <Node pos="r" depth="1" Seq="1" IVar="9" Cut="3.9980011060833931e-03" cType="1" nS="1.6542535156250000e+04" nB="9.9482050781250000e+03" nEv="2.6490738281250000e+04" nSuw="1.4433000000000000e+04" nBuw="9.9840000000000000e+03" nEvuw="2.4417000000000000e+04" sepI="1.1842522770166397e-01" sepG="3.5666681360453367e-03" res="-2.5604438036680222e-02" rms="3.4412968158721924e-01" nType="0" CC="0.0000000000000000e+00">
          <Node pos="l" depth="2" Seq="1" IVar="-1" Cut="0.0000000000000000e+00" cType="1" nS="8.3347724609375000e+03" nB="2.5056169433593750e+03" nEv="1.0840389648437500e+04" nSuw="7.1420000000000000e+03" nBuw="2.7900000000000000e+03" nEvuw="9.9320000000000000e+03" sepI="9.6958190202713013e-02" sepG="-1.0000000000000000e+00" res="9.8348818719387054e-03" rms="3.1138110160827637e-01" nType="1" CC="0.0000000000000000e+00"/>
          <Node pos="r" depth="2" Seq="3" IVar="-1" Cut="0.0000000000000000e+00" cType="1" nS="8.2077617187500000e+03" nB="7.4425878906250000e+03" nEv="1.5650349609375000e+04" nSuw="7.2910000000000000e+03" nBuw="7.1940000000000000e+03" nEvuw="1.4485000000000000e+04" sepI="1.2725745141506195e-01" sepG="-1.0000000000000000e+00" res="-1.5881309285759926e-02" rms="3.5673162341117859e-01" nType="1" CC="0.0000000000000000e+00"/>
        </Node>
      </Node>
    </BinaryTree>
    <BinaryTree type="DecisionTree" boostWeight="1.0000000000000000e+00" itree="39">
      <Node pos="s" depth="0" Seq="0" IVar="3" Cut="4.0852379053831100e-02" cType="1" nS="1.2931899218750000e+05" nB="1.2135003906250000e+04" nEv="1.4145400000000000e+05" nSuw="1.2923900000000000e+05" nBuw="1.2099000000000000e+04" nEvuw="1.4133800000000000e+05" sepI="3.7770885974168777e-02" sepG="7.2894780896604061e-04" res="3.1240247189998627e-02" rms="1.9434733688831329e-01" nType="0" CC="0.0000000000000000e+00">
        <Node pos="l" depth="1" Seq="0" IVar="-1" Cut="0.0000000000000000e+00" cType="1" nS="1.2425506250000000e+05" nB="8.0866977539062500e+03" nEv="1.3234176562500000e+05" nSuw="1.2520300000000000e+05" nBuw="8.3780000000000000e+03" nEvuw="1.3358100000000000e+05" sepI="3.2004375010728836e-02" sepG="-1.0000000000000000e+00" res="1.7113881185650826e-02" rms="1.7889767885208130e-01" nType="1" CC="0.0000000000000000e+00"/>
        <Node pos="r" depth="1" Seq="1" IVar="14" Cut="5.4672665596008301e+00" cType="0" nS="5.0639252929687500e+03" nB="4.0483068847656250e+03" nEv="9.1122324218750000e+03" nSuw="4.0360000000000000e+03" nBuw="3.7210000000000000e+03" nEvuw="7.7570000000000000e+03" sepI="1.1020512878894806e-01" sepG="4.5211510732769966e-03" res="-7.1652382612228394e-02" rms="3.3197158575057983e-01" nType="0" CC="0.0000000000000000e+00">
          <Node pos="l" depth="2" Seq="1" IVar="-1" Cut="0.0000000000000000e+00" cType="1" nS="2.8855461425781250e+03" nB="1.3558241271972656e+02" nEv="3.0211284179687500e+03" nSuw="2.4030000000000000e+03" nBuw="1.1300000000000000e+02" nEvuw="2.5160000000000000e+03" sepI="4.2859330773353577e-02" sepG="-1.0000000000000000e+00" res="1.0106055065989494e-02" rms="2.0702494680881500e-01" nType="1" CC="0.0000000000000000e+00"/>
          <Node pos="r" depth="2" Seq="3" IVar="-1" Cut="0.0000000000000000e+00" cType="1" nS="2.1783793945312500e+03" nB="3.9127243652343750e+03" nEv="6.0911035156250000e+03" nSuw="1.6330000000000000e+03" nBuw="3.6080000000000000e+03" nEvuw="5.2410000000000000e+03" sepI="1.3684439659118652e-01" sepG="-1.0000000000000000e+00" res="-2.5947298854589462e-02" rms="3.6992484331130981e-01" nType="-1" CC="0.0000000000000000e+00"/>
        </Node>
      </Node>
    </BinaryTree>
    <BinaryTree type="DecisionTree" boostWeight="1.0000000000000000e+00" itree="40">
      <Node pos="s" depth="0" Seq="0" IVar="14" Cut="3.8680660724639893e+00" cType="0" nS="1.2931899218750000e+05" nB="1.2135003906250000e+04" nEv="1.4145400000000000e+05" nSuw="1.2923900000000000e+05" nBuw="1.2099000000000000e+04" nEvuw="1.4133800000000000e+05" sepI="3.7706844508647919e-02" sepG="7.2480604285374284e-04" res="2.9210431501269341e-02" rms="1.9418250024318695e-01" nType="0" CC="0.0000000000000000e+00">
        <Node pos="l" depth="1" Seq="0" IVar="-1" Cut="0.0000000000000000e+00" cType="1" nS="1.0929816406250000e+05" nB="1.9489146728515625e+03" nEv="1.1124707812500000e+05" nSuw="1.1159900000000000e+05" nBuw="1.8770000000000000e+03" nEvuw="1.1347600000000000e+05" sepI="1.7067236825823784e-02" sepG="-1.0000000000000000e+00" res="2.4993028491735458e-02" rms="1.3064163923263550e-01" nType="1" CC="0.0000000000000000e+00"/>
        <Node pos="r" depth="1" Seq="1" IVar="5" Cut="2.5880041718482971e-01" cType="0" nS="2.0020824218750000e+04" nB="1.0186089843750000e+04" nEv="3.0206914062500000e+04" nSuw="1.7640000000000000e+04" nBuw="1.0222000000000000e+04" nEvuw="2.7862000000000000e+04" sepI="1.1032497137784958e-01" sepG="2.9706265777349472e-03" res="-2.2455234080553055e-02" rms="3.3215203881263733e-01" nType="0" CC="0.0000000000000000e+00">
          <Node pos="l" depth="2" Seq="1" IVar="-1" Cut="0.0000000000000000e+00" cType="1" nS="1.5025559570312500e+04" nB="2.5164653320312500e+03" nEv="1.7542025390625000e+04" nSuw="1.3377000000000000e+04" nBuw="2.5370000000000000e+03" nEvuw="1.5914000000000000e+04" sepI="9.2829443514347076e-02" sepG="-1.0000000000000000e+00" res="5.7560014538466930e-03" rms="3.0467924475669861e-01" nType="1" CC="0.0000000000000000e+00"/>
          <Node pos="r" depth="2" Seq="3" IVar="-1" Cut="0.0000000000000000e+00" cType="1" nS="4.9952641601562500e+03" nB="7.6696240234375000e+03" nEv="1.2664888671875000e+04" nSuw="4.2630000000000000e+03" nBuw="7.6850000000000000e+03" nEvuw="1.1948000000000000e+04" sepI="1.2747265398502350e-01" sepG="-1.0000000000000000e+00" res="-1.8548959866166115e-02" rms="3.5703313350677490e-01" nType="-1" CC="0.0000000000000000e+00"/>
        </Node>
      </Node>
    </BinaryTree>
    <BinaryTree type="DecisionTree" boostWeight="1.0000000000000000e+00" itree="41">
      <Node pos="s" depth="0" Seq="0" IVar="5" Cut="1.5638658404350281e-01" cType="0" nS="1.2931899218750000e+05" nB="1.2135003906250000e+04" nEv="1.4145400000000000e+05" nSuw="1.2923900000000000e+05" nBuw="1.2099000000000000e+04" nEvuw="1.4133800000000000e+05" sepI="3.7533402442932129e-02" sepG="6.5063015790656209e-04" res="2.7336766943335533e-02" rms="1.9373539090156555e-01" nType="0" CC="0.0000000000000000e+00">
        <Node pos="l" depth="1" Seq="0" IVar="-1" Cut="0.0000000000000000e+00" cType="1" nS="1.1763216406250000e+05" nB="5.0932407226562500e+03" nEv="1.2272540625000000e+05" nSuw="1.1884600000000000e+05" nBuw="4.9710000000000000e+03" nEvuw="1.2381700000000000e+05" sepI="2.9775781556963921e-02" sepG="-1.0000000000000000e+00" res="1.8038371577858925e-02" rms="1.7255660891532898e-01" nType="1" CC="0.0000000000000000e+00"/>
        <Node pos="r" depth="1" Seq="1" IVar="14" Cut="4.8075962066650391e+00" cType="0" nS="1.1686822265625000e+04" nB="7.0417636718750000e+03" nEv="1.8728585937500000e+04" nSuw="1.0393000000000000e+04" nBuw="7.1280000000000000e+03" nEvuw="1.7521000000000000e+04" sepI="8.3453737199306488e-02" sepG="3.4622587263584137e-03" res="-3.7958521395921707e-02" rms="2.8888359665870667e-01" nType="0" CC="0.0000000000000000e+00">
          <Node pos="l" depth="2" Seq="1" IVar="-1" Cut="0.0000000000000000e+00" cType="1" nS="7.4712724609375000e+03" nB="2.0062570190429688e+02" nEv="7.6718979492187500e+03" nSuw="6.8340000000000000e+03" nBuw="2.4100000000000000e+02" nEvuw="7.0750000000000000e+03" sepI="2.5379123166203499e-02" sepG="-1.0000000000000000e+00" res="1.7456851899623871e-02" rms="1.5930826961994171e-01" nType="1" CC="0.0000000000000000e+00"/>
          <Node pos="r" depth="2" Seq="3" IVar="-1" Cut="0.0000000000000000e+00" cType="1" nS="4.2155498046875000e+03" nB="6.8411376953125000e+03" nEv="1.1056687500000000e+04" nSuw="3.5590000000000000e+03" nBuw="6.8870000000000000e+03" nEvuw="1.0446000000000000e+04" sepI="1.1788532882928848e-01" sepG="-1.0000000000000000e+00" res="-2.0336424931883812e-02" rms="3.4334433078765869e-01" nType="-1" CC="0.0000000000000000e+00"/>
        </Node>
      </Node>
    </BinaryTree>
    <BinaryTree type="DecisionTree" boostWeight="1.0000000000000000e+00" itree="42">
