<?xml version="1.0"?>
<MethodSetup Method="BDT::BDTG">
  <GeneralInfo>
    <Info name="TMVA Release" value="4.0.7 [262151]"/>
    <Info name="ROOT Release" value="5.27/06 [334598]"/>
    <Info name="Creator" value="sixie"/>
    <Info name="Date" value="Sun Sep 25 19:20:16 2011"/>
    <Info name="Host" value="Linux lxbuild042.cern.ch 2.6.18-238.1.1.el5 #1 SMP Wed Jan 19 11:06:36 CET 2011 x86_64 x86_64 x86_64 GNU/Linux"/>
    <Info name="Dir" value="/build/sixie/releases/analysis/CMSSW_4_2_3_patch2/src/ElectronMVA"/>
    <Info name="Training events" value="109002"/>
    <Info name="TrainingTime" value="172.346"/>
    <Info name="AnalysisType" value="Classification"/>
  </GeneralInfo>
  <Options>
    <Option name="V" modified="Yes">False</Option>
    <Option name="VerbosityLevel" modified="No">Default</Option>
    <Option name="VarTransform" modified="No">None</Option>
    <Option name="H" modified="Yes">False</Option>
    <Option name="CreateMVAPdfs" modified="No">False</Option>
    <Option name="IgnoreNegWeightsInTraining" modified="No">False</Option>
    <Option name="NTrees" modified="Yes">1000</Option>
    <Option name="BoostType" modified="Yes">Grad</Option>
    <Option name="AdaBoostR2Loss" modified="No">quadratic</Option>
    <Option name="UseBaggedGrad" modified="Yes">False</Option>
    <Option name="GradBaggingFraction" modified="No">6.000000e-01</Option>
    <Option name="Shrinkage" modified="Yes">1.000000e-01</Option>
    <Option name="AdaBoostBeta" modified="No">1.000000e+00</Option>
    <Option name="UseRandomisedTrees" modified="No">False</Option>
    <Option name="UseNvars" modified="Yes">4</Option>
    <Option name="UseNTrainEvents" modified="No">109002</Option>
    <Option name="UseWeightedTrees" modified="No">True</Option>
    <Option name="UseYesNoLeaf" modified="No">True</Option>
    <Option name="NodePurityLimit" modified="No">5.000000e-01</Option>
    <Option name="SeparationType" modified="No">giniindex</Option>
    <Option name="nEventsMin" modified="No">48</Option>
    <Option name="nCuts" modified="Yes">2000</Option>
    <Option name="PruneStrength" modified="Yes">0.000000e+00</Option>
    <Option name="PruneMethod" modified="Yes">nopruning</Option>
    <Option name="PruneBeforeBoost" modified="No">False</Option>
    <Option name="PruningValFraction" modified="No">5.000000e-01</Option>
    <Option name="NNodesMax" modified="Yes">5</Option>
    <Option name="MaxDepth" modified="No">3</Option>
  </Options>
  <Variables NVar="15">
    <Variable VarIndex="0" Expression="SigmaIEtaIEta" Label="SigmaIEtaIEta" Title="SigmaIEtaIEta" Unit="" Internal="SigmaIEtaIEta" Type="F" Min="0" Max="0.0284615"/>
    <Variable VarIndex="1" Expression="DEtaIn" Label="DEtaIn" Title="DEtaIn" Unit="" Internal="DEtaIn" Type="F" Min="-0.00727725" Max="0.00699949"/>
    <Variable VarIndex="2" Expression="DPhiIn" Label="DPhiIn" Title="DPhiIn" Unit="" Internal="DPhiIn" Type="F" Min="-0.149979" Max="0.149887"/>
    <Variable VarIndex="3" Expression="HoverE" Label="HoverE" Title="HoverE" Unit="" Internal="HoverE" Type="F" Min="0" Max="0.119961"/>
    <Variable VarIndex="4" Expression="D0" Label="D0" Title="D0" Unit="" Internal="D0" Type="F" Min="-0.0199991" Max="0.0199971"/>
    <Variable VarIndex="5" Expression="FBrem" Label="FBrem" Title="FBrem" Unit="" Internal="FBrem" Type="F" Min="-13.2754" Max="0.999268"/>
    <Variable VarIndex="6" Expression="EOverP" Label="EOverP" Title="EOverP" Unit="" Internal="EOverP" Type="F" Min="8.78908e-05" Max="23.7842"/>
    <Variable VarIndex="7" Expression="ESeedClusterOverPout" Label="ESeedClusterOverPout" Title="ESeedClusterOverPout" Unit="" Internal="ESeedClusterOverPout" Type="F" Min="9.90741e-05" Max="2252.5"/>
    <Variable VarIndex="8" Expression="SigmaIPhiIPhi" Label="SigmaIPhiIPhi" Title="SigmaIPhiIPhi" Unit="" Internal="SigmaIPhiIPhi" Type="F" Min="0" Max="0.0596034"/>
    <Variable VarIndex="9" Expression="NBrem" Label="NBrem" Title="NBrem" Unit="" Internal="NBrem" Type="I" Min="0" Max="10"/>
    <Variable VarIndex="10" Expression="OneOverEMinusOneOverP" Label="OneOverEMinusOneOverP" Title="OneOverEMinusOneOverP" Unit="" Internal="OneOverEMinusOneOverP" Type="F" Min="-0.192787" Max="0.047439"/>
    <Variable VarIndex="11" Expression="ESeedClusterOverPIn" Label="ESeedClusterOverPIn" Title="ESeedClusterOverPIn" Unit="" Internal="ESeedClusterOverPIn" Type="F" Min="3.90084e-05" Max="21.857"/>
    <Variable VarIndex="12" Expression="IP3d" Label="IP3d" Title="IP3d" Unit="" Internal="IP3d" Type="F" Min="-6.71069" Max="0.0536938"/>
    <Variable VarIndex="13" Expression="IP3dSig" Label="IP3dSig" Title="IP3dSig" Unit="" Internal="IP3dSig" Type="F" Min="-295.41" Max="15.9482"/>
    <Variable VarIndex="14" Expression="StandardLikelihood" Label="StandardLikelihood" Title="StandardLikelihood" Unit="" Internal="StandardLikelihood" Type="F" Min="-20" Max="20"/>
  </Variables>
  <Spectators NSpec="0"/>
  <Transformations NTransformations="0"/>
  <MVAPdfs/>
  <Weights NTrees="1000" TreeType="1">
    <BinaryTree type="DecisionTree" boostWeight="1.0000000000000000e+00" itree="0">
      <Node pos="s" depth="0" Seq="0" IVar="14" Cut="-7.4962520599365234e-01" cType="0" nS="1.0409862500000000e+05" nB="4.9428183593750000e+03" nEv="1.0904144531250000e+05" nSuw="1.0410100000000000e+05" nBuw="4.9010000000000000e+03" nEvuw="1.0900200000000000e+05" sepI="4.3274935334920883e-02" sepG="1.9193736836314201e-02" res="4.5467028021812439e-01" rms="2.0802628993988037e-01" nType="0" CC="0.0000000000000000e+00">
        <Node pos="l" depth="1" Seq="0" IVar="-1" Cut="0.0000000000000000e+00" cType="1" nS="1.0316656250000000e+05" nB="1.9514357910156250e+03" nEv="1.0511800000000000e+05" nSuw="1.0335500000000000e+05" nBuw="2.0290000000000000e+03" nEvuw="1.0538400000000000e+05" sepI="1.8219608813524246e-02" sepG="-1.0000000000000000e+00" res="6.3207402825355530e-02" rms="1.3498003780841827e-01" nType="1" CC="0.0000000000000000e+00"/>
        <Node pos="r" depth="1" Seq="1" IVar="5" Cut="2.6561331748962402e-01" cType="0" nS="9.3206298828125000e+02" nB="2.9913823242187500e+03" nEv="3.9234453125000000e+03" nSuw="7.4600000000000000e+02" nBuw="2.8720000000000000e+03" nEvuw="3.6180000000000000e+03" sepI="1.8112649023532867e-01" sepG="3.5723596811294556e-02" res="-2.6243764162063599e-01" rms="4.2558959126472473e-01" nType="0" CC="0.0000000000000000e+00">
          <Node pos="l" depth="2" Seq="1" IVar="-1" Cut="0.0000000000000000e+00" cType="1" nS="5.8515551757812500e+02" nB="4.8695629882812500e+02" nEv="1.0721118164062500e+03" nSuw="4.9300000000000000e+02" nBuw="4.6200000000000000e+02" nEvuw="9.5500000000000000e+02" sepI="2.4790263175964355e-01" sepG="-1.0000000000000000e+00" res="5.5250357836484909e-03" rms="4.9789822101593018e-01" nType="1" CC="0.0000000000000000e+00"/>
          <Node pos="r" depth="2" Seq="3" IVar="-1" Cut="0.0000000000000000e+00" cType="1" nS="3.4690747070312500e+02" nB="2.5044260253906250e+03" nEv="2.8513334960937500e+03" nSuw="2.5300000000000000e+02" nBuw="2.4100000000000000e+03" nEvuw="2.6630000000000000e+03" sepI="1.0686261951923370e-01" sepG="-1.0000000000000000e+00" res="-4.6802755445241928e-02" rms="3.2689848542213440e-01" nType="-1" CC="0.0000000000000000e+00"/>
        </Node>
      </Node>
    </BinaryTree>
    <BinaryTree type="DecisionTree" boostWeight="1.0000000000000000e+00" itree="1">
      <Node pos="s" depth="0" Seq="0" IVar="14" Cut="-6.0969513654708862e-01" cType="0" nS="1.0409862500000000e+05" nB="4.9428183593750000e+03" nEv="1.0904144531250000e+05" nSuw="1.0410100000000000e+05" nBuw="4.9010000000000000e+03" nEvuw="1.0900200000000000e+05" sepI="4.0733825415372849e-02" sepG="1.6827123239636421e-02" res="4.2482855916023254e-01" rms="2.0182622969150543e-01" nType="0" CC="0.0000000000000000e+00">
        <Node pos="l" depth="1" Seq="0" IVar="-1" Cut="0.0000000000000000e+00" cType="1" nS="1.0309874218750000e+05" nB="1.9099942626953125e+03" nEv="1.0500874218750000e+05" nSuw="1.0329400000000000e+05" nBuw="1.9810000000000000e+03" nEvuw="1.0527500000000000e+05" sepI="1.7858071252703667e-02" sepG="-1.0000000000000000e+00" res="5.9351593255996704e-02" rms="1.3363409042358398e-01" nType="1" CC="0.0000000000000000e+00"/>
        <Node pos="r" depth="1" Seq="1" IVar="5" Cut="2.6434653997421265e-01" cType="0" nS="9.9988006591796875e+02" nB="3.0328239746093750e+03" nEv="4.0327038574218750e+03" nSuw="8.0700000000000000e+02" nBuw="2.9200000000000000e+03" nEvuw="3.7270000000000000e+03" sepI="1.8140876293182373e-01" sepG="3.2505299896001816e-02" res="-2.3711276054382324e-01" rms="4.2592108249664307e-01" nType="0" CC="0.0000000000000000e+00">
          <Node pos="l" depth="2" Seq="1" IVar="-1" Cut="0.0000000000000000e+00" cType="1" nS="6.3359625244140625e+02" nB="5.1022753906250000e+02" nEv="1.1438237304687500e+03" nSuw="5.3500000000000000e+02" nBuw="4.8600000000000000e+02" nEvuw="1.0210000000000000e+03" sepI="2.4664400517940521e-01" sepG="-1.0000000000000000e+00" res="5.9431958943605423e-03" rms="4.9663266539573669e-01" nType="1" CC="0.0000000000000000e+00"/>
          <Node pos="r" depth="2" Seq="3" IVar="-1" Cut="0.0000000000000000e+00" cType="1" nS="3.6628381347656250e+02" nB="2.5225964355468750e+03" nEv="2.8888801269531250e+03" nSuw="2.7200000000000000e+02" nBuw="2.4340000000000000e+03" nEvuw="2.7060000000000000e+03" sepI="1.1020406335592270e-01" sepG="-1.0000000000000000e+00" res="-4.3589998036623001e-02" rms="3.3196997642517090e-01" nType="-1" CC="0.0000000000000000e+00"/>
        </Node>
      </Node>
    </BinaryTree>
    <BinaryTree type="DecisionTree" boostWeight="1.0000000000000000e+00" itree="2">
      <Node pos="s" depth="0" Seq="0" IVar="14" Cut="-5.2973514795303345e-01" cType="0" nS="1.0409862500000000e+05" nB="4.9428183593750000e+03" nEv="1.0904144531250000e+05" nSuw="1.0410100000000000e+05" nBuw="4.9010000000000000e+03" nEvuw="1.0900200000000000e+05" sepI="3.8499854505062103e-02" sepG="1.4738456346094608e-02" res="3.9704698324203491e-01" rms="1.9621379673480988e-01" nType="0" CC="0.0000000000000000e+00">
        <Node pos="l" depth="1" Seq="0" IVar="-1" Cut="0.0000000000000000e+00" cType="1" nS="1.0305718750000000e+05" nB="1.8885130615234375e+03" nEv="1.0494570312500000e+05" nSuw="1.0326000000000000e+05" nBuw="1.9570000000000000e+03" nEvuw="1.0521700000000000e+05" sepI="1.7671320587396622e-02" sepG="-1.0000000000000000e+00" res="5.6114189326763153e-02" rms="1.3293352723121643e-01" nType="1" CC="0.0000000000000000e+00"/>
        <Node pos="r" depth="1" Seq="1" IVar="5" Cut="2.0705351233482361e-01" cType="0" nS="1.0414383544921875e+03" nB="3.0543051757812500e+03" nEv="4.0957434082031250e+03" nSuw="8.4100000000000000e+02" nBuw="2.9440000000000000e+03" nEvuw="3.7850000000000000e+03" sepI="1.7980813980102539e-01" sepG="2.9513692483305931e-02" res="-2.1748141944408417e-01" rms="4.2403790354728699e-01" nType="0" CC="0.0000000000000000e+00">
          <Node pos="l" depth="2" Seq="1" IVar="-1" Cut="0.0000000000000000e+00" cType="1" nS="6.9383764648437500e+02" nB="5.8253112792968750e+02" nEv="1.2763687744140625e+03" nSuw="5.8200000000000000e+02" nBuw="5.5600000000000000e+02" nEvuw="1.1380000000000000e+03" sepI="2.4539177119731903e-01" sepG="-1.0000000000000000e+00" res="4.5736320316791534e-03" rms="4.9537032842636108e-01" nType="1" CC="0.0000000000000000e+00"/>
          <Node pos="r" depth="2" Seq="3" IVar="-1" Cut="0.0000000000000000e+00" cType="1" nS="3.4760073852539062e+02" nB="2.4717739257812500e+03" nEv="2.8193747558593750e+03" nSuw="2.5900000000000000e+02" nBuw="2.3880000000000000e+03" nEvuw="2.6470000000000000e+03" sepI="1.0724261403083801e-01" sepG="-1.0000000000000000e+00" res="-4.1682761162519455e-02" rms="3.2747918367385864e-01" nType="-1" CC="0.0000000000000000e+00"/>
        </Node>
      </Node>
    </BinaryTree>
    <BinaryTree type="DecisionTree" boostWeight="1.0000000000000000e+00" itree="3">
      <Node pos="s" depth="0" Seq="0" IVar="14" Cut="-7.6961517333984375e-01" cType="0" nS="1.0409862500000000e+05" nB="4.9428183593750000e+03" nEv="1.0904144531250000e+05" nSuw="1.0410100000000000e+05" nBuw="4.9010000000000000e+03" nEvuw="1.0900200000000000e+05" sepI="3.6540489643812180e-02" sepG="1.2933302670717239e-02" res="3.7115916609764099e-01" rms="1.9115567207336426e-01" nType="0" CC="0.0000000000000000e+00">
        <Node pos="l" depth="1" Seq="0" IVar="-1" Cut="0.0000000000000000e+00" cType="1" nS="1.0317220312500000e+05" nB="1.9553570556640625e+03" nEv="1.0512756250000000e+05" nSuw="1.0336100000000000e+05" nBuw="2.0330000000000000e+03" nEvuw="1.0539400000000000e+05" sepI="1.8183751031756401e-02" sepG="-1.0000000000000000e+00" res="5.3274344652891159e-02" rms="1.3484714925289154e-01" nType="1" CC="0.0000000000000000e+00"/>
        <Node pos="r" depth="1" Seq="1" IVar="10" Cut="-1.1558109894394875e-02" cType="0" nS="9.2641998291015625e+02" nB="2.9874611816406250e+03" nEv="3.9138811035156250e+03" nSuw="7.4000000000000000e+02" nBuw="2.8680000000000000e+03" nEvuw="3.6080000000000000e+03" sepI="1.6928167641162872e-01" sepG="2.5659013539552689e-02" res="-2.1823957562446594e-01" rms="4.1143855452537537e-01" nType="0" CC="0.0000000000000000e+00">
          <Node pos="l" depth="2" Seq="1" IVar="-1" Cut="0.0000000000000000e+00" cType="1" nS="5.7256201171875000e+02" nB="5.9675268554687500e+02" nEv="1.1693146972656250e+03" nSuw="4.6700000000000000e+02" nBuw="7.1300000000000000e+02" nEvuw="1.1800000000000000e+03" sepI="2.2825351357460022e-01" sepG="-1.0000000000000000e+00" res="3.6998689174652100e-03" rms="4.7775885462760925e-01" nType="-1" CC="0.0000000000000000e+00"/>
          <Node pos="r" depth="2" Seq="3" IVar="-1" Cut="0.0000000000000000e+00" cType="1" nS="3.5385794067382812e+02" nB="2.3907084960937500e+03" nEv="2.7445664062500000e+03" nSuw="2.7300000000000000e+02" nBuw="2.1550000000000000e+03" nEvuw="2.4280000000000000e+03" sepI="1.0756592452526093e-01" sepG="-1.0000000000000000e+00" res="-3.8681801408529282e-02" rms="3.2797244191169739e-01" nType="-1" CC="0.0000000000000000e+00"/>
        </Node>
      </Node>
    </BinaryTree>
    <BinaryTree type="DecisionTree" boostWeight="1.0000000000000000e+00" itree="4">
      <Node pos="s" depth="0" Seq="0" IVar="14" Cut="-3.8980510830879211e-01" cType="0" nS="1.0409862500000000e+05" nB="4.9428183593750000e+03" nEv="1.0904144531250000e+05" nSuw="1.0410100000000000e+05" nBuw="4.9010000000000000e+03" nEvuw="1.0900200000000000e+05" sepI="3.4864738583564758e-02" sepG="1.1422566138207912e-02" res="3.4699344635009766e-01" rms="1.8672101199626923e-01" nType="0" CC="0.0000000000000000e+00">
        <Node pos="l" depth="1" Seq="0" IVar="-1" Cut="0.0000000000000000e+00" cType="1" nS="1.0295914062500000e+05" nB="1.8412066650390625e+03" nEv="1.0480034375000000e+05" nSuw="1.0318300000000000e+05" nBuw="1.9090000000000000e+03" nEvuw="1.0509200000000000e+05" sepI="1.7260048538446426e-02" sepG="-1.0000000000000000e+00" res="5.1041621714830399e-02" rms="1.3137750327587128e-01" nType="1" CC="0.0000000000000000e+00"/>
        <Node pos="r" depth="1" Seq="1" IVar="5" Cut="2.0770131051540375e-01" cType="0" nS="1.1394852294921875e+03" nB="3.1016115722656250e+03" nEv="4.2410966796875000e+03" nSuw="9.1800000000000000e+02" nBuw="2.9920000000000000e+03" nEvuw="3.9100000000000000e+03" sepI="1.7620663344860077e-01" sepG="2.6275996118783951e-02" res="-1.8428733944892883e-01" rms="4.1976973414421082e-01" nType="0" CC="0.0000000000000000e+00">
          <Node pos="l" depth="2" Seq="1" IVar="-1" Cut="0.0000000000000000e+00" cType="1" nS="7.6171331787109375e+02" nB="5.9976483154296875e+02" nEv="1.3614781494140625e+03" nSuw="6.3600000000000000e+02" nBuw="5.7300000000000000e+02" nEvuw="1.2090000000000000e+03" sepI="2.3561759293079376e-01" sepG="-1.0000000000000000e+00" res="6.2098130583763123e-03" rms="4.8540458083152771e-01" nType="1" CC="0.0000000000000000e+00"/>
          <Node pos="r" depth="2" Seq="3" IVar="-1" Cut="0.0000000000000000e+00" cType="1" nS="3.7777194213867188e+02" nB="2.5018466796875000e+03" nEv="2.8796186523437500e+03" nSuw="2.8200000000000000e+02" nBuw="2.4190000000000000e+03" nEvuw="2.7010000000000000e+03" sepI="1.0941800475120544e-01" sepG="-1.0000000000000000e+00" res="-3.7703439593315125e-02" rms="3.3078393340110779e-01" nType="-1" CC="0.0000000000000000e+00"/>
        </Node>
      </Node>
    </BinaryTree>
    <BinaryTree type="DecisionTree" boostWeight="1.0000000000000000e+00" itree="5">
      <Node pos="s" depth="0" Seq="0" IVar="14" Cut="4.6976512670516968e-01" cType="0" nS="1.0409862500000000e+05" nB="4.9428183593750000e+03" nEv="1.0904144531250000e+05" nSuw="1.0410100000000000e+05" nBuw="4.9010000000000000e+03" nEvuw="1.0900200000000000e+05" sepI="3.3330980688333511e-02" sepG="1.0065526701509953e-02" res="3.2446968555450439e-01" rms="1.8256774544715881e-01" nType="0" CC="0.0000000000000000e+00">
        <Node pos="l" depth="1" Seq="0" IVar="-1" Cut="0.0000000000000000e+00" cType="1" nS="1.0228217187500000e+05" nB="1.5909959716796875e+03" nEv="1.0387316406250000e+05" nSuw="1.0261900000000000e+05" nBuw="1.6450000000000000e+03" nEvuw="1.0426400000000000e+05" sepI="1.5082116238772869e-02" sepG="-1.0000000000000000e+00" res="4.9366556107997894e-02" rms="1.2280926853418350e-01" nType="1" CC="0.0000000000000000e+00"/>
        <Node pos="r" depth="1" Seq="1" IVar="5" Cut="2.0509670674800873e-01" cType="0" nS="1.8164560546875000e+03" nB="3.3518222656250000e+03" nEv="5.1682783203125000e+03" nSuw="1.4820000000000000e+03" nBuw="3.2560000000000000e+03" nEvuw="4.7380000000000000e+03" sepI="1.8773597478866577e-01" sepG="3.0563984066247940e-02" res="-1.2530705332756042e-01" rms="4.3328508734703064e-01" nType="0" CC="0.0000000000000000e+00">
          <Node pos="l" depth="2" Seq="1" IVar="-1" Cut="0.0000000000000000e+00" cType="1" nS="1.2878338623046875e+03" nB="7.0487408447265625e+02" nEv="1.9927078857421875e+03" nSuw="1.0700000000000000e+03" nBuw="6.7500000000000000e+02" nEvuw="1.7450000000000000e+03" sepI="2.0929715037345886e-01" sepG="-1.0000000000000000e+00" res="1.1456686072051525e-02" rms="4.5749005675315857e-01" nType="1" CC="0.0000000000000000e+00"/>
          <Node pos="r" depth="2" Seq="3" IVar="-1" Cut="0.0000000000000000e+00" cType="1" nS="5.2862219238281250e+02" nB="2.6469479980468750e+03" nEv="3.1755703125000000e+03" nSuw="4.1200000000000000e+02" nBuw="2.5810000000000000e+03" nEvuw="2.9930000000000000e+03" sepI="1.2446283549070358e-01" sepG="-1.0000000000000000e+00" res="-3.4081127494573593e-02" rms="3.5279288887977600e-01" nType="-1" CC="0.0000000000000000e+00"/>
        </Node>
      </Node>
    </BinaryTree>
    <BinaryTree type="DecisionTree" boostWeight="1.0000000000000000e+00" itree="6">
      <Node pos="s" depth="0" Seq="0" IVar="14" Cut="-9.8950523138046265e-01" cType="0" nS="1.0409862500000000e+05" nB="4.9428183593750000e+03" nEv="1.0904144531250000e+05" nSuw="1.0410100000000000e+05" nBuw="4.9010000000000000e+03" nEvuw="1.0900200000000000e+05" sepI="3.1909771263599396e-02" sepG="8.8556930422782898e-03" res="3.0342376232147217e-01" rms="1.7863306403160095e-01" nType="0" CC="0.0000000000000000e+00">
        <Node pos="l" depth="1" Seq="0" IVar="-1" Cut="0.0000000000000000e+00" cType="1" nS="1.0325257812500000e+05" nB="2.0239589843750000e+03" nEv="1.0527653906250000e+05" nSuw="1.0343200000000000e+05" nBuw="2.1080000000000000e+03" nEvuw="1.0554000000000000e+05" sepI="1.8349405378103256e-02" sepG="-1.0000000000000000e+00" res="4.6972181648015976e-02" rms="1.3545997440814972e-01" nType="1" CC="0.0000000000000000e+00"/>
        <Node pos="r" depth="1" Seq="1" IVar="6" Cut="1.8880703449249268e+00" cType="1" nS="8.4604656982421875e+02" nB="2.9188591308593750e+03" nEv="3.7649057617187500e+03" nSuw="6.6900000000000000e+02" nBuw="2.7930000000000000e+03" nEvuw="3.4620000000000000e+03" sepI="1.5460890531539917e-01" sepG="2.0034162327647209e-02" res="-1.9419872760772705e-01" rms="3.9320340752601624e-01" nType="0" CC="0.0000000000000000e+00">
          <Node pos="l" depth="2" Seq="1" IVar="-1" Cut="0.0000000000000000e+00" cType="1" nS="5.3052764892578125e+02" nB="6.2898016357421875e+02" nEv="1.1595078125000000e+03" nSuw="4.0400000000000000e+02" nBuw="8.1500000000000000e+02" nEvuw="1.2190000000000000e+03" sepI="2.1707880496978760e-01" sepG="-1.0000000000000000e+00" res="2.5059676263481379e-03" rms="4.6591717004776001e-01" nType="-1" CC="0.0000000000000000e+00"/>
          <Node pos="r" depth="2" Seq="3" IVar="-1" Cut="0.0000000000000000e+00" cType="1" nS="3.1551889038085938e+02" nB="2.2898789062500000e+03" nEv="2.6053979492187500e+03" nSuw="2.6500000000000000e+02" nBuw="1.9780000000000000e+03" nEvuw="2.2430000000000000e+03" sepI="9.7857087850570679e-02" sepG="-1.0000000000000000e+00" res="-3.5386428236961365e-02" rms="3.1282117962837219e-01" nType="-1" CC="0.0000000000000000e+00"/>
        </Node>
      </Node>
    </BinaryTree>
    <BinaryTree type="DecisionTree" boostWeight="1.0000000000000000e+00" itree="7">
      <Node pos="s" depth="0" Seq="0" IVar="14" Cut="7.0964515209197998e-01" cType="0" nS="1.0409862500000000e+05" nB="4.9428183593750000e+03" nEv="1.0904144531250000e+05" nSuw="1.0410100000000000e+05" nBuw="4.9010000000000000e+03" nEvuw="1.0900200000000000e+05" sepI="3.0773373320698738e-02" sepG="7.9406034201383591e-03" res="2.8377062082290649e-01" rms="1.7542341351509094e-01" nType="0" CC="0.0000000000000000e+00">
        <Node pos="l" depth="1" Seq="0" IVar="-1" Cut="0.0000000000000000e+00" cType="1" nS="1.0203663281250000e+05" nB="1.5175943603515625e+03" nEv="1.0355422656250000e+05" nSuw="1.0239800000000000e+05" nBuw="1.5690000000000000e+03" nEvuw="1.0396700000000000e+05" sepI="1.4440299011766911e-02" sepG="-1.0000000000000000e+00" res="4.6066351234912872e-02" rms="1.2016779184341431e-01" nType="1" CC="0.0000000000000000e+00"/>
        <Node pos="r" depth="1" Seq="1" IVar="5" Cut="2.0767571032047272e-01" cType="0" nS="2.0619948730468750e+03" nB="3.4252236328125000e+03" nEv="5.4872187500000000e+03" nSuw="1.7030000000000000e+03" nBuw="3.3320000000000000e+03" nEvuw="5.0350000000000000e+03" sepI="1.8121460080146790e-01" sepG="2.6294078677892685e-02" res="-1.0333953052759171e-01" rms="4.2569309473037720e-01" nType="0" CC="0.0000000000000000e+00">
          <Node pos="l" depth="2" Seq="1" IVar="-1" Cut="0.0000000000000000e+00" cType="1" nS="1.4730305175781250e+03" nB="7.3410723876953125e+02" nEv="2.2071376953125000e+03" nSuw="1.2300000000000000e+03" nBuw="7.0400000000000000e+02" nEvuw="1.9340000000000000e+03" sepI="1.9739510118961334e-01" sepG="-1.0000000000000000e+00" res="1.1598284356296062e-02" rms="4.4429168105125427e-01" nType="1" CC="0.0000000000000000e+00"/>
          <Node pos="r" depth="2" Seq="3" IVar="-1" Cut="0.0000000000000000e+00" cType="1" nS="5.8896423339843750e+02" nB="2.6911164550781250e+03" nEv="3.2800808105468750e+03" nSuw="4.7300000000000000e+02" nBuw="2.6280000000000000e+03" nEvuw="3.1010000000000000e+03" sepI="1.2633974850177765e-01" sepG="-1.0000000000000000e+00" res="-3.1474322080612183e-02" rms="3.5544303059577942e-01" nType="-1" CC="0.0000000000000000e+00"/>
        </Node>
      </Node>
    </BinaryTree>
    <BinaryTree type="DecisionTree" boostWeight="1.0000000000000000e+00" itree="8">
      <Node pos="s" depth="0" Seq="0" IVar="14" Cut="7.0964515209197998e-01" cType="0" nS="1.0409862500000000e+05" nB="4.9428183593750000e+03" nEv="1.0904144531250000e+05" nSuw="1.0410100000000000e+05" nBuw="4.9010000000000000e+03" nEvuw="1.0900200000000000e+05" sepI="2.9631191864609718e-02" sepG="6.9526736624538898e-03" res="2.6541829109191895e-01" rms="1.7213712632656097e-01" nType="0" CC="0.0000000000000000e+00">
        <Node pos="l" depth="1" Seq="0" IVar="-1" Cut="0.0000000000000000e+00" cType="1" nS="1.0203663281250000e+05" nB="1.5175943603515625e+03" nEv="1.0355422656250000e+05" nSuw="1.0239800000000000e+05" nBuw="1.5690000000000000e+03" nEvuw="1.0396700000000000e+05" sepI="1.4440299011766911e-02" sepG="-1.0000000000000000e+00" res="4.4631451368331909e-02" rms="1.2016779184341431e-01" nType="1" CC="0.0000000000000000e+00"/>
        <Node pos="r" depth="1" Seq="1" IVar="5" Cut="2.0767571032047272e-01" cType="0" nS="2.0619948730468750e+03" nB="3.4252236328125000e+03" nEv="5.4872187500000000e+03" nSuw="1.7030000000000000e+03" nBuw="3.3320000000000000e+03" nEvuw="5.0350000000000000e+03" sepI="1.7814935743808746e-01" sepG="2.3192321881651878e-02" res="-9.6811115741729736e-02" rms="4.2207741737365723e-01" nType="0" CC="0.0000000000000000e+00">
          <Node pos="l" depth="2" Seq="1" IVar="-1" Cut="0.0000000000000000e+00" cType="1" nS="1.4730305175781250e+03" nB="7.3410723876953125e+02" nEv="2.2071376953125000e+03" nSuw="1.2300000000000000e+03" nBuw="7.0400000000000000e+02" nEvuw="1.9340000000000000e+03" sepI="1.9743753969669342e-01" sepG="-1.0000000000000000e+00" res="1.0960135608911514e-02" rms="4.4433945417404175e-01" nType="1" CC="0.0000000000000000e+00"/>
          <Node pos="r" depth="2" Seq="3" IVar="-1" Cut="0.0000000000000000e+00" cType="1" nS="5.8896423339843750e+02" nB="2.6911164550781250e+03" nEv="3.2800808105468750e+03" nSuw="4.7300000000000000e+02" nBuw="2.6280000000000000e+03" nEvuw="3.1010000000000000e+03" sepI="1.2637226283550262e-01" sepG="-1.0000000000000000e+00" res="-2.9876891523599625e-02" rms="3.5548877716064453e-01" nType="-1" CC="0.0000000000000000e+00"/>
        </Node>
      </Node>
    </BinaryTree>
    <BinaryTree type="DecisionTree" boostWeight="1.0000000000000000e+00" itree="9">
      <Node pos="s" depth="0" Seq="0" IVar="14" Cut="-1.4492753744125366e+00" cType="0" nS="1.0409862500000000e+05" nB="4.9428183593750000e+03" nEv="1.0904144531250000e+05" nSuw="1.0410100000000000e+05" nBuw="4.9010000000000000e+03" nEvuw="1.0900200000000000e+05" sepI="2.8631724417209625e-02" sepG="6.1790337786078453e-03" res="2.4827326834201813e-01" rms="1.6920910775661469e-01" nType="0" CC="0.0000000000000000e+00">
        <Node pos="l" depth="1" Seq="0" IVar="-1" Cut="0.0000000000000000e+00" cType="1" nS="1.0340543750000000e+05" nB="2.1671066894531250e+03" nEv="1.0557254687500000e+05" nSuw="1.0355900000000000e+05" nBuw="2.2650000000000000e+03" nEvuw="1.0582400000000000e+05" sepI="1.8714677542448044e-02" sepG="-1.0000000000000000e+00" res="4.2526297271251678e-02" rms="1.3680160045623779e-01" nType="1" CC="0.0000000000000000e+00"/>
        <Node pos="r" depth="1" Seq="1" IVar="6" Cut="1.8987863063812256e+00" cType="1" nS="6.9318682861328125e+02" nB="2.7757114257812500e+03" nEv="3.4688984375000000e+03" nSuw="5.4200000000000000e+02" nBuw="2.6360000000000000e+03" nEvuw="3.1780000000000000e+03" sepI="1.3621550798416138e-01" sepG="1.4071111567318439e-02" res="-1.8537737429141998e-01" rms="3.6907386779785156e-01" nType="0" CC="0.0000000000000000e+00">
          <Node pos="l" depth="2" Seq="1" IVar="-1" Cut="0.0000000000000000e+00" cType="1" nS="4.1749008178710938e+02" nB="5.6819342041015625e+02" nEv="9.8568353271484375e+02" nSuw="3.1300000000000000e+02" nBuw="7.3600000000000000e+02" nEvuw="1.0490000000000000e+03" sepI="2.0532487332820892e-01" sepG="-1.0000000000000000e+00" res="4.1787436930462718e-04" rms="4.5312786102294922e-01" nType="-1" CC="0.0000000000000000e+00"/>
          <Node pos="r" depth="2" Seq="3" IVar="-1" Cut="0.0000000000000000e+00" cType="1" nS="2.7569674682617188e+02" nB="2.2075180664062500e+03" nEv="2.4832148437500000e+03" nSuw="2.2900000000000000e+02" nBuw="1.9000000000000000e+03" nEvuw="2.1290000000000000e+03" sepI="8.9126870036125183e-02" sepG="-1.0000000000000000e+00" res="-3.3354345709085464e-02" rms="2.9854124784469604e-01" nType="-1" CC="0.0000000000000000e+00"/>
        </Node>
      </Node>
    </BinaryTree>
    <BinaryTree type="DecisionTree" boostWeight="1.0000000000000000e+00" itree="10">
      <Node pos="s" depth="0" Seq="0" IVar="14" Cut="9.6951526403427124e-01" cType="0" nS="1.0409862500000000e+05" nB="4.9428183593750000e+03" nEv="1.0904144531250000e+05" nSuw="1.0410100000000000e+05" nBuw="4.9010000000000000e+03" nEvuw="1.0900200000000000e+05" sepI="2.7862047776579857e-02" sepG="5.5565270595252514e-03" res="2.3225085437297821e-01" rms="1.6691929101943970e-01" nType="0" CC="0.0000000000000000e+00">
        <Node pos="l" depth="1" Seq="0" IVar="-1" Cut="0.0000000000000000e+00" cType="1" nS="1.0171737500000000e+05" nB="1.4426878662109375e+03" nEv="1.0316006250000000e+05" nSuw="1.0213100000000000e+05" nBuw="1.4990000000000000e+03" nEvuw="1.0363000000000000e+05" sepI="1.3789365999400616e-02" sepG="-1.0000000000000000e+00" res="4.2344883084297180e-02" rms="1.1742813140153885e-01" nType="1" CC="0.0000000000000000e+00"/>
        <Node pos="r" depth="1" Seq="1" IVar="5" Cut="2.0589324831962585e-01" cType="0" nS="2.3812473144531250e+03" nB="3.5001303710937500e+03" nEv="5.8813779296875000e+03" nSuw="1.9700000000000000e+03" nBuw="3.4020000000000000e+03" nEvuw="5.3720000000000000e+03" sepI="1.7167989909648895e-01" sepG="1.9021902233362198e-02" res="-7.9938426613807678e-02" rms="4.1434273123741150e-01" nType="0" CC="0.0000000000000000e+00">
          <Node pos="l" depth="2" Seq="1" IVar="-1" Cut="0.0000000000000000e+00" cType="1" nS="1.7070229492187500e+03" nB="7.7469915771484375e+02" nEv="2.4817221679687500e+03" nSuw="1.4200000000000000e+03" nBuw="7.3600000000000000e+02" nEvuw="2.1560000000000000e+03" sepI="1.8629960715770721e-01" sepG="-1.0000000000000000e+00" res="1.0347738862037659e-02" rms="4.3162438273429871e-01" nType="1" CC="0.0000000000000000e+00"/>
          <Node pos="r" depth="2" Seq="3" IVar="-1" Cut="0.0000000000000000e+00" cType="1" nS="6.7422436523437500e+02" nB="2.7254311523437500e+03" nEv="3.3996555175781250e+03" nSuw="5.5000000000000000e+02" nBuw="2.6660000000000000e+03" nEvuw="3.2160000000000000e+03" sepI="1.2809987366199493e-01" sepG="-1.0000000000000000e+00" res="-2.7548257261514664e-02" rms="3.5791042447090149e-01" nType="-1" CC="0.0000000000000000e+00"/>
        </Node>
      </Node>
    </BinaryTree>
    <BinaryTree type="DecisionTree" boostWeight="1.0000000000000000e+00" itree="11">
      <Node pos="s" depth="0" Seq="0" IVar="14" Cut="9.8950523138046265e-01" cType="0" nS="1.0409862500000000e+05" nB="4.9428183593750000e+03" nEv="1.0904144531250000e+05" nSuw="1.0410100000000000e+05" nBuw="4.9010000000000000e+03" nEvuw="1.0900200000000000e+05" sepI="2.7052599936723709e-02" sepG="4.8658140003681183e-03" res="2.1726992726325989e-01" rms="1.6447675228118896e-01" nType="0" CC="0.0000000000000000e+00">
        <Node pos="l" depth="1" Seq="0" IVar="-1" Cut="0.0000000000000000e+00" cType="1" nS="1.0168771093750000e+05" nB="1.4365455322265625e+03" nEv="1.0312425781250000e+05" nSuw="1.0210400000000000e+05" nBuw="1.4910000000000000e+03" nEvuw="1.0359500000000000e+05" sepI="1.3736186549067497e-02" sepG="-1.0000000000000000e+00" res="4.1298348456621170e-02" rms="1.1720147728919983e-01" nType="1" CC="0.0000000000000000e+00"/>
        <Node pos="r" depth="1" Seq="1" IVar="5" Cut="2.0589324831962585e-01" cType="0" nS="2.4109140625000000e+03" nB="3.5062727050781250e+03" nEv="5.9171865234375000e+03" nSuw="1.9970000000000000e+03" nBuw="3.4100000000000000e+03" nEvuw="5.4070000000000000e+03" sepI="1.6946315765380859e-01" sepG="1.7038621008396149e-02" res="-7.3936216533184052e-02" rms="4.1165903210639954e-01" nType="0" CC="0.0000000000000000e+00">
          <Node pos="l" depth="2" Seq="1" IVar="-1" Cut="0.0000000000000000e+00" cType="1" nS="1.7332310791015625e+03" nB="7.7579644775390625e+02" nEv="2.5090275878906250e+03" nSuw="1.4440000000000000e+03" nBuw="7.3700000000000000e+02" nEvuw="2.1810000000000000e+03" sepI="1.8492445349693298e-01" sepG="-1.0000000000000000e+00" res="9.9772894755005836e-03" rms="4.3002843856811523e-01" nType="1" CC="0.0000000000000000e+00"/>
          <Node pos="r" depth="2" Seq="3" IVar="-1" Cut="0.0000000000000000e+00" cType="1" nS="6.7768292236328125e+02" nB="2.7304763183593750e+03" nEv="3.4081591796875000e+03" nSuw="5.5300000000000000e+02" nBuw="2.6730000000000000e+03" nEvuw="3.2260000000000000e+03" sepI="1.2849867343902588e-01" sepG="-1.0000000000000000e+00" res="-2.6250043883919716e-02" rms="3.5846710205078125e-01" nType="-1" CC="0.0000000000000000e+00"/>
        </Node>
      </Node>
    </BinaryTree>
    <BinaryTree type="DecisionTree" boostWeight="1.0000000000000000e+00" itree="12">
      <Node pos="s" depth="0" Seq="0" IVar="14" Cut="-1.4492753744125366e+00" cType="0" nS="1.0409862500000000e+05" nB="4.9428183593750000e+03" nEv="1.0904144531250000e+05" nSuw="1.0410100000000000e+05" nBuw="4.9010000000000000e+03" nEvuw="1.0900200000000000e+05" sepI="2.6341577991843224e-02" sepG="4.3294010683894157e-03" res="2.0326654613018036e-01" rms="1.6230088472366333e-01" nType="0" CC="0.0000000000000000e+00">
        <Node pos="l" depth="1" Seq="0" IVar="-1" Cut="0.0000000000000000e+00" cType="1" nS="1.0340543750000000e+05" nB="2.1671066894531250e+03" nEv="1.0557254687500000e+05" nSuw="1.0355900000000000e+05" nBuw="2.2650000000000000e+03" nEvuw="1.0582400000000000e+05" sepI="1.8404703587293625e-02" sepG="-1.0000000000000000e+00" res="3.9306886494159698e-02" rms="1.3566394150257111e-01" nType="1" CC="0.0000000000000000e+00"/>
        <Node pos="r" depth="1" Seq="1" IVar="10" Cut="-1.1558109894394875e-02" cType="0" nS="6.9318682861328125e+02" nB="2.7757114257812500e+03" nEv="3.4688984375000000e+03" nSuw="5.4200000000000000e+02" nBuw="2.6360000000000000e+03" nEvuw="3.1780000000000000e+03" sepI="1.3180209696292877e-01" sepG="1.2291805818676949e-02" res="-1.5972258150577545e-01" rms="3.6304560303688049e-01" nType="0" CC="0.0000000000000000e+00">
          <Node pos="l" depth="2" Seq="1" IVar="-1" Cut="0.0000000000000000e+00" cType="1" nS="3.9502481079101562e+02" nB="4.9357455444335938e+02" nEv="8.8859936523437500e+02" nSuw="3.2400000000000000e+02" nBuw="5.8800000000000000e+02" nEvuw="9.1200000000000000e+02" sepI="1.9592365622520447e-01" sepG="-1.0000000000000000e+00" res="4.2876233346760273e-03" rms="4.4263264536857605e-01" nType="-1" CC="0.0000000000000000e+00"/>
          <Node pos="r" depth="2" Seq="3" IVar="-1" Cut="0.0000000000000000e+00" cType="1" nS="2.9816201782226562e+02" nB="2.2821369628906250e+03" nEv="2.5802990722656250e+03" nSuw="2.1800000000000000e+02" nBuw="2.0480000000000000e+03" nEvuw="2.2660000000000000e+03" sepI="9.3195177614688873e-02" sepG="-1.0000000000000000e+00" res="-3.0353702604770660e-02" rms="3.0527886748313904e-01" nType="-1" CC="0.0000000000000000e+00"/>
        </Node>
      </Node>
    </BinaryTree>
    <BinaryTree type="DecisionTree" boostWeight="1.0000000000000000e+00" itree="13">
      <Node pos="s" depth="0" Seq="0" IVar="14" Cut="1.0894552469253540e+00" cType="0" nS="1.0409862500000000e+05" nB="4.9428183593750000e+03" nEv="1.0904144531250000e+05" nSuw="1.0410100000000000e+05" nBuw="4.9010000000000000e+03" nEvuw="1.0900200000000000e+05" sepI="2.5807574391365051e-02" sepG="3.9169029332697392e-03" res="1.9017834961414337e-01" rms="1.6064736247062683e-01" nType="0" CC="0.0000000000000000e+00">
        <Node pos="l" depth="1" Seq="0" IVar="-1" Cut="0.0000000000000000e+00" cType="1" nS="1.0154099218750000e+05" nB="1.4086538085937500e+03" nEv="1.0294964062500000e+05" nSuw="1.0197900000000000e+05" nBuw="1.4630000000000000e+03" nEvuw="1.0344200000000000e+05" sepI="1.3495717197656631e-02" sepG="-1.0000000000000000e+00" res="3.9520524442195892e-02" rms="1.1617106944322586e-01" nType="1" CC="0.0000000000000000e+00"/>
        <Node pos="r" depth="1" Seq="1" IVar="3" Cut="7.2540002875030041e-03" cType="1" nS="2.5576347656250000e+03" nB="3.5341643066406250e+03" nEv="6.0917993164062500e+03" nSuw="2.1220000000000000e+03" nBuw="3.4380000000000000e+03" nEvuw="5.5600000000000000e+03" sepI="1.6376295685768127e-01" sepG="1.5872238203883171e-02" res="-6.7104615271091461e-02" rms="4.0467634797096252e-01" nType="0" CC="0.0000000000000000e+00">
          <Node pos="l" depth="2" Seq="1" IVar="-1" Cut="0.0000000000000000e+00" cType="1" nS="2.1159169921875000e+03" nB="1.6078630371093750e+03" nEv="3.7237800292968750e+03" nSuw="1.7340000000000000e+03" nBuw="1.7250000000000000e+03" nEvuw="3.4590000000000000e+03" sepI="1.6621172428131104e-01" sepG="-1.0000000000000000e+00" res="4.6986392699182034e-03" rms="4.0769070386886597e-01" nType="1" CC="0.0000000000000000e+00"/>
          <Node pos="r" depth="2" Seq="3" IVar="-1" Cut="0.0000000000000000e+00" cType="1" nS="4.4171789550781250e+02" nB="1.9263012695312500e+03" nEv="2.3680192871093750e+03" nSuw="3.8800000000000000e+02" nBuw="1.7130000000000000e+03" nEvuw="2.1010000000000000e+03" sepI="1.1908040195703506e-01" sepG="-1.0000000000000000e+00" res="-3.0927283689379692e-02" rms="3.4508028626441956e-01" nType="-1" CC="0.0000000000000000e+00"/>
        </Node>
      </Node>
    </BinaryTree>
    <BinaryTree type="DecisionTree" boostWeight="1.0000000000000000e+00" itree="14">
      <Node pos="s" depth="0" Seq="0" IVar="14" Cut="4.6976512670516968e-01" cType="0" nS="1.0409862500000000e+05" nB="4.9428183593750000e+03" nEv="1.0904144531250000e+05" nSuw="1.0410100000000000e+05" nBuw="4.9010000000000000e+03" nEvuw="1.0900200000000000e+05" sepI="2.5228150188922882e-02" sepG="3.4443135373294353e-03" res="1.7791438102722168e-01" rms="1.5883371233940125e-01" nType="0" CC="0.0000000000000000e+00">
        <Node pos="l" depth="1" Seq="0" IVar="-1" Cut="0.0000000000000000e+00" cType="1" nS="1.0228217187500000e+05" nB="1.5909959716796875e+03" nEv="1.0387316406250000e+05" nSuw="1.0261900000000000e+05" nBuw="1.6450000000000000e+03" nEvuw="1.0426400000000000e+05" sepI="1.4890816062688828e-02" sepG="-1.0000000000000000e+00" res="3.8352608680725098e-02" rms="1.2202793359756470e-01" nType="1" CC="0.0000000000000000e+00"/>
        <Node pos="r" depth="1" Seq="1" IVar="10" Cut="-1.1558109894394875e-02" cType="0" nS="1.8164560546875000e+03" nB="3.3518222656250000e+03" nEv="5.1682783203125000e+03" nSuw="1.4820000000000000e+03" nBuw="3.2560000000000000e+03" nEvuw="4.7380000000000000e+03" sepI="1.6032125055789948e-01" sepG="1.3834050856530666e-02" res="-8.5191212594509125e-02" rms="4.0040135383605957e-01" nType="0" CC="0.0000000000000000e+00">
          <Node pos="l" depth="2" Seq="1" IVar="-1" Cut="0.0000000000000000e+00" cType="1" nS="1.2092954101562500e+03" nB="8.3976489257812500e+02" nEv="2.0490603027343750e+03" nSuw="9.9700000000000000e+02" nBuw="9.8600000000000000e+02" nEvuw="1.9830000000000000e+03" sepI="1.8704514205455780e-01" sepG="-1.0000000000000000e+00" res="8.3294184878468513e-03" rms="4.3248715996742249e-01" nType="1" CC="0.0000000000000000e+00"/>
          <Node pos="r" depth="2" Seq="3" IVar="-1" Cut="0.0000000000000000e+00" cType="1" nS="6.0716070556640625e+02" nB="2.5120571289062500e+03" nEv="3.1192180175781250e+03" nSuw="4.8500000000000000e+02" nBuw="2.2700000000000000e+03" nEvuw="2.7550000000000000e+03" sepI="1.1984408646821976e-01" sepG="-1.0000000000000000e+00" res="-2.4832421913743019e-02" rms="3.4618505835533142e-01" nType="-1" CC="0.0000000000000000e+00"/>
        </Node>
      </Node>
    </BinaryTree>
    <BinaryTree type="DecisionTree" boostWeight="1.0000000000000000e+00" itree="15">
      <Node pos="s" depth="0" Seq="0" IVar="14" Cut="1.0894552469253540e+00" cType="0" nS="1.0409862500000000e+05" nB="4.9428183593750000e+03" nEv="1.0904144531250000e+05" nSuw="1.0410100000000000e+05" nBuw="4.9010000000000000e+03" nEvuw="1.0900200000000000e+05" sepI="2.4745034053921700e-02" sepG="3.0669167172163725e-03" res="1.6645120084285736e-01" rms="1.5730553865432739e-01" nType="0" CC="0.0000000000000000e+00">
        <Node pos="l" depth="1" Seq="0" IVar="-1" Cut="0.0000000000000000e+00" cType="1" nS="1.0154099218750000e+05" nB="1.4086538085937500e+03" nEv="1.0294964062500000e+05" nSuw="1.0197900000000000e+05" nBuw="1.4630000000000000e+03" nEvuw="1.0344200000000000e+05" sepI="1.3495718128979206e-02" sepG="-1.0000000000000000e+00" res="3.7936251610517502e-02" rms="1.1617106944322586e-01" nType="1" CC="0.0000000000000000e+00"/>
        <Node pos="r" depth="1" Seq="1" IVar="3" Cut="7.2540002875030041e-03" cType="1" nS="2.5576347656250000e+03" nB="3.5341643066406250e+03" nEv="6.0917993164062500e+03" nSuw="2.1220000000000000e+03" nBuw="3.4380000000000000e+03" nEvuw="5.5600000000000000e+03" sepI="1.5995831787586212e-01" sepG="1.3655076734721661e-02" res="-6.1210840940475464e-02" rms="3.9994788169860840e-01" nType="0" CC="0.0000000000000000e+00">
          <Node pos="l" depth="2" Seq="1" IVar="-1" Cut="0.0000000000000000e+00" cType="1" nS="2.1159169921875000e+03" nB="1.6078630371093750e+03" nEv="3.7237800292968750e+03" nSuw="1.7340000000000000e+03" nBuw="1.7250000000000000e+03" nEvuw="3.4590000000000000e+03" sepI="1.6388148069381714e-01" sepG="-1.0000000000000000e+00" res="4.5595970004796982e-03" rms="4.0482276678085327e-01" nType="1" CC="0.0000000000000000e+00"/>
          <Node pos="r" depth="2" Seq="3" IVar="-1" Cut="0.0000000000000000e+00" cType="1" nS="4.4171789550781250e+02" nB="1.9263012695312500e+03" nEv="2.3680192871093750e+03" nSuw="3.8800000000000000e+02" nBuw="1.7130000000000000e+03" nEvuw="2.1010000000000000e+03" sepI="1.1866092681884766e-01" sepG="-1.0000000000000000e+00" res="-2.9264679178595543e-02" rms="3.4447196125984192e-01" nType="-1" CC="0.0000000000000000e+00"/>
        </Node>
      </Node>
    </BinaryTree>
    <BinaryTree type="DecisionTree" boostWeight="1.0000000000000000e+00" itree="16">
      <Node pos="s" depth="0" Seq="0" IVar="14" Cut="-1.4492753744125366e+00" cType="0" nS="1.0409862500000000e+05" nB="4.9428183593750000e+03" nEv="1.0904144531250000e+05" nSuw="1.0410100000000000e+05" nBuw="4.9010000000000000e+03" nEvuw="1.0900200000000000e+05" sepI="2.4284113198518753e-02" sepG="2.7449419721961021e-03" res="1.5572741627693176e-01" rms="1.5583361685276031e-01" nType="0" CC="0.0000000000000000e+00">
        <Node pos="l" depth="1" Seq="0" IVar="-1" Cut="0.0000000000000000e+00" cType="1" nS="1.0340543750000000e+05" nB="2.1671066894531250e+03" nEv="1.0557254687500000e+05" nSuw="1.0355900000000000e+05" nBuw="2.2650000000000000e+03" nEvuw="1.0582400000000000e+05" sepI="1.8069379031658173e-02" sepG="-1.0000000000000000e+00" res="3.6012265831232071e-02" rms="1.3442239165306091e-01" nType="1" CC="0.0000000000000000e+00"/>
        <Node pos="r" depth="1" Seq="1" IVar="6" Cut="1.8987863063812256e+00" cType="1" nS="6.9318682861328125e+02" nB="2.7757114257812500e+03" nEv="3.4688984375000000e+03" nSuw="5.4200000000000000e+02" nBuw="2.6360000000000000e+03" nEvuw="3.1780000000000000e+03" sepI="1.2713897228240967e-01" sepG="9.9864117801189423e-03" res="-1.3330483436584473e-01" rms="3.5656553506851196e-01" nType="0" CC="0.0000000000000000e+00">
          <Node pos="l" depth="2" Seq="1" IVar="-1" Cut="0.0000000000000000e+00" cType="1" nS="4.1749008178710938e+02" nB="5.6819342041015625e+02" nEv="9.8568353271484375e+02" nSuw="3.1300000000000000e+02" nBuw="7.3600000000000000e+02" nEvuw="1.0490000000000000e+03" sepI="1.9407570362091064e-01" sepG="-1.0000000000000000e+00" res="3.7666819989681244e-03" rms="4.4054025411605835e-01" nType="-1" CC="0.0000000000000000e+00"/>
          <Node pos="r" depth="2" Seq="3" IVar="-1" Cut="0.0000000000000000e+00" cType="1" nS="2.7569674682617188e+02" nB="2.2075180664062500e+03" nEv="2.4832148437500000e+03" nSuw="2.2900000000000000e+02" nBuw="1.9000000000000000e+03" nEvuw="2.1290000000000000e+03" sepI="8.6618803441524506e-02" sepG="-1.0000000000000000e+00" res="-2.8065845370292664e-02" rms="2.9431071877479553e-01" nType="-1" CC="0.0000000000000000e+00"/>
        </Node>
      </Node>
    </BinaryTree>
    <BinaryTree type="DecisionTree" boostWeight="1.0000000000000000e+00" itree="17">
      <Node pos="s" depth="0" Seq="0" IVar="14" Cut="1.2693653106689453e+00" cType="0" nS="1.0409862500000000e+05" nB="4.9428183593750000e+03" nEv="1.0904144531250000e+05" nSuw="1.0410100000000000e+05" nBuw="4.9010000000000000e+03" nEvuw="1.0900200000000000e+05" sepI="2.3954987525939941e-02" sepG="2.4957649875432253e-03" res="1.4571964740753174e-01" rms="1.5477398037910461e-01" nType="0" CC="0.0000000000000000e+00">
        <Node pos="l" depth="1" Seq="0" IVar="-1" Cut="0.0000000000000000e+00" cType="1" nS="1.0125233593750000e+05" nB="1.3689285888671875e+03" nEv="1.0262125781250000e+05" nSuw="1.0172800000000000e+05" nBuw="1.4170000000000000e+03" nEvuw="1.0314500000000000e+05" sepI="1.3161674141883850e-02" sepG="-1.0000000000000000e+00" res="3.6659460514783859e-02" rms="1.1472433805465698e-01" nType="1" CC="0.0000000000000000e+00"/>
        <Node pos="r" depth="1" Seq="1" IVar="5" Cut="2.5761902332305908e-01" cType="0" nS="2.8462927246093750e+03" nB="3.5738896484375000e+03" nEv="6.4201821289062500e+03" nSuw="2.3730000000000000e+03" nBuw="3.4840000000000000e+03" nEvuw="5.8570000000000000e+03" sepI="1.5408860146999359e-01" sepG="1.2218018993735313e-02" res="-5.4011970758438110e-02" rms="3.9254119992256165e-01" nType="0" CC="0.0000000000000000e+00">
          <Node pos="l" depth="2" Seq="1" IVar="-1" Cut="0.0000000000000000e+00" cType="1" nS="1.9439597167968750e+03" nB="7.1258435058593750e+02" nEv="2.6565439453125000e+03" nSuw="1.6110000000000000e+03" nBuw="6.7800000000000000e+02" nEvuw="2.2890000000000000e+03" sepI="1.5821915864944458e-01" sepG="-1.0000000000000000e+00" res="1.0724659077823162e-02" rms="3.9776772260665894e-01" nType="1" CC="0.0000000000000000e+00"/>
          <Node pos="r" depth="2" Seq="3" IVar="-1" Cut="0.0000000000000000e+00" cType="1" nS="9.0233306884765625e+02" nB="2.8613051757812500e+03" nEv="3.7636384277343750e+03" nSuw="7.6200000000000000e+02" nBuw="2.8060000000000000e+03" nEvuw="3.5680000000000000e+03" sepI="1.3033103942871094e-01" sepG="-1.0000000000000000e+00" res="-2.2799132391810417e-02" rms="3.6101388931274414e-01" nType="-1" CC="0.0000000000000000e+00"/>
        </Node>
      </Node>
    </BinaryTree>
    <BinaryTree type="DecisionTree" boostWeight="1.0000000000000000e+00" itree="18">
      <Node pos="s" depth="0" Seq="0" IVar="14" Cut="1.0894552469253540e+00" cType="0" nS="1.0409862500000000e+05" nB="4.9428183593750000e+03" nEv="1.0904144531250000e+05" nSuw="1.0410100000000000e+05" nBuw="4.9010000000000000e+03" nEvuw="1.0900200000000000e+05" sepI="2.3561974987387657e-02" sepG="2.1879854612052441e-03" res="1.3635590672492981e-01" rms="1.5349911153316498e-01" nType="0" CC="0.0000000000000000e+00">
        <Node pos="l" depth="1" Seq="0" IVar="-1" Cut="0.0000000000000000e+00" cType="1" nS="1.0154099218750000e+05" nB="1.4086538085937500e+03" nEv="1.0294964062500000e+05" nSuw="1.0197900000000000e+05" nBuw="1.4630000000000000e+03" nEvuw="1.0344200000000000e+05" sepI="1.3486171141266823e-02" sepG="-1.0000000000000000e+00" res="3.5926599055528641e-02" rms="1.1612997949123383e-01" nType="1" CC="0.0000000000000000e+00"/>
        <Node pos="r" depth="1" Seq="1" IVar="3" Cut="7.2540002875030041e-03" cType="1" nS="2.5576347656250000e+03" nB="3.5341643066406250e+03" nEv="6.0917993164062500e+03" nSuw="2.1220000000000000e+03" nBuw="3.4380000000000000e+03" nEvuw="5.5600000000000000e+03" sepI="1.5467584133148193e-01" sepG="1.1129697784781456e-02" res="-5.5936370044946671e-02" rms="3.9328849315643311e-01" nType="0" CC="0.0000000000000000e+00">
          <Node pos="l" depth="2" Seq="1" IVar="-1" Cut="0.0000000000000000e+00" cType="1" nS="2.1159169921875000e+03" nB="1.6078630371093750e+03" nEv="3.7237800292968750e+03" nSuw="1.7340000000000000e+03" nBuw="1.7250000000000000e+03" nEvuw="3.4590000000000000e+03" sepI="1.5976727008819580e-01" sepG="-1.0000000000000000e+00" res="4.1332482360303402e-03" rms="3.9970898628234863e-01" nType="1" CC="0.0000000000000000e+00"/>
          <Node pos="r" depth="2" Seq="3" IVar="-1" Cut="0.0000000000000000e+00" cType="1" nS="4.4171789550781250e+02" nB="1.9263012695312500e+03" nEv="2.3680192871093750e+03" nSuw="3.8800000000000000e+02" nBuw="1.7130000000000000e+03" nEvuw="2.1010000000000000e+03" sepI="1.1803793907165527e-01" sepG="-1.0000000000000000e+00" res="-2.7710502967238426e-02" rms="3.4356650710105896e-01" nType="-1" CC="0.0000000000000000e+00"/>
        </Node>
      </Node>
    </BinaryTree>
    <BinaryTree type="DecisionTree" boostWeight="1.0000000000000000e+00" itree="19">
      <Node pos="s" depth="0" Seq="0" IVar="14" Cut="-1.7891054153442383e+00" cType="0" nS="1.0409862500000000e+05" nB="4.9428183593750000e+03" nEv="1.0904144531250000e+05" nSuw="1.0410100000000000e+05" nBuw="4.9010000000000000e+03" nEvuw="1.0900200000000000e+05" sepI="2.3224795237183571e-02" sepG="1.9483418436720967e-03" res="1.2757888436317444e-01" rms="1.5239684283733368e-01" nType="0" CC="0.0000000000000000e+00">
        <Node pos="l" depth="1" Seq="0" IVar="-1" Cut="0.0000000000000000e+00" cType="1" nS="1.0349367968750000e+05" nB="2.2954399414062500e+03" nEv="1.0578911718750000e+05" nSuw="1.0362200000000000e+05" nBuw="2.3950000000000000e+03" nEvuw="1.0601700000000000e+05" sepI="1.8321024253964424e-02" sepG="-1.0000000000000000e+00" res="3.3849351108074188e-02" rms="1.3535517454147339e-01" nType="1" CC="0.0000000000000000e+00"/>
        <Node pos="r" depth="1" Seq="1" IVar="6" Cut="1.8987863063812256e+00" cType="1" nS="6.0494714355468750e+02" nB="2.6473784179687500e+03" nEv="3.2523254394531250e+03" nSuw="4.7900000000000000e+02" nBuw="2.5060000000000000e+03" nEvuw="2.9850000000000000e+03" sepI="1.1740838736295700e-01" sepG="8.9854421094059944e-03" res="-1.2416335195302963e-01" rms="3.4264907240867615e-01" nType="0" CC="0.0000000000000000e+00">
          <Node pos="l" depth="2" Seq="1" IVar="-1" Cut="0.0000000000000000e+00" cType="1" nS="3.6349847412109375e+02" nB="4.9803604125976562e+02" nEv="8.6153454589843750e+02" nSuw="2.7300000000000000e+02" nBuw="6.4900000000000000e+02" nEvuw="9.2200000000000000e+02" sepI="1.8879579007625580e-01" sepG="-1.0000000000000000e+00" res="5.1197176799178123e-03" rms="4.3450638651847839e-01" nType="-1" CC="0.0000000000000000e+00"/>
          <Node pos="r" depth="2" Seq="3" IVar="-1" Cut="0.0000000000000000e+00" cType="1" nS="2.4144868469238281e+02" nB="2.1493422851562500e+03" nEv="2.3907910156250000e+03" nSuw="2.0600000000000000e+02" nBuw="1.8570000000000000e+03" nEvuw="2.0630000000000000e+03" sepI="7.9460151493549347e-02" sepG="-1.0000000000000000e+00" res="-2.7725582942366600e-02" rms="2.8188678622245789e-01" nType="-1" CC="0.0000000000000000e+00"/>
        </Node>
      </Node>
    </BinaryTree>
    <BinaryTree type="DecisionTree" boostWeight="1.0000000000000000e+00" itree="20">
      <Node pos="s" depth="0" Seq="0" IVar="14" Cut="1.2693653106689453e+00" cType="0" nS="1.0409862500000000e+05" nB="4.9428183593750000e+03" nEv="1.0904144531250000e+05" nSuw="1.0410100000000000e+05" nBuw="4.9010000000000000e+03" nEvuw="1.0900200000000000e+05" sepI="2.2999569773674011e-02" sepG="1.8112963298335671e-03" res="1.1939253658056259e-01" rms="1.5165609121322632e-01" nType="0" CC="0.0000000000000000e+00">
        <Node pos="l" depth="1" Seq="0" IVar="-1" Cut="0.0000000000000000e+00" cType="1" nS="1.0125233593750000e+05" nB="1.3689285888671875e+03" nEv="1.0262125781250000e+05" nSuw="1.0172800000000000e+05" nBuw="1.4170000000000000e+03" nEvuw="1.0314500000000000e+05" sepI="1.3161675073206425e-02" sepG="-1.0000000000000000e+00" res="3.4866128116846085e-02" rms="1.1472434550523758e-01" nType="1" CC="0.0000000000000000e+00"/>
        <Node pos="r" depth="1" Seq="1" IVar="5" Cut="2.5761902332305908e-01" cType="0" nS="2.8462927246093750e+03" nB="3.5738896484375000e+03" nEv="6.4201821289062500e+03" nSuw="2.3730000000000000e+03" nBuw="3.4840000000000000e+03" nEvuw="5.8570000000000000e+03" sepI="1.4948676526546478e-01" sepG="9.6477996557950974e-03" res="-5.0760515034198761e-02" rms="3.8663518428802490e-01" nType="0" CC="0.0000000000000000e+00">
          <Node pos="l" depth="2" Seq="1" IVar="-1" Cut="0.0000000000000000e+00" cType="1" nS="1.9439597167968750e+03" nB="7.1258435058593750e+02" nEv="2.6565439453125000e+03" nSuw="1.6110000000000000e+03" nBuw="6.7800000000000000e+02" nEvuw="2.2890000000000000e+03" sepI="1.5599690377712250e-01" sepG="-1.0000000000000000e+00" res="9.4374278560280800e-03" rms="3.9496442675590515e-01" nType="1" CC="0.0000000000000000e+00"/>
          <Node pos="r" depth="2" Seq="3" IVar="-1" Cut="0.0000000000000000e+00" cType="1" nS="9.0233306884765625e+02" nB="2.8613051757812500e+03" nEv="3.7636384277343750e+03" nSuw="7.6200000000000000e+02" nBuw="2.8060000000000000e+03" nEvuw="3.5680000000000000e+03" sepI="1.2843397259712219e-01" sepG="-1.0000000000000000e+00" res="-2.1537350490689278e-02" rms="3.5837686061859131e-01" nType="-1" CC="0.0000000000000000e+00"/>
        </Node>
      </Node>
    </BinaryTree>
    <BinaryTree type="DecisionTree" boostWeight="1.0000000000000000e+00" itree="21">
      <Node pos="s" depth="0" Seq="0" IVar="14" Cut="2.1689155101776123e+00" cType="0" nS="1.0409862500000000e+05" nB="4.9428183593750000e+03" nEv="1.0904144531250000e+05" nSuw="1.0410100000000000e+05" nBuw="4.9010000000000000e+03" nEvuw="1.0900200000000000e+05" sepI="2.2709850221872330e-02" sepG="1.6004991484805942e-03" res="1.1172639578580856e-01" rms="1.5069788694381714e-01" nType="0" CC="0.0000000000000000e+00">
        <Node pos="l" depth="1" Seq="0" IVar="-1" Cut="0.0000000000000000e+00" cType="1" nS="9.8952304687500000e+04" nB="1.1340500488281250e+03" nEv="1.0008635156250000e+05" nSuw="9.9707000000000000e+04" nBuw="1.1650000000000000e+03" nEvuw="1.0087200000000000e+05" sepI="1.1202330701053143e-02" sepG="-1.0000000000000000e+00" res="3.5011477768421173e-02" rms="1.0584106296300888e-01" nType="1" CC="0.0000000000000000e+00"/>
        <Node pos="r" depth="1" Seq="1" IVar="3" Cut="1.7325671389698982e-02" cType="1" nS="5.1463217773437500e+03" nB="3.8087680664062500e+03" nEv="8.9550898437500000e+03" nSuw="4.3940000000000000e+03" nBuw="3.7360000000000000e+03" nEvuw="8.1300000000000000e+03" sepI="1.3183495402336121e-01" sepG="8.7904185056686401e-03" res="-2.2019419819116592e-02" rms="3.6309081315994263e-01" nType="0" CC="0.0000000000000000e+00">
          <Node pos="l" depth="2" Seq="1" IVar="-1" Cut="0.0000000000000000e+00" cType="1" nS="4.6117905273437500e+03" nB="2.0742661132812500e+03" nEv="6.6860566406250000e+03" nSuw="4.0060000000000000e+03" nBuw="2.1160000000000000e+03" nEvuw="6.1220000000000000e+03" sepI="1.2299624830484390e-01" sepG="-1.0000000000000000e+00" res="5.7360394857823849e-03" rms="3.5070821642875671e-01" nType="1" CC="0.0000000000000000e+00"/>
          <Node pos="r" depth="2" Seq="3" IVar="-1" Cut="0.0000000000000000e+00" cType="1" nS="5.3453094482421875e+02" nB="1.7345020751953125e+03" nEv="2.2690329589843750e+03" nSuw="3.8800000000000000e+02" nBuw="1.6200000000000000e+03" nEvuw="2.0080000000000000e+03" sepI="1.2318679690361023e-01" sepG="-1.0000000000000000e+00" res="-2.9853861778974533e-02" rms="3.5097977519035339e-01" nType="-1" CC="0.0000000000000000e+00"/>
        </Node>
      </Node>
    </BinaryTree>
    <BinaryTree type="DecisionTree" boostWeight="1.0000000000000000e+00" itree="22">
      <Node pos="s" depth="0" Seq="0" IVar="14" Cut="1.2693653106689453e+00" cType="0" nS="1.0409862500000000e+05" nB="4.9428183593750000e+03" nEv="1.0904144531250000e+05" nSuw="1.0410100000000000e+05" nBuw="4.9010000000000000e+03" nEvuw="1.0900200000000000e+05" sepI="2.2428054362535477e-02" sepG="1.4072179328650236e-03" res="1.0451646894216537e-01" rms="1.4975999295711517e-01" nType="0" CC="0.0000000000000000e+00">
        <Node pos="l" depth="1" Seq="0" IVar="-1" Cut="0.0000000000000000e+00" cType="1" nS="1.0125233593750000e+05" nB="1.3689285888671875e+03" nEv="1.0262125781250000e+05" nSuw="1.0172800000000000e+05" nBuw="1.4170000000000000e+03" nEvuw="1.0314500000000000e+05" sepI="1.3125442899763584e-02" sepG="-1.0000000000000000e+00" res="3.3769462257623672e-02" rms="1.1456632614135742e-01" nType="1" CC="0.0000000000000000e+00"/>
        <Node pos="r" depth="1" Seq="1" IVar="5" Cut="2.0589324831962585e-01" cType="0" nS="2.8462927246093750e+03" nB="3.5738896484375000e+03" nEv="6.4201821289062500e+03" nSuw="2.3730000000000000e+03" nBuw="3.4840000000000000e+03" nEvuw="5.8570000000000000e+03" sepI="1.4722213149070740e-01" sepG="8.1935012713074684e-03" res="-4.5460876077413559e-02" rms="3.8369536399841309e-01" nType="0" CC="0.0000000000000000e+00">
          <Node pos="l" depth="2" Seq="1" IVar="-1" Cut="0.0000000000000000e+00" cType="1" nS="2.0626040039062500e+03" nB="8.0003472900390625e+02" nEv="2.8626386718750000e+03" nSuw="1.7130000000000000e+03" nBuw="7.6100000000000000e+02" nEvuw="2.4740000000000000e+03" sepI="1.5758615732192993e-01" sepG="-1.0000000000000000e+00" res="7.9754861071705818e-03" rms="3.9697122573852539e-01" nType="1" CC="0.0000000000000000e+00"/>
          <Node pos="r" depth="2" Seq="3" IVar="-1" Cut="0.0000000000000000e+00" cType="1" nS="7.8368878173828125e+02" nB="2.7738547363281250e+03" nEv="3.5575437011718750e+03" nSuw="6.6000000000000000e+02" nBuw="2.7230000000000000e+03" nEvuw="3.3830000000000000e+03" sepI="1.2409598380327225e-01" sepG="-1.0000000000000000e+00" res="-2.1043391898274422e-02" rms="3.5227259993553162e-01" nType="-1" CC="0.0000000000000000e+00"/>
        </Node>
      </Node>
    </BinaryTree>
    <BinaryTree type="DecisionTree" boostWeight="1.0000000000000000e+00" itree="23">
      <Node pos="s" depth="0" Seq="0" IVar="14" Cut="2.1689155101776123e+00" cType="0" nS="1.0409862500000000e+05" nB="4.9428183593750000e+03" nEv="1.0904144531250000e+05" nSuw="1.0410100000000000e+05" nBuw="4.9010000000000000e+03" nEvuw="1.0900200000000000e+05" sepI="2.2200362756848335e-02" sepG="1.2577399611473083e-03" res="9.7809709608554840e-02" rms="1.4899785816669464e-01" nType="0" CC="0.0000000000000000e+00">
        <Node pos="l" depth="1" Seq="0" IVar="-1" Cut="0.0000000000000000e+00" cType="1" nS="9.8952304687500000e+04" nB="1.1340500488281250e+03" nEv="1.0008635156250000e+05" nSuw="9.9707000000000000e+04" nBuw="1.1650000000000000e+03" nEvuw="1.0087200000000000e+05" sepI="1.1202330701053143e-02" sepG="-1.0000000000000000e+00" res="3.4001909196376801e-02" rms="1.0584106296300888e-01" nType="1" CC="0.0000000000000000e+00"/>
        <Node pos="r" depth="1" Seq="1" IVar="3" Cut="7.2540002875030041e-03" cType="1" nS="5.1463217773437500e+03" nB="3.8087680664062500e+03" nEv="8.9550898437500000e+03" nSuw="4.3940000000000000e+03" nBuw="3.7360000000000000e+03" nEvuw="8.1300000000000000e+03" sepI="1.2980477511882782e-01" sepG="7.4976794421672821e-03" res="-2.0752932876348495e-02" rms="3.6028429865837097e-01" nType="0" CC="0.0000000000000000e+00">
          <Node pos="l" depth="2" Seq="1" IVar="-1" Cut="0.0000000000000000e+00" cType="1" nS="4.3403125000000000e+03" nB="1.7707543945312500e+03" nEv="6.1110668945312500e+03" nSuw="3.6920000000000000e+03" nBuw="1.9100000000000000e+03" nEvuw="5.6020000000000000e+03" sepI="1.1970889568328857e-01" sepG="-1.0000000000000000e+00" res="6.9186883047223091e-03" rms="3.4598973393440247e-01" nType="1" CC="0.0000000000000000e+00"/>
          <Node pos="r" depth="2" Seq="3" IVar="-1" Cut="0.0000000000000000e+00" cType="1" nS="8.0600891113281250e+02" nB="2.0380137939453125e+03" nEv="2.8440227050781250e+03" nSuw="7.0200000000000000e+02" nBuw="1.8260000000000000e+03" nEvuw="2.5280000000000000e+03" sepI="1.2788997590541840e-01" sepG="-1.0000000000000000e+00" res="-2.4797759950160980e-02" rms="3.5761708021163940e-01" nType="-1" CC="0.0000000000000000e+00"/>
        </Node>
      </Node>
    </BinaryTree>
    <BinaryTree type="DecisionTree" boostWeight="1.0000000000000000e+00" itree="24">
      <Node pos="s" depth="0" Seq="0" IVar="14" Cut="-1.7891054153442383e+00" cType="0" nS="1.0409862500000000e+05" nB="4.9428183593750000e+03" nEv="1.0904144531250000e+05" nSuw="1.0410100000000000e+05" nBuw="4.9010000000000000e+03" nEvuw="1.0900200000000000e+05" sepI="2.1973831579089165e-02" sepG="1.1370172724127769e-03" res="9.1498240828514099e-02" rms="1.4823572337627411e-01" nType="0" CC="0.0000000000000000e+00">
        <Node pos="l" depth="1" Seq="0" IVar="-1" Cut="0.0000000000000000e+00" cType="1" nS="1.0349367968750000e+05" nB="2.2954399414062500e+03" nEv="1.0578911718750000e+05" nSuw="1.0362200000000000e+05" nBuw="2.3950000000000000e+03" nEvuw="1.0601700000000000e+05" sepI="1.7974570393562317e-02" sepG="-1.0000000000000000e+00" res="3.0897704884409904e-02" rms="1.3406927883625031e-01" nType="1" CC="0.0000000000000000e+00"/>
        <Node pos="r" depth="1" Seq="1" IVar="6" Cut="1.8987863063812256e+00" cType="1" nS="6.0494714355468750e+02" nB="2.6473784179687500e+03" nEv="3.2523254394531250e+03" nSuw="4.7900000000000000e+02" nBuw="2.5060000000000000e+03" nEvuw="2.9850000000000000e+03" sepI="1.1393767595291138e-01" sepG="7.9631721600890160e-03" res="-1.0081404447555542e-01" rms="3.3754655718803406e-01" nType="0" CC="0.0000000000000000e+00">
          <Node pos="l" depth="2" Seq="1" IVar="-1" Cut="0.0000000000000000e+00" cType="1" nS="3.6349847412109375e+02" nB="4.9803604125976562e+02" nEv="8.6153454589843750e+02" nSuw="2.7300000000000000e+02" nBuw="6.4900000000000000e+02" nEvuw="9.2200000000000000e+02" sepI="1.8101142346858978e-01" sepG="-1.0000000000000000e+00" res="7.4928416870534420e-03" rms="4.2545437812805176e-01" nType="-1" CC="0.0000000000000000e+00"/>
          <Node pos="r" depth="2" Seq="3" IVar="-1" Cut="0.0000000000000000e+00" cType="1" nS="2.4144868469238281e+02" nB="2.1493422851562500e+03" nEv="2.3907910156250000e+03" nSuw="2.0600000000000000e+02" nBuw="1.8570000000000000e+03" nEvuw="2.0630000000000000e+03" sepI="7.8934542834758759e-02" sepG="-1.0000000000000000e+00" res="-2.5641683489084244e-02" rms="2.8095290064811707e-01" nType="-1" CC="0.0000000000000000e+00"/>
        </Node>
      </Node>
    </BinaryTree>
    <BinaryTree type="DecisionTree" boostWeight="1.0000000000000000e+00" itree="25">
      <Node pos="s" depth="0" Seq="0" IVar="14" Cut="2.2288856506347656e+00" cType="0" nS="1.0409862500000000e+05" nB="4.9428183593750000e+03" nEv="1.0904144531250000e+05" nSuw="1.0410100000000000e+05" nBuw="4.9010000000000000e+03" nEvuw="1.0900200000000000e+05" sepI="2.1848348900675774e-02" sepG="1.0666527086868882e-03" res="8.5634231567382812e-02" rms="1.4781187474727631e-01" nType="0" CC="0.0000000000000000e+00">
        <Node pos="l" depth="1" Seq="0" IVar="-1" Cut="0.0000000000000000e+00" cType="1" nS="9.8753250000000000e+04" nB="1.1182677001953125e+03" nEv="9.9871523437500000e+04" nSuw="9.9522000000000000e+04" nBuw="1.1520000000000000e+03" nEvuw="1.0067400000000000e+05" sepI="1.1071688495576382e-02" sepG="-1.0000000000000000e+00" res="3.3140152692794800e-02" rms="1.0522209107875824e-01" nType="1" CC="0.0000000000000000e+00"/>
        <Node pos="r" depth="1" Seq="1" IVar="3" Cut="1.7325671389698982e-02" cType="1" nS="5.3453725585937500e+03" nB="3.8245505371093750e+03" nEv="9.1699228515625000e+03" nSuw="4.5790000000000000e+03" nBuw="3.7490000000000000e+03" nEvuw="8.3280000000000000e+03" sepI="1.2653538584709167e-01" sepG="6.2398891896009445e-03" res="-2.2148581221699715e-02" rms="3.5571813583374023e-01" nType="0" CC="0.0000000000000000e+00">
          <Node pos="l" depth="2" Seq="1" IVar="-1" Cut="0.0000000000000000e+00" cType="1" nS="4.7924907226562500e+03" nB="2.0889238281250000e+03" nEv="6.8814145507812500e+03" nSuw="4.1770000000000000e+03" nBuw="2.1270000000000000e+03" nEvuw="6.3040000000000000e+03" sepI="1.1941611021757126e-01" sepG="-1.0000000000000000e+00" res="4.3727015145123005e-03" rms="3.4556636214256287e-01" nType="1" CC="0.0000000000000000e+00"/>
          <Node pos="r" depth="2" Seq="3" IVar="-1" Cut="0.0000000000000000e+00" cType="1" nS="5.5288183593750000e+02" nB="1.7356267089843750e+03" nEv="2.2885085449218750e+03" nSuw="4.0200000000000000e+02" nBuw="1.6220000000000000e+03" nEvuw="2.0240000000000000e+03" sepI="1.2293974310159683e-01" sepG="-1.0000000000000000e+00" res="-2.7578964829444885e-02" rms="3.5062763094902039e-01" nType="-1" CC="0.0000000000000000e+00"/>
        </Node>
      </Node>
    </BinaryTree>
    <BinaryTree type="DecisionTree" boostWeight="1.0000000000000000e+00" itree="26">
      <Node pos="s" depth="0" Seq="0" IVar="14" Cut="2.5287356376647949e+00" cType="0" nS="1.0409862500000000e+05" nB="4.9428183593750000e+03" nEv="1.0904144531250000e+05" nSuw="1.0410100000000000e+05" nBuw="4.9010000000000000e+03" nEvuw="1.0900200000000000e+05" sepI="2.1654488518834114e-02" sepG="9.4213843112811446e-04" res="8.0106034874916077e-02" rms="1.4715464413166046e-01" nType="0" CC="0.0000000000000000e+00">
        <Node pos="l" depth="1" Seq="0" IVar="-1" Cut="0.0000000000000000e+00" cType="1" nS="9.7715179687500000e+04" nB="1.0429589843750000e+03" nEv="9.8758140625000000e+04" nSuw="9.8536000000000000e+04" nBuw="1.0690000000000000e+03" nEvuw="9.9605000000000000e+04" sepI="1.0449209250509739e-02" sepG="-1.0000000000000000e+00" res="3.2940067350864410e-02" rms="1.0222137719392776e-01" nType="1" CC="0.0000000000000000e+00"/>
        <Node pos="r" depth="1" Seq="1" IVar="3" Cut="7.2540002875030041e-03" cType="1" nS="6.3834428710937500e+03" nB="3.8998591308593750e+03" nEv="1.0283302734375000e+04" nSuw="5.5650000000000000e+03" nBuw="3.8320000000000000e+03" nEvuw="9.3970000000000000e+03" sepI="1.1927685886621475e-01" sepG="5.4985783062875271e-03" res="-1.5015209093689919e-02" rms="3.4536480903625488e-01" nType="0" CC="0.0000000000000000e+00">
          <Node pos="l" depth="2" Seq="1" IVar="-1" Cut="0.0000000000000000e+00" cType="1" nS="5.4234082031250000e+03" nB="1.8287705078125000e+03" nEv="7.2521787109375000e+03" nSuw="4.7100000000000000e+03" nBuw="1.9740000000000000e+03" nEvuw="6.6840000000000000e+03" sepI="1.0751205682754517e-01" sepG="-1.0000000000000000e+00" res="6.5835663117468357e-03" rms="3.2789030671119690e-01" nType="1" CC="0.0000000000000000e+00"/>
          <Node pos="r" depth="2" Seq="3" IVar="-1" Cut="0.0000000000000000e+00" cType="1" nS="9.6003497314453125e+02" nB="2.0710886230468750e+03" nEv="3.0311235351562500e+03" nSuw="8.5500000000000000e+02" nBuw="1.8580000000000000e+03" nEvuw="2.7130000000000000e+03" sepI="1.2877064943313599e-01" sepG="-1.0000000000000000e+00" res="-2.3346709087491035e-02" rms="3.5884627699851990e-01" nType="-1" CC="0.0000000000000000e+00"/>
        </Node>
      </Node>
    </BinaryTree>
    <BinaryTree type="DecisionTree" boostWeight="1.0000000000000000e+00" itree="27">
      <Node pos="s" depth="0" Seq="0" IVar="14" Cut="-3.2983508706092834e-01" cType="0" nS="1.0409862500000000e+05" nB="4.9428183593750000e+03" nEv="1.0904144531250000e+05" nSuw="1.0410100000000000e+05" nBuw="4.9010000000000000e+03" nEvuw="1.0900200000000000e+05" sepI="2.1477201953530312e-02" sepG="8.3771592471748590e-04" res="7.4932917952537537e-02" rms="1.4655101299285889e-01" nType="0" CC="0.0000000000000000e+00">
        <Node pos="l" depth="1" Seq="0" IVar="-1" Cut="0.0000000000000000e+00" cType="1" nS="1.0291768750000000e+05" nB="1.8241876220703125e+03" nEv="1.0474187500000000e+05" nSuw="1.0315500000000000e+05" nBuw="1.8870000000000000e+03" nEvuw="1.0504200000000000e+05" sepI="1.5881510451436043e-02" sepG="-1.0000000000000000e+00" res="3.0028330162167549e-02" rms="1.2602186203002930e-01" nType="1" CC="0.0000000000000000e+00"/>
        <Node pos="r" depth="1" Seq="1" IVar="6" Cut="1.8877627849578857e+00" cType="1" nS="1.1809383544921875e+03" nB="3.1186306152343750e+03" nEv="4.2995688476562500e+03" nSuw="9.4600000000000000e+02" nBuw="3.0140000000000000e+03" nEvuw="3.9600000000000000e+03" sepI="1.3654859364032745e-01" sepG="8.6282873526215553e-03" res="-6.7922301590442657e-02" rms="3.6952480673789978e-01" nType="0" CC="0.0000000000000000e+00">
          <Node pos="l" depth="2" Seq="1" IVar="-1" Cut="0.0000000000000000e+00" cType="1" nS="7.6690185546875000e+02" nB="7.4592279052734375e+02" nEv="1.5128245849609375e+03" nSuw="5.8700000000000000e+02" nBuw="9.6000000000000000e+02" nEvuw="1.5470000000000000e+03" sepI="1.7851765453815460e-01" sepG="-1.0000000000000000e+00" res="8.6815143004059792e-03" rms="4.2251348495483398e-01" nType="1" CC="0.0000000000000000e+00"/>
          <Node pos="r" depth="2" Seq="3" IVar="-1" Cut="0.0000000000000000e+00" cType="1" nS="4.1403659057617188e+02" nB="2.3727077636718750e+03" nEv="2.7867443847656250e+03" nSuw="3.5900000000000000e+02" nBuw="2.0540000000000000e+03" nEvuw="2.4130000000000000e+03" sepI="1.0045279562473297e-01" sepG="-1.0000000000000000e+00" res="-2.2617748007178307e-02" rms="3.1694290041923523e-01" nType="-1" CC="0.0000000000000000e+00"/>
        </Node>
      </Node>
    </BinaryTree>
    <BinaryTree type="DecisionTree" boostWeight="1.0000000000000000e+00" itree="28">
      <Node pos="s" depth="0" Seq="0" IVar="14" Cut="2.5287356376647949e+00" cType="0" nS="1.0409862500000000e+05" nB="4.9428183593750000e+03" nEv="1.0904144531250000e+05" nSuw="1.0410100000000000e+05" nBuw="4.9010000000000000e+03" nEvuw="1.0900200000000000e+05" sepI="2.1362036466598511e-02" sepG="7.8673911048099399e-04" res="7.0127055048942566e-02" rms="1.4615757763385773e-01" nType="0" CC="0.0000000000000000e+00">
        <Node pos="l" depth="1" Seq="0" IVar="-1" Cut="0.0000000000000000e+00" cType="1" nS="9.7715179687500000e+04" nB="1.0429589843750000e+03" nEv="9.8758140625000000e+04" nSuw="9.8536000000000000e+04" nBuw="1.0690000000000000e+03" nEvuw="9.9605000000000000e+04" sepI="1.0449209250509739e-02" sepG="-1.0000000000000000e+00" res="3.2087083905935287e-02" rms="1.0222137719392776e-01" nType="1" CC="0.0000000000000000e+00"/>
        <Node pos="r" depth="1" Seq="1" IVar="5" Cut="2.0683266222476959e-01" cType="0" nS="6.3834428710937500e+03" nB="3.8998591308593750e+03" nEv="1.0283302734375000e+04" nSuw="5.5650000000000000e+03" nBuw="3.8320000000000000e+03" nEvuw="9.3970000000000000e+03" sepI="1.1782359331846237e-01" sepG="4.9544237554073334e-03" res="-1.6796110197901726e-02" rms="3.4325441718101501e-01" nType="0" CC="0.0000000000000000e+00">
          <Node pos="l" depth="2" Seq="1" IVar="-1" Cut="0.0000000000000000e+00" cType="1" nS="4.7671030273437500e+03" nB="9.6709674072265625e+02" nEv="5.7341997070312500e+03" nSuw="4.1070000000000000e+03" nBuw="9.3200000000000000e+02" nEvuw="5.0390000000000000e+03" sepI="1.0378853976726532e-01" sepG="-1.0000000000000000e+00" res="9.1939400881528854e-03" rms="3.2216230034828186e-01" nType="1" CC="0.0000000000000000e+00"/>
          <Node pos="r" depth="2" Seq="3" IVar="-1" Cut="0.0000000000000000e+00" cType="1" nS="1.6163402099609375e+03" nB="2.9327624511718750e+03" nEv="4.5491025390625000e+03" nSuw="1.4580000000000000e+03" nBuw="2.9000000000000000e+03" nEvuw="4.3580000000000000e+03" sepI="1.2431541830301285e-01" sepG="-1.0000000000000000e+00" res="-1.9013231620192528e-02" rms="3.5258391499519348e-01" nType="-1" CC="0.0000000000000000e+00"/>
        </Node>
      </Node>
    </BinaryTree>
    <BinaryTree type="DecisionTree" boostWeight="1.0000000000000000e+00" itree="29">
      <Node pos="s" depth="0" Seq="0" IVar="14" Cut="2.5287356376647949e+00" cType="0" nS="1.0409862500000000e+05" nB="4.9428183593750000e+03" nEv="1.0904144531250000e+05" nSuw="1.0410100000000000e+05" nBuw="4.9010000000000000e+03" nEvuw="1.0900200000000000e+05" sepI="2.1206727251410484e-02" sepG="6.8643543636426330e-04" res="6.5617755055427551e-02" rms="1.4562529325485229e-01" nType="0" CC="0.0000000000000000e+00">
        <Node pos="l" depth="1" Seq="0" IVar="-1" Cut="0.0000000000000000e+00" cType="1" nS="9.7715179687500000e+04" nB="1.0429589843750000e+03" nEv="9.8758140625000000e+04" nSuw="9.8536000000000000e+04" nBuw="1.0690000000000000e+03" nEvuw="9.9605000000000000e+04" sepI="1.0449210181832314e-02" sepG="-1.0000000000000000e+00" res="3.1651344150304794e-02" rms="1.0222137719392776e-01" nType="1" CC="0.0000000000000000e+00"/>
        <Node pos="r" depth="1" Seq="1" IVar="3" Cut="1.7385620623826981e-02" cType="1" nS="6.3834428710937500e+03" nB="3.8998591308593750e+03" nEv="1.0283302734375000e+04" nSuw="5.5650000000000000e+03" nBuw="3.8320000000000000e+03" nEvuw="9.3970000000000000e+03" sepI="1.1724031716585159e-01" sepG="4.6111634001135826e-03" res="-1.5575507655739784e-02" rms="3.4240373969078064e-01" nType="0" CC="0.0000000000000000e+00">
          <Node pos="l" depth="2" Seq="1" IVar="-1" Cut="0.0000000000000000e+00" cType="1" nS="5.7536425781250000e+03" nB="2.1407985839843750e+03" nEv="7.8944409179687500e+03" nSuw="5.0970000000000000e+03" nBuw="2.1860000000000000e+03" nEvuw="7.2830000000000000e+03" sepI="1.0877693444490433e-01" sepG="-1.0000000000000000e+00" res="4.4880118221044540e-03" rms="3.2981348037719727e-01" nType="1" CC="0.0000000000000000e+00"/>
          <Node pos="r" depth="2" Seq="3" IVar="-1" Cut="0.0000000000000000e+00" cType="1" nS="6.2980041503906250e+02" nB="1.7590606689453125e+03" nEv="2.3888610839843750e+03" nSuw="4.6800000000000000e+02" nBuw="1.6460000000000000e+03" nEvuw="2.1140000000000000e+03" sepI="1.2535953521728516e-01" sepG="-1.0000000000000000e+00" res="-2.5847854092717171e-02" rms="3.5406148433685303e-01" nType="-1" CC="0.0000000000000000e+00"/>
        </Node>
      </Node>
    </BinaryTree>
    <BinaryTree type="DecisionTree" boostWeight="1.0000000000000000e+00" itree="30">
      <Node pos="s" depth="0" Seq="0" IVar="14" Cut="1.0894552469253540e+00" cType="0" nS="1.0409862500000000e+05" nB="4.9428183593750000e+03" nEv="1.0904144531250000e+05" nSuw="1.0410100000000000e+05" nBuw="4.9010000000000000e+03" nEvuw="1.0900200000000000e+05" sepI="2.1069800481200218e-02" sepG="6.0709426179528236e-04" res="6.1378099024295807e-02" rms="1.4515440165996552e-01" nType="0" CC="0.0000000000000000e+00">
        <Node pos="l" depth="1" Seq="0" IVar="-1" Cut="0.0000000000000000e+00" cType="1" nS="1.0154099218750000e+05" nB="1.4086538085937500e+03" nEv="1.0294964062500000e+05" nSuw="1.0197900000000000e+05" nBuw="1.4630000000000000e+03" nEvuw="1.0344200000000000e+05" sepI="1.3287309557199478e-02" sepG="-1.0000000000000000e+00" res="2.9739050194621086e-02" rms="1.1527059227228165e-01" nType="1" CC="0.0000000000000000e+00"/>
        <Node pos="r" depth="1" Seq="1" IVar="10" Cut="-1.1256489902734756e-02" cType="0" nS="2.5576347656250000e+03" nB="3.5341643066406250e+03" nEv="6.0917993164062500e+03" nSuw="2.1220000000000000e+03" nBuw="3.4380000000000000e+03" nEvuw="5.5600000000000000e+03" sepI="1.4172482490539551e-01" sepG="6.1324448324739933e-03" res="-3.9912164211273193e-02" rms="3.7646359205245972e-01" nType="0" CC="0.0000000000000000e+00">
          <Node pos="l" depth="2" Seq="1" IVar="-1" Cut="0.0000000000000000e+00" cType="1" nS="1.7753162841796875e+03" nB="9.5860528564453125e+02" nEv="2.7339216308593750e+03" nSuw="1.4890000000000000e+03" nBuw="1.1130000000000000e+03" nEvuw="2.6020000000000000e+03" sepI="1.5677371621131897e-01" sepG="-1.0000000000000000e+00" res="7.4325366877019405e-03" rms="3.9594662189483643e-01" nType="1" CC="0.0000000000000000e+00"/>
          <Node pos="r" depth="2" Seq="3" IVar="-1" Cut="0.0000000000000000e+00" cType="1" nS="7.8231854248046875e+02" nB="2.5755590820312500e+03" nEv="3.3578776855468750e+03" nSuw="6.3300000000000000e+02" nBuw="2.3250000000000000e+03" nEvuw="2.9580000000000000e+03" sepI="1.1834694445133209e-01" sepG="-1.0000000000000000e+00" res="-1.8865615129470825e-02" rms="3.4401589632034302e-01" nType="-1" CC="0.0000000000000000e+00"/>
        </Node>
      </Node>
    </BinaryTree>
    <BinaryTree type="DecisionTree" boostWeight="1.0000000000000000e+00" itree="31">
      <Node pos="s" depth="0" Seq="0" IVar="14" Cut="2.9885058403015137e+00" cType="0" nS="1.0409862500000000e+05" nB="4.9428183593750000e+03" nEv="1.0904144531250000e+05" nSuw="1.0410100000000000e+05" nBuw="4.9010000000000000e+03" nEvuw="1.0900200000000000e+05" sepI="2.0965307950973511e-02" sepG="5.5684108519926667e-04" res="5.7427629828453064e-02" rms="1.4479401707649231e-01" nType="0" CC="0.0000000000000000e+00">
        <Node pos="l" depth="1" Seq="0" IVar="-1" Cut="0.0000000000000000e+00" cType="1" nS="9.5625164062500000e+04" nB="9.3487127685546875e+02" nEv="9.6560031250000000e+04" nSuw="9.6625000000000000e+04" nBuw="9.5400000000000000e+02" nEvuw="9.7579000000000000e+04" sepI="9.5880255103111267e-03" sepG="-1.0000000000000000e+00" res="3.1303837895393372e-02" rms="9.7918465733528137e-02" nType="1" CC="0.0000000000000000e+00"/>
        <Node pos="r" depth="1" Seq="1" IVar="3" Cut="1.7325671389698982e-02" cType="1" nS="8.4734609375000000e+03" nB="4.0079470214843750e+03" nEv="1.2481408203125000e+04" nSuw="7.4760000000000000e+03" nBuw="3.9470000000000000e+03" nEvuw="1.1423000000000000e+04" sepI="1.0411875694990158e-01" sepG="3.8030161522328854e-03" res="-8.2069262862205505e-03" rms="3.2267436385154724e-01" nType="0" CC="0.0000000000000000e+00">
          <Node pos="l" depth="2" Seq="1" IVar="-1" Cut="0.0000000000000000e+00" cType="1" nS="7.6703686523437500e+03" nB="2.2076306152343750e+03" nEv="9.8779990234375000e+03" nSuw="6.8760000000000000e+03" nBuw="2.2640000000000000e+03" nEvuw="9.1400000000000000e+03" sepI="9.3236207962036133e-02" sepG="-1.0000000000000000e+00" res="5.5060158483684063e-03" rms="3.0534604191780090e-01" nType="1" CC="0.0000000000000000e+00"/>
          <Node pos="r" depth="2" Seq="3" IVar="-1" Cut="0.0000000000000000e+00" cType="1" nS="8.0309246826171875e+02" nB="1.8003162841796875e+03" nEv="2.6034086914062500e+03" nSuw="6.0000000000000000e+02" nBuw="1.6830000000000000e+03" nEvuw="2.2830000000000000e+03" sepI="1.2717728316783905e-01" sepG="-1.0000000000000000e+00" res="-2.5428147986531258e-02" rms="3.5661923885345459e-01" nType="-1" CC="0.0000000000000000e+00"/>
        </Node>
      </Node>
    </BinaryTree>
    <BinaryTree type="DecisionTree" boostWeight="1.0000000000000000e+00" itree="32">
      <Node pos="s" depth="0" Seq="0" IVar="14" Cut="-3.1684157848358154e+00" cType="0" nS="1.0409862500000000e+05" nB="4.9428183593750000e+03" nEv="1.0904144531250000e+05" nSuw="1.0410100000000000e+05" nBuw="4.9010000000000000e+03" nEvuw="1.0900200000000000e+05" sepI="2.0844507962465286e-02" sepG="5.0176499644294381e-04" res="5.3708724677562714e-02" rms="1.4437626302242279e-01" nType="0" CC="0.0000000000000000e+00">
        <Node pos="l" depth="1" Seq="0" IVar="-1" Cut="0.0000000000000000e+00" cType="1" nS="1.0373286718750000e+05" nB="2.7585334472656250e+03" nEv="1.0649140625000000e+05" nSuw="1.0381500000000000e+05" nBuw="2.8510000000000000e+03" nEvuw="1.0666600000000000e+05" sepI="1.8734782934188843e-02" sepG="-1.0000000000000000e+00" res="2.5976175442337990e-02" rms="1.3687506318092346e-01" nType="1" CC="0.0000000000000000e+00"/>
        <Node pos="r" depth="1" Seq="1" IVar="14" Cut="-1.9991590499877930e+01" cType="1" nS="3.6575497436523438e+02" nB="2.1842846679687500e+03" nEv="2.5500395507812500e+03" nSuw="2.8600000000000000e+02" nBuw="2.0500000000000000e+03" nEvuw="2.3360000000000000e+03" sepI="8.7492197751998901e-02" sepG="7.4498904868960381e-03" res="-9.1046415269374847e-02" rms="2.9579079151153564e-01" nType="0" CC="0.0000000000000000e+00">
          <Node pos="l" depth="2" Seq="1" IVar="-1" Cut="0.0000000000000000e+00" cType="1" nS="6.8049720764160156e+01" nB="7.5375628471374512e+00" nEv="7.5587280273437500e+01" nSuw="7.5000000000000000e+01" nBuw="6.0000000000000000e+00" nEvuw="8.1000000000000000e+01" sepI="6.9295354187488556e-02" sepG="-1.0000000000000000e+00" res="6.3587762415409088e-02" rms="2.6324009895324707e-01" nType="1" CC="0.0000000000000000e+00"/>
          <Node pos="r" depth="2" Seq="3" IVar="-1" Cut="0.0000000000000000e+00" cType="1" nS="2.9770526123046875e+02" nB="2.1767470703125000e+03" nEv="2.4744523925781250e+03" nSuw="2.1100000000000000e+02" nBuw="2.0440000000000000e+03" nEvuw="2.2550000000000000e+03" sepI="8.0370597541332245e-02" sepG="-1.0000000000000000e+00" res="-2.0481711253523827e-02" rms="2.8349709510803223e-01" nType="-1" CC="0.0000000000000000e+00"/>
        </Node>
      </Node>
    </BinaryTree>
    <BinaryTree type="DecisionTree" boostWeight="1.0000000000000000e+00" itree="33">
      <Node pos="s" depth="0" Seq="0" IVar="14" Cut="2.5287356376647949e+00" cType="0" nS="1.0409862500000000e+05" nB="4.9428183593750000e+03" nEv="1.0904144531250000e+05" nSuw="1.0410100000000000e+05" nBuw="4.9010000000000000e+03" nEvuw="1.0900200000000000e+05" sepI="2.0801525563001633e-02" sepG="4.9959210446104407e-04" res="5.0277281552553177e-02" rms="1.4422734081745148e-01" nType="0" CC="0.0000000000000000e+00">
        <Node pos="l" depth="1" Seq="0" IVar="-1" Cut="0.0000000000000000e+00" cType="1" nS="9.7715179687500000e+04" nB="1.0429589843750000e+03" nEv="9.8758140625000000e+04" nSuw="9.8536000000000000e+04" nBuw="1.0690000000000000e+03" nEvuw="9.9605000000000000e+04" sepI="1.0440664365887642e-02" sepG="-1.0000000000000000e+00" res="3.0003648251295090e-02" rms="1.0217956453561783e-01" nType="1" CC="0.0000000000000000e+00"/>
        <Node pos="r" depth="1" Seq="1" IVar="5" Cut="2.0683266222476959e-01" cType="0" nS="6.3834428710937500e+03" nB="3.8998591308593750e+03" nEv="1.0283302734375000e+04" nSuw="5.5650000000000000e+03" nBuw="3.8320000000000000e+03" nEvuw="9.3970000000000000e+03" sepI="1.1500698328018188e-01" sepG="3.6888984031975269e-03" res="-1.8989965319633484e-02" rms="3.3912679553031921e-01" nType="0" CC="0.0000000000000000e+00">
          <Node pos="l" depth="2" Seq="1" IVar="-1" Cut="0.0000000000000000e+00" cType="1" nS="4.7671030273437500e+03" nB="9.6709674072265625e+02" nEv="5.7341997070312500e+03" nSuw="4.1070000000000000e+03" nBuw="9.3200000000000000e+02" nEvuw="5.0390000000000000e+03" sepI="1.0210513323545456e-01" sepG="-1.0000000000000000e+00" res="7.4414103291928768e-03" rms="3.1953895092010498e-01" nType="1" CC="0.0000000000000000e+00"/>
          <Node pos="r" depth="2" Seq="3" IVar="-1" Cut="0.0000000000000000e+00" cType="1" nS="1.6163402099609375e+03" nB="2.9327624511718750e+03" nEv="4.5491025390625000e+03" nSuw="1.4580000000000000e+03" nBuw="2.9000000000000000e+03" nEvuw="4.3580000000000000e+03" sepI="1.2293112277984619e-01" sepG="-1.0000000000000000e+00" res="-1.8277132883667946e-02" rms="3.5061535239219666e-01" nType="-1" CC="0.0000000000000000e+00"/>
        </Node>
      </Node>
    </BinaryTree>
    <BinaryTree type="DecisionTree" boostWeight="1.0000000000000000e+00" itree="34">
      <Node pos="s" depth="0" Seq="0" IVar="14" Cut="3.1684157848358154e+00" cType="0" nS="1.0409862500000000e+05" nB="4.9428183593750000e+03" nEv="1.0904144531250000e+05" nSuw="1.0410100000000000e+05" nBuw="4.9010000000000000e+03" nEvuw="1.0900200000000000e+05" sepI="2.0697124302387238e-02" sepG="4.4428164255805314e-04" res="4.7043576836585999e-02" rms="1.4386495947837830e-01" nType="0" CC="0.0000000000000000e+00">
        <Node pos="l" depth="1" Seq="0" IVar="-1" Cut="0.0000000000000000e+00" cType="1" nS="9.4598765625000000e+04" nB="8.8582568359375000e+02" nEv="9.5484585937500000e+04" nSuw="9.5669000000000000e+04" nBuw="9.0100000000000000e+02" nEvuw="9.6570000000000000e+04" sepI="9.1910921037197113e-03" sepG="-1.0000000000000000e+00" res="3.0380258336663246e-02" rms="9.5870181918144226e-02" nType="1" CC="0.0000000000000000e+00"/>
        <Node pos="r" depth="1" Seq="1" IVar="3" Cut="7.7336039394140244e-03" cType="1" nS="9.4998623046875000e+03" nB="4.0569924316406250e+03" nEv="1.3556854492187500e+04" nSuw="8.4320000000000000e+03" nBuw="4.0000000000000000e+03" nEvuw="1.2432000000000000e+04" sepI="9.8163738846778870e-02" sepG="2.9898979701101780e-03" res="-8.8956383988261223e-03" rms="3.1331092119216919e-01" nType="0" CC="0.0000000000000000e+00">
          <Node pos="l" depth="2" Seq="1" IVar="-1" Cut="0.0000000000000000e+00" cType="1" nS="8.1264716796875000e+03" nB="1.9239543457031250e+03" nEv="1.0050425781250000e+04" nSuw="7.1950000000000000e+03" nBuw="2.0830000000000000e+03" nEvuw="9.2780000000000000e+03" sepI="8.4483250975608826e-02" sepG="-1.0000000000000000e+00" res="6.0499501414597034e-03" rms="2.9066002368927002e-01" nType="1" CC="0.0000000000000000e+00"/>
          <Node pos="r" depth="2" Seq="3" IVar="-1" Cut="0.0000000000000000e+00" cType="1" nS="1.3733902587890625e+03" nB="2.1330380859375000e+03" nEv="3.5064284667968750e+03" nSuw="1.2370000000000000e+03" nBuw="1.9170000000000000e+03" nEvuw="3.1540000000000000e+03" sepI="1.2581613659858704e-01" sepG="-1.0000000000000000e+00" res="-2.1753028035163879e-02" rms="3.5470572113990784e-01" nType="-1" CC="0.0000000000000000e+00"/>
        </Node>
      </Node>
    </BinaryTree>
    <BinaryTree type="DecisionTree" boostWeight="1.0000000000000000e+00" itree="35">
      <Node pos="s" depth="0" Seq="0" IVar="5" Cut="1.5748363733291626e-01" cType="0" nS="1.0409862500000000e+05" nB="4.9428183593750000e+03" nEv="1.0904144531250000e+05" nSuw="1.0410100000000000e+05" nBuw="4.9010000000000000e+03" nEvuw="1.0900200000000000e+05" sepI="2.0596526563167572e-02" sepG="3.9766894769854844e-04" res="4.3992895632982254e-02" rms="1.4351490139961243e-01" nType="0" CC="0.0000000000000000e+00">
        <Node pos="l" depth="1" Seq="0" IVar="-1" Cut="0.0000000000000000e+00" cType="1" nS="9.8559335937500000e+04" nB="2.0711296386718750e+03" nEv="1.0063046875000000e+05" nSuw="9.8725000000000000e+04" nBuw="2.0250000000000000e+03" nEvuw="1.0075000000000000e+05" sepI="1.5535816550254822e-02" sepG="-1.0000000000000000e+00" res="2.6063419878482819e-02" rms="1.2464275956153870e-01" nType="1" CC="0.0000000000000000e+00"/>
        <Node pos="r" depth="1" Seq="1" IVar="14" Cut="3.2883558273315430e+00" cType="0" nS="5.5392866210937500e+03" nB="2.8716884765625000e+03" nEv="8.4109755859375000e+03" nSuw="5.3760000000000000e+03" nBuw="2.8760000000000000e+03" nEvuw="8.2520000000000000e+03" sepI="7.5988359749317169e-02" sepG="3.5502361133694649e-03" res="-2.4983802810311317e-02" rms="2.7565985918045044e-01" nType="0" CC="0.0000000000000000e+00">
          <Node pos="l" depth="2" Seq="1" IVar="-1" Cut="0.0000000000000000e+00" cType="1" nS="3.6623833007812500e+03" nB="7.0904647827148438e+01" nEv="3.7332878417968750e+03" nSuw="3.6660000000000000e+03" nBuw="8.1000000000000000e+01" nEvuw="3.7470000000000000e+03" sepI="1.8631830811500549e-02" sepG="-1.0000000000000000e+00" res="2.4059103801846504e-02" rms="1.3649846613407135e-01" nType="1" CC="0.0000000000000000e+00"/>
          <Node pos="r" depth="2" Seq="3" IVar="-1" Cut="0.0000000000000000e+00" cType="1" nS="1.8769033203125000e+03" nB="2.8007839355468750e+03" nEv="4.6776870117187500e+03" nSuw="1.7100000000000000e+03" nBuw="2.7950000000000000e+03" nEvuw="4.5050000000000000e+03" sepI="1.1538121849298477e-01" sepG="-1.0000000000000000e+00" res="-1.8059609457850456e-02" rms="3.3967810869216919e-01" nType="-1" CC="0.0000000000000000e+00"/>
        </Node>
      </Node>
    </BinaryTree>
    <BinaryTree type="DecisionTree" boostWeight="1.0000000000000000e+00" itree="36">
      <Node pos="s" depth="0" Seq="0" IVar="14" Cut="3.1684157848358154e+00" cType="0" nS="1.0409862500000000e+05" nB="4.9428183593750000e+03" nEv="1.0904144531250000e+05" nSuw="1.0410100000000000e+05" nBuw="4.9010000000000000e+03" nEvuw="1.0900200000000000e+05" sepI="2.0530579611659050e-02" sepG="3.7949389661662281e-04" res="4.1195895522832870e-02" rms="1.4328496158123016e-01" nType="0" CC="0.0000000000000000e+00">
        <Node pos="l" depth="1" Seq="0" IVar="-1" Cut="0.0000000000000000e+00" cType="1" nS="9.4598765625000000e+04" nB="8.8582568359375000e+02" nEv="9.5484585937500000e+04" nSuw="9.5669000000000000e+04" nBuw="9.0100000000000000e+02" nEvuw="9.6570000000000000e+04" sepI="9.1896243393421173e-03" sepG="-1.0000000000000000e+00" res="2.9604524374008179e-02" rms="9.5862530171871185e-02" nType="1" CC="0.0000000000000000e+00"/>
        <Node pos="r" depth="1" Seq="1" IVar="3" Cut="1.7385620623826981e-02" cType="1" nS="9.4998623046875000e+03" nB="4.0569924316406250e+03" nEv="1.3556854492187500e+04" nSuw="8.4320000000000000e+03" nBuw="4.0000000000000000e+03" nEvuw="1.2432000000000000e+04" sepI="9.7355619072914124e-02" sepG="2.5745513848960400e-03" res="-1.0503991506993771e-02" rms="3.1201863288879395e-01" nType="0" CC="0.0000000000000000e+00">
          <Node pos="l" depth="2" Seq="1" IVar="-1" Cut="0.0000000000000000e+00" cType="1" nS="8.6141621093750000e+03" nB="2.2477883300781250e+03" nEv="1.0861950195312500e+04" nSuw="7.7630000000000000e+03" nBuw="2.3040000000000000e+03" nEvuw="1.0067000000000000e+04" sepI="8.6941577494144440e-02" sepG="-1.0000000000000000e+00" res="3.8844039663672447e-03" rms="2.9485857486724854e-01" nType="1" CC="0.0000000000000000e+00"/>
          <Node pos="r" depth="2" Seq="3" IVar="-1" Cut="0.0000000000000000e+00" cType="1" nS="8.8570013427734375e+02" nB="1.8092042236328125e+03" nEv="2.6949042968750000e+03" nSuw="6.6900000000000000e+02" nBuw="1.6960000000000000e+03" nEvuw="2.3650000000000000e+03" sepI="1.2637853622436523e-01" sepG="-1.0000000000000000e+00" res="-2.3997381329536438e-02" rms="3.5549759864807129e-01" nType="-1" CC="0.0000000000000000e+00"/>
        </Node>
      </Node>
    </BinaryTree>
    <BinaryTree type="DecisionTree" boostWeight="1.0000000000000000e+00" itree="37">
      <Node pos="s" depth="0" Seq="0" IVar="14" Cut="2.1689155101776123e+00" cType="0" nS="1.0409862500000000e+05" nB="4.9428183593750000e+03" nEv="1.0904144531250000e+05" nSuw="1.0410100000000000e+05" nBuw="4.9010000000000000e+03" nEvuw="1.0900200000000000e+05" sepI="2.0444089546799660e-02" sepG="3.3734025782905519e-04" res="3.8520082831382751e-02" rms="1.4298282563686371e-01" nType="0" CC="0.0000000000000000e+00">
        <Node pos="l" depth="1" Seq="0" IVar="-1" Cut="0.0000000000000000e+00" cType="1" nS="9.8952304687500000e+04" nB="1.1340500488281250e+03" nEv="1.0008635156250000e+05" nSuw="9.9707000000000000e+04" nBuw="1.1650000000000000e+03" nEvuw="1.0087200000000000e+05" sepI="1.1124427430331707e-02" sepG="-1.0000000000000000e+00" res="2.7808092534542084e-02" rms="1.0547240078449249e-01" nType="1" CC="0.0000000000000000e+00"/>
        <Node pos="r" depth="1" Seq="1" IVar="10" Cut="-1.1357029899954796e-02" cType="0" nS="5.1463217773437500e+03" nB="3.8087680664062500e+03" nEv="8.9550898437500000e+03" nSuw="4.3940000000000000e+03" nBuw="3.7360000000000000e+03" nEvuw="8.1300000000000000e+03" sepI="1.2049747258424759e-01" sepG="3.3730110153555870e-03" res="-2.2882487624883652e-02" rms="3.4712746739387512e-01" nType="0" CC="0.0000000000000000e+00">
          <Node pos="l" depth="2" Seq="1" IVar="-1" Cut="0.0000000000000000e+00" cType="1" nS="3.9167353515625000e+03" nB="1.1713703613281250e+03" nEv="5.0881054687500000e+03" nSuw="3.3720000000000000e+03" nBuw="1.3570000000000000e+03" nEvuw="4.7290000000000000e+03" sepI="1.1680655926465988e-01" sepG="-1.0000000000000000e+00" res="5.9181666001677513e-03" rms="3.4176975488662720e-01" nType="1" CC="0.0000000000000000e+00"/>
          <Node pos="r" depth="2" Seq="3" IVar="-1" Cut="0.0000000000000000e+00" cType="1" nS="1.2295863037109375e+03" nB="2.6373979492187500e+03" nEv="3.8669841308593750e+03" nSuw="1.0220000000000000e+03" nBuw="2.3790000000000000e+03" nEvuw="3.4010000000000000e+03" sepI="1.1754275858402252e-01" sepG="-1.0000000000000000e+00" res="-1.7315501347184181e-02" rms="3.4284508228302002e-01" nType="-1" CC="0.0000000000000000e+00"/>
        </Node>
      </Node>
    </BinaryTree>
    <BinaryTree type="DecisionTree" boostWeight="1.0000000000000000e+00" itree="38">
      <Node pos="s" depth="0" Seq="0" IVar="5" Cut="1.5748363733291626e-01" cType="0" nS="1.0409862500000000e+05" nB="4.9428183593750000e+03" nEv="1.0904144531250000e+05" nSuw="1.0410100000000000e+05" nBuw="4.9010000000000000e+03" nEvuw="1.0900200000000000e+05" sepI="2.0372159779071808e-02" sepG="3.1045859213918447e-04" res="3.6023363471031189e-02" rms="1.4273107051849365e-01" nType="0" CC="0.0000000000000000e+00">
        <Node pos="l" depth="1" Seq="0" IVar="-1" Cut="0.0000000000000000e+00" cType="1" nS="9.8559335937500000e+04" nB="2.0711296386718750e+03" nEv="1.0063046875000000e+05" nSuw="9.8725000000000000e+04" nBuw="2.0250000000000000e+03" nEvuw="1.0075000000000000e+05" sepI="1.5472417697310448e-02" sepG="-1.0000000000000000e+00" res="2.4475682526826859e-02" rms="1.2438817322254181e-01" nType="1" CC="0.0000000000000000e+00"/>
        <Node pos="r" depth="1" Seq="1" IVar="14" Cut="3.2883558273315430e+00" cType="0" nS="5.5392866210937500e+03" nB="2.8716884765625000e+03" nEv="8.4109755859375000e+03" nSuw="5.3760000000000000e+03" nBuw="2.8760000000000000e+03" nEvuw="8.2520000000000000e+03" sepI="7.4968747794628143e-02" sepG="2.6831519789993763e-03" res="-2.4922383949160576e-02" rms="2.7380421757698059e-01" nType="0" CC="0.0000000000000000e+00">
          <Node pos="l" depth="2" Seq="1" IVar="-1" Cut="0.0000000000000000e+00" cType="1" nS="3.6623833007812500e+03" nB="7.0904647827148438e+01" nEv="3.7332878417968750e+03" nSuw="3.6660000000000000e+03" nBuw="8.1000000000000000e+01" nEvuw="3.7470000000000000e+03" sepI="1.8631828948855400e-02" sepG="-1.0000000000000000e+00" res="2.2035147994756699e-02" rms="1.3649846613407135e-01" nType="1" CC="0.0000000000000000e+00"/>
          <Node pos="r" depth="2" Seq="3" IVar="-1" Cut="0.0000000000000000e+00" cType="1" nS="1.8769033203125000e+03" nB="2.8007839355468750e+03" nEv="4.6776870117187500e+03" nSuw="1.7100000000000000e+03" nBuw="2.7950000000000000e+03" nEvuw="4.5050000000000000e+03" sepI="1.1510695517063141e-01" sepG="-1.0000000000000000e+00" res="-1.6889585182070732e-02" rms="3.3927416801452637e-01" nType="-1" CC="0.0000000000000000e+00"/>
        </Node>
      </Node>
    </BinaryTree>
    <BinaryTree type="DecisionTree" boostWeight="1.0000000000000000e+00" itree="39">
      <Node pos="s" depth="0" Seq="0" IVar="14" Cut="3.2083957195281982e+00" cType="0" nS="1.0409862500000000e+05" nB="4.9428183593750000e+03" nEv="1.0904144531250000e+05" nSuw="1.0410100000000000e+05" nBuw="4.9010000000000000e+03" nEvuw="1.0900200000000000e+05" sepI="2.0325427874922752e-02" sepG="2.9891048325225711e-04" res="3.3735722303390503e-02" rms="1.4256727695465088e-01" nType="0" CC="0.0000000000000000e+00">
        <Node pos="l" depth="1" Seq="0" IVar="-1" Cut="0.0000000000000000e+00" cType="1" nS="9.4365359375000000e+04" nB="8.7677270507812500e+02" nEv="9.5242132812500000e+04" nSuw="9.5452000000000000e+04" nBuw="8.9000000000000000e+02" nEvuw="9.6342000000000000e+04" sepI="9.1189956292510033e-03" sepG="-1.0000000000000000e+00" res="2.8461132198572159e-02" rms="9.5493435859680176e-02" nType="1" CC="0.0000000000000000e+00"/>
        <Node pos="r" depth="1" Seq="1" IVar="3" Cut="7.2540002875030041e-03" cType="1" nS="9.7332685546875000e+03" nB="4.0660454101562500e+03" nEv="1.3799313476562500e+04" nSuw="8.6490000000000000e+03" nBuw="4.0110000000000000e+03" nEvuw="1.2660000000000000e+04" sepI="9.5309644937515259e-02" sepG="2.1492366213351488e-03" res="-1.1685244739055634e-02" rms="3.0872261524200439e-01" nType="0" CC="0.0000000000000000e+00">
          <Node pos="l" depth="2" Seq="1" IVar="-1" Cut="0.0000000000000000e+00" cType="1" nS="8.3194414062500000e+03" nB="1.9271030273437500e+03" nEv="1.0246544921875000e+04" nSuw="7.3680000000000000e+03" nBuw="2.0900000000000000e+03" nEvuw="9.4580000000000000e+03" sepI="8.2373477518558502e-02" sepG="-1.0000000000000000e+00" res="4.3509625829756260e-03" rms="2.8700780868530273e-01" nType="1" CC="0.0000000000000000e+00"/>
          <Node pos="r" depth="2" Seq="3" IVar="-1" Cut="0.0000000000000000e+00" cType="1" nS="1.4138267822265625e+03" nB="2.1389423828125000e+03" nEv="3.5527692871093750e+03" nSuw="1.2810000000000000e+03" nBuw="1.9210000000000000e+03" nEvuw="3.2020000000000000e+03" sepI="1.2427102029323578e-01" sepG="-1.0000000000000000e+00" res="-2.0482480525970459e-02" rms="3.5252094268798828e-01" nType="-1" CC="0.0000000000000000e+00"/>
        </Node>
      </Node>
    </BinaryTree>
    <BinaryTree type="DecisionTree" boostWeight="1.0000000000000000e+00" itree="40">
      <Node pos="s" depth="0" Seq="0" IVar="14" Cut="3.1884057521820068e+00" cType="0" nS="1.0409862500000000e+05" nB="4.9428183593750000e+03" nEv="1.0904144531250000e+05" nSuw="1.0410100000000000e+05" nBuw="4.9010000000000000e+03" nEvuw="1.0900200000000000e+05" sepI="2.0254062488675117e-02" sepG="2.6219311985187232e-04" res="3.1542133539915085e-02" rms="1.4231677353382111e-01" nType="0" CC="0.0000000000000000e+00">
        <Node pos="l" depth="1" Seq="0" IVar="-1" Cut="0.0000000000000000e+00" cType="1" nS="9.4476257812500000e+04" nB="8.8107580566406250e+02" nEv="9.5357328125000000e+04" nSuw="9.5560000000000000e+04" nBuw="8.9500000000000000e+02" nEvuw="9.6455000000000000e+04" sepI="9.1522783041000366e-03" sepG="-1.0000000000000000e+00" res="2.7997387573122978e-02" rms="9.5667541027069092e-02" nType="1" CC="0.0000000000000000e+00"/>
        <Node pos="r" depth="1" Seq="1" IVar="10" Cut="-9.4467652961611748e-03" cType="0" nS="9.6223710937500000e+03" nB="4.0617424316406250e+03" nEv="1.3684113281250000e+04" nSuw="8.5410000000000000e+03" nBuw="4.0060000000000000e+03" nEvuw="1.2547000000000000e+04" sepI="9.5527231693267822e-02" sepG="1.9755198154598475e-03" res="-1.1202277615666389e-02" rms="3.0907478928565979e-01" nType="0" CC="0.0000000000000000e+00">
          <Node pos="l" depth="2" Seq="1" IVar="-1" Cut="0.0000000000000000e+00" cType="1" nS="7.5409814453125000e+03" nB="1.2765626220703125e+03" nEv="8.8175439453125000e+03" nSuw="6.7180000000000000e+03" nBuw="1.4830000000000000e+03" nEvuw="8.2010000000000000e+03" sepI="8.2633994519710541e-02" sepG="-1.0000000000000000e+00" res="6.4319074153900146e-03" rms="2.8746128082275391e-01" nType="1" CC="0.0000000000000000e+00"/>
          <Node pos="r" depth="2" Seq="3" IVar="-1" Cut="0.0000000000000000e+00" cType="1" nS="2.0813896484375000e+03" nB="2.7851796875000000e+03" nEv="4.8665693359375000e+03" nSuw="1.8230000000000000e+03" nBuw="2.5230000000000000e+03" nEvuw="4.3460000000000000e+03" sepI="1.1333309113979340e-01" sepG="-1.0000000000000000e+00" res="-1.5580371022224426e-02" rms="3.3664980530738831e-01" nType="-1" CC="0.0000000000000000e+00"/>
        </Node>
      </Node>
    </BinaryTree>
    <BinaryTree type="DecisionTree" boostWeight="1.0000000000000000e+00" itree="41">
      <Node pos="s" depth="0" Seq="0" IVar="3" Cut="3.4171737730503082e-02" cType="1" nS="1.0409862500000000e+05" nB="4.9428183593750000e+03" nEv="1.0904144531250000e+05" nSuw="1.0410100000000000e+05" nBuw="4.9010000000000000e+03" nEvuw="1.0900200000000000e+05" sepI="2.0189102739095688e-02" sepG="2.5211877073161304e-04" res="2.9485424980521202e-02" rms="1.4208835363388062e-01" nType="0" CC="0.0000000000000000e+00">
        <Node pos="l" depth="1" Seq="0" IVar="-1" Cut="0.0000000000000000e+00" cType="1" nS="1.0111759375000000e+05" nB="3.5579794921875000e+03" nEv="1.0467557812500000e+05" nSuw="1.0154600000000000e+05" nBuw="3.6420000000000000e+03" nEvuw="1.0518800000000000e+05" sepI="1.7501097172498703e-02" sepG="-1.0000000000000000e+00" res="2.1120591089129448e-02" rms="1.3229170441627502e-01" nType="1" CC="0.0000000000000000e+00"/>
        <Node pos="r" depth="1" Seq="1" IVar="14" Cut="4.4077959060668945e+00" cType="0" nS="2.9810283203125000e+03" nB="1.3848386230468750e+03" nEv="4.3658666992187500e+03" nSuw="2.5550000000000000e+03" nBuw="1.2590000000000000e+03" nEvuw="3.8140000000000000e+03" sepI="7.8339554369449615e-02" sepG="4.2353076860308647e-03" res="-4.8262715339660645e-02" rms="2.7989202737808228e-01" nType="0" CC="0.0000000000000000e+00">
          <Node pos="l" depth="2" Seq="1" IVar="-1" Cut="0.0000000000000000e+00" cType="1" nS="2.2118872070312500e+03" nB="6.9624084472656250e+01" nEv="2.2815112304687500e+03" nSuw="1.9690000000000000e+03" nBuw="6.5000000000000000e+01" nEvuw="2.0340000000000000e+03" sepI="2.9584364965558052e-02" sepG="-1.0000000000000000e+00" res="9.7608426585793495e-03" rms="1.7200106382369995e-01" nType="1" CC="0.0000000000000000e+00"/>
          <Node pos="r" depth="2" Seq="3" IVar="-1" Cut="0.0000000000000000e+00" cType="1" nS="7.6914111328125000e+02" nB="1.3152144775390625e+03" nEv="2.0843557128906250e+03" nSuw="5.8600000000000000e+02" nBuw="1.1940000000000000e+03" nEvuw="1.7800000000000000e+03" sepI="1.2283518165349960e-01" sepG="-1.0000000000000000e+00" res="-2.9059525579214096e-02" rms="3.5047850012779236e-01" nType="-1" CC="0.0000000000000000e+00"/>
        </Node>
      </Node>
    </BinaryTree>
    <BinaryTree type="DecisionTree" boostWeight="1.0000000000000000e+00" itree="42">
